{"use_imu": true, "control_orientation": true, "observation_history": 4, "action_scale": 0.75, "kp": 5.0, "kd": 0.25, "default_joint_pos": [0.25999999046325684, 0.0, -0.5199999809265137, -0.25999999046325684, 0.0, 0.5199999809265137, 0.25999999046325684, 0.0, -0.5199999809265137, -0.25999999046325684, 0.0, 0.5199999809265137], "joint_upper_limits": [2.509999990463257, 3.140000104904175, 0.7099999785423279, 1.2200000286102295, 0.41999998688697815, 2.7899999618530273, 2.509999990463257, 3.140000104904175, 0.7099999785423279, 1.2200000286102295, 0.41999998688697815, 2.7899999618530273], "joint_lower_limits": [-1.2200000286102295, -0.41999998688697815, -2.7899999618530273, -2.509999990463257, -3.140000104904175, -0.7099999785423279, -1.2200000286102295, -0.41999998688697815, -2.7899999618530273, -2.509999990463257, -3.140000104904175, -0.7099999785423279], "in_shape": [null, 144], "layers": [{"type": "dense", "activation": "elu", "shape": [null, 256], "weights": [[[-0.08506603538990021, -0.002265151124447584, 0.04309561848640442, -0.09818655997514725, 0.017105167731642723, -0.3180416226387024, -0.1084602102637291, -0.21728873252868652, -0.0971890315413475, -0.08839596062898636, -0.15359733998775482, 0.16112759709358215, -0.0865708440542221, 0.03363862261176109, 0.0011966124875470996, -0.17645564675331116, 0.024553207680583, 0.025415923446416855, 0.03180897608399391, -0.13423098623752594, 0.12424147874116898, 0.10462158173322678, -0.1407655030488968, 0.08010748773813248, 0.06728729605674744, 0.12697812914848328, 0.003017008537426591, -0.03221140056848526, 0.039269719272851944, -0.04327443987131119, 0.18510666489601135, 0.2697722911834717, -0.026351099833846092, 0.10867836326360703, 0.03927356377243996, 0.32017093896865845, -0.012213876470923424, 0.2375764101743698, -0.18651224672794342, -0.03574622422456741, -0.05224821716547012, 0.09625835716724396, 0.2579749524593353, -0.09139679372310638, 0.12925715744495392, 0.001110927085392177, -0.07698435336351395, 0.15296702086925507, 0.002534529659897089, -0.10503359138965607, -0.09041222184896469, 0.14015819132328033, -0.18153508007526398, 0.14716164767742157, -0.11067482829093933, -0.2104855626821518, 0.20676440000534058, -0.03096948377788067, 0.04020579159259796, -0.18954876065254211, 0.15787959098815918, 0.0016309245256707072, 0.13214817643165588, 0.26054930686950684, 0.015141545794904232, -0.04259507730603218, 0.022869886830449104, 0.044843025505542755, -0.07758438587188721, -0.09687992930412292, 0.05141962692141533, 0.24556143581867218, 0.17302341759204865, -0.022210732102394104, 0.015021155588328838, -0.010611462406814098, 0.09361185133457184, -0.13796170055866241, 0.009948087856173515, 0.052581556141376495, -0.13059008121490479, 0.14967823028564453, -0.025217870250344276, 0.07289689034223557, 0.07726150006055832, -0.23343239724636078, 0.07458007335662842, 0.006876976694911718, -0.08742241561412811, -0.12810580432415009, 0.1909102350473404, -0.1153508797287941, -0.06387113779783249, 0.19175732135772705, 0.011234603822231293, -0.09644462913274765, 0.10180826485157013, 0.026678767055273056, -0.09643067419528961, 0.029546501114964485, -0.07723847776651382, -0.07455352693796158, -0.02862771600484848, -0.006655146833509207, 0.10021215677261353, -0.12022172659635544, -0.03670141473412514, -0.10680913180112839, -0.15176133811473846, -0.014934294857084751, 0.02293545939028263, -0.11806056648492813, -0.22072121500968933, -0.05496671795845032, 0.04680653288960457, 0.07198452204465866, 0.1585465371608734, -0.0878550261259079, 0.1723804622888565, -0.024025745689868927, 0.13640616834163666, 0.13739778101444244, -0.11769676208496094, 0.11934123188257217, -0.14992809295654297, 0.07047170400619507, -0.13178621232509613, 0.17402824759483337, 0.1849520355463028, -0.09866788983345032, -0.02219392918050289, -0.032087113708257675, 0.080645352602005, -0.06131624057888985, 0.17254981398582458, 0.10681108385324478, -0.1597886085510254, -0.2054508924484253, -0.2067631185054779, -0.20422197878360748, 0.02055809088051319, -0.1297304630279541, 0.11885342001914978, -0.029319925233721733, -0.03460352122783661, -0.02989676594734192, -0.10532895475625992, -0.05485027655959129, 0.0745210349559784, -0.006322698667645454, -0.09833892434835434, -0.08539310842752457, -0.043502092361450195, -0.16552478075027466, 0.2214788943529129, 0.16371089220046997, -0.17088109254837036, 0.053815845400094986, 0.04558637738227844, -0.04080192744731903, -0.12532690167427063, 0.09672671556472778, -0.0998326763510704, 0.2718968391418457, 0.10756479948759079, 0.1973687708377838, 0.21394558250904083, -0.040955737233161926, -0.10878553241491318, -0.11584126949310303, -0.17870241403579712, -0.1850825697183609, 0.11033959686756134, 0.11861380189657211, -0.05215093493461609, -0.22436651587486267, -0.02091345563530922, 0.03235572949051857, -0.08880776911973953, -0.0786147341132164, -0.09941834956407547, -0.17879198491573334, -0.031205488368868828, -0.18149858713150024, 0.1732112020254135, -0.053002696484327316, -0.149255633354187, -0.008466605097055435, -0.03554126247763634, 0.07103099673986435, -0.1258864849805832, -0.1109657883644104, -0.07470355182886124, 0.23555120825767517, -0.14611639082431793, 0.26737725734710693, 0.08699138462543488, 0.13474713265895844, 0.12279800325632095, 0.00574225839227438, -0.06852497905492783, 0.008429376408457756, -0.11316470801830292, -0.08864407986402512, -0.046781543642282486, 0.2122376561164856, 0.08271992206573486, -0.2929629683494568, -0.09447390586137772, 0.12992151081562042, 0.2527313828468323, 0.006861379835754633, -0.04952665790915489, -0.14635322988033295, -0.17184051871299744, 0.05499645322561264, -0.2002561092376709, -0.15451617538928986, -0.1050352081656456, -0.21505197882652283, -0.06784616410732269, -0.10605289041996002, 0.032125718891620636, -0.09821208566427231, -0.0419672355055809, 0.027687672525644302, 0.2796694040298462, 0.035298120230436325, 0.08706924319267273, -0.0993540957570076, 0.14847341179847717, -0.08558714389801025, -0.24940866231918335, -0.18677034974098206, 0.0962715893983841, 0.15750053524971008, 0.012872876599431038, -0.10135769098997116, 0.12155511975288391, -0.08712974190711975, 0.06672795116901398, -0.12040077894926071, 0.23542971909046173, -0.08620964735746384, 0.12012701481580734, -0.1974094957113266, -0.05482957884669304, -0.07108626514673233, -0.14011932909488678, -0.02766469307243824, 0.07937483489513397, -0.2061486840248108, 0.12562166154384613, 0.3187371790409088, 0.11205119639635086, -0.13579118251800537], [0.006380465347319841, -0.1473972201347351, 0.013081981800496578, 0.01812594011425972, -0.03942618519067764, -0.08949068933725357, -0.10087138414382935, -0.021326526999473572, 0.17688898742198944, 0.2599128186702728, 0.026068083941936493, -0.04507023096084595, 0.1738222986459732, -0.14408263564109802, -0.09468097984790802, 0.17849382758140564, -0.12572850286960602, 0.01245427131652832, -0.08401816338300705, -0.07000210881233215, -0.1681625097990036, 0.07323857396841049, 0.11324938386678696, 0.004928281530737877, -0.09912168979644775, 0.1531064361333847, 0.2851566970348358, 0.03419557213783264, 0.004526505246758461, 0.1466967910528183, 0.0783907026052475, -0.0912240669131279, -0.15424828231334686, -0.13777798414230347, 0.050295040011405945, -0.11479479819536209, 0.17507202923297882, 0.02080976963043213, -0.17067328095436096, -0.0675923153758049, -0.10628224909305573, 0.18019308149814606, 0.012207839637994766, 0.3072107136249542, 0.14314256608486176, -0.3087276816368103, -0.17518354952335358, 0.21012356877326965, 0.10758009552955627, 0.14548523724079132, 0.15359336137771606, -0.13353297114372253, 0.24695813655853271, 0.22811701893806458, -0.1151515394449234, -0.2546541392803192, -0.11209017038345337, 0.10645660012960434, -0.15128670632839203, 0.0831950232386589, -0.08920396119356155, -0.17137746512889862, 0.229209303855896, -0.07924016565084457, -0.0929073691368103, 0.2022678107023239, 0.23696772754192352, -0.06534770131111145, -0.1933714747428894, 0.15158799290657043, 0.330104261636734, -0.18240632116794586, -0.06713780015707016, -0.13336269557476044, -0.20623576641082764, 0.11774927377700806, -0.22408346831798553, 0.05211349204182625, -0.003010614076629281, 0.10287926346063614, -0.07999170571565628, -0.028807956725358963, -0.060737885534763336, -0.15808844566345215, 0.2457544207572937, 0.11330623179674149, -0.08289533108472824, 0.16500431299209595, -0.04426892474293709, 0.015277428552508354, 0.19201424717903137, 0.13966716825962067, -0.04939485713839531, -0.10843612253665924, -0.14362090826034546, -0.17047461867332458, 0.12287645041942596, -0.03493467718362808, -0.040775150060653687, 0.08346080034971237, -0.13010826706886292, 0.011200000531971455, 0.09714297205209732, 0.01124491821974516, -0.1900414526462555, 0.16964560747146606, 0.03961576893925667, 0.22655868530273438, -0.021895043551921844, -0.17408844828605652, 0.09817589819431305, -0.09421122074127197, -0.045592401176691055, 0.012873492203652859, 0.13699936866760254, -0.008623061701655388, 0.12417445331811905, -0.11589989811182022, -0.18415497243404388, 0.08201897144317627, 0.014691883698105812, -0.032026249915361404, -0.08911705762147903, 0.08191951364278793, 0.06502996385097504, -0.1301381140947342, -0.08507596701383591, -0.14701978862285614, -0.11853597313165665, -0.03465352952480316, 0.024635661393404007, 0.05395214632153511, 0.1720699667930603, 0.03886355459690094, 0.06888764351606369, -0.17190083861351013, -0.008749313652515411, -0.038491856306791306, 0.053459592163562775, -0.00333329476416111, 0.1929446905851364, 0.14549505710601807, -0.04787725582718849, 0.0841267928481102, -0.18475206196308136, -0.23196941614151, 0.1736324578523636, 0.08327816426753998, 0.11819570511579514, -0.055608898401260376, 0.03523790091276169, -0.2844269573688507, 0.01971023716032505, 0.12181293964385986, -0.10701116919517517, -0.15129055082798004, 0.22013142704963684, -0.08725099265575409, -0.09221649169921875, 0.05687732622027397, 0.15518434345722198, -0.03183353319764137, 0.24292021989822388, 0.24984103441238403, -0.0064925700426101685, 0.1956535279750824, -0.021797548979520798, 0.01431342400610447, 0.1926334947347641, 0.0628512054681778, -0.06603605300188065, -0.12025240063667297, -0.07738752663135529, 0.05773242935538292, -0.025749603286385536, 0.05791481211781502, 0.08423487842082977, -0.06681321561336517, -0.0906357541680336, -0.20446403324604034, 0.19921928644180298, -0.04314788803458214, 0.10913260281085968, -0.01005018875002861, -0.021755173802375793, 0.06464781612157822, -0.12006588280200958, -0.04437268525362015, -0.08088533580303192, -0.021855296567082405, 0.005777699872851372, -0.016803672537207603, 0.08922494947910309, -0.12542788684368134, 0.10962081700563431, 0.20683535933494568, 0.04631258174777031, -0.003721869084984064, 0.2158285528421402, -0.03734011575579643, -0.12170431762933731, -0.02238890528678894, -0.14633919298648834, -0.12002407014369965, -0.04961925745010376, -0.13457056879997253, 0.03761177882552147, -0.20499490201473236, 0.13918735086917877, 0.05979772284626961, -0.15958797931671143, -0.18695597350597382, 0.079646535217762, 0.20447221398353577, -0.14281873404979706, 0.03726176545023918, -0.03478541970252991, -0.06534374505281448, 0.047004055231809616, 0.24845167994499207, 0.1463969498872757, -0.22584836184978485, 0.15229220688343048, -0.12067091464996338, -0.02067822962999344, 0.00907533336430788, 0.2254151552915573, -0.029744205996394157, 0.2120916247367859, 0.29393965005874634, -0.1738099604845047, -0.11595523357391357, -0.05711568519473076, 0.10029186308383942, 0.012191833928227425, -0.10732968151569366, -0.1841345876455307, 0.1512010395526886, -0.012529583647847176, 0.057428229600191116, 0.29943495988845825, 0.06776091456413269, -0.06613370031118393, 0.0932447612285614, -0.07542207837104797, 0.06557868421077728, -0.009860983118414879, -0.08512581139802933, -0.18782295286655426, 0.13488224148750305, -0.17770995199680328, 0.05910593271255493, -0.113215371966362, -0.09490516781806946, -0.06984584778547287, 0.18613630533218384], [-0.09553131461143494, 0.025594240054488182, -0.3314279615879059, 0.1860075443983078, 0.11564435064792633, -0.04266362264752388, -0.1770259290933609, -0.26500245928764343, 0.05992147698998451, -0.18462629616260529, 0.1751234531402588, 0.11871205270290375, 0.20418505370616913, -0.07833024859428406, -0.10755275934934616, 0.2684198319911957, -0.038316510617733, 0.1423713117837906, 0.06957381218671799, 0.11777753382921219, -0.17481441795825958, -0.04468122124671936, -0.200699582695961, -0.036601416766643524, 0.3464527428150177, -0.17044532299041748, 0.21762652695178986, -0.20996469259262085, -0.2388351410627365, 0.27338969707489014, -0.032451629638671875, -0.10354786366224289, -0.2561594247817993, -0.2037980705499649, 0.1549990475177765, 0.01830858737230301, -0.004614772275090218, 0.1963755488395691, 0.13790659606456757, 0.005070590879768133, -0.08108077198266983, 0.04537137225270271, -0.11019335687160492, -0.0309916902333498, 0.11321927607059479, -0.030621860176324844, 0.13573217391967773, 0.026173735037446022, 0.07524412870407104, 0.12176734209060669, -0.061893362551927567, -0.15179191529750824, 0.08633477985858917, 0.0589401014149189, -0.1534714549779892, 0.08196514844894409, -0.021436108276247978, -0.12535612285137177, -0.21149812638759613, 0.1260436326265335, -0.1355849653482437, 0.1386057734489441, -0.06575082987546921, 0.3408196270465851, -0.044895730912685394, 0.16248685121536255, -0.26369088888168335, -0.19867932796478271, 0.035086534917354584, 0.026783498004078865, 0.17892129719257355, -0.19846868515014648, -0.03517099842429161, -0.15254464745521545, 0.04956180229783058, 0.0284406840801239, 0.13385698199272156, -0.1056886836886406, 0.13923825323581696, 0.16006971895694733, 0.21317093074321747, -0.004719355143606663, 0.2264271080493927, 0.09131063520908356, -0.08867211639881134, -0.08003102988004684, -0.13113100826740265, -0.15126973390579224, -0.05729368329048157, 0.14518842101097107, -0.1172899380326271, -0.24924124777317047, -0.15281468629837036, -0.05428367108106613, 0.0841967985033989, 0.0945102646946907, 0.1420513391494751, -0.0737825259566307, -0.032478366047143936, 0.0257981326431036, -0.01814335770905018, -0.0057321954518556595, 0.03413458168506622, 0.030723799020051956, -0.23530219495296478, 0.10582084953784943, -0.13665060698986053, -0.12147631496191025, -0.08816502243280411, -0.02022719755768776, -0.05805440619587898, 0.10058856010437012, -0.05206853151321411, -0.19192734360694885, 0.10489938408136368, 0.224570631980896, -0.16665299236774445, 0.14992734789848328, 0.07963994890451431, 0.22548456490039825, 0.30587026476860046, -0.06043052300810814, -0.15464621782302856, -0.2324410080909729, 0.12586039304733276, 0.06174003332853317, 0.09189346432685852, -0.03666699305176735, 0.05899549648165703, -0.15870153903961182, 0.23548486828804016, 0.1495700627565384, -0.23375487327575684, 0.19259287416934967, -0.09355735778808594, 0.051285888999700546, -0.057227447628974915, 0.23005592823028564, 0.2500038146972656, -0.01938176155090332, -0.22393453121185303, 0.03865423426032066, -0.0895519107580185, 0.06339764595031738, 0.02791568450629711, 0.26634299755096436, -0.14126844704151154, -0.007187094539403915, 0.11712928861379623, 0.12542687356472015, 0.1697951704263687, 0.11812033504247665, 0.12850302457809448, -0.13233861327171326, 0.20783886313438416, -0.02543359249830246, 0.008417495526373386, -0.1196708232164383, 0.012863826006650925, -0.1252688765525818, -0.21166753768920898, -0.22630314528942108, 0.12406381219625473, 0.21968890726566315, -0.15527188777923584, 0.06727961450815201, -0.24769943952560425, -0.12306635081768036, -0.11448267102241516, -0.23318754136562347, 0.05985141545534134, 0.2197105884552002, 0.09208573400974274, 0.08929561823606491, -0.11475345492362976, 0.23052211105823517, -0.14084118604660034, 0.007430970668792725, 0.14551372826099396, 0.24234411120414734, 0.024706292897462845, -0.1439456343650818, -0.09137748181819916, 0.06975176930427551, -0.046834204345941544, 0.007421704940497875, 0.17152443528175354, 0.01284704077988863, -0.15743930637836456, -0.21571166813373566, -0.08431056141853333, 0.19392496347427368, 0.03520762175321579, -0.10146956890821457, -0.024820953607559204, 0.11354435235261917, 0.10556216537952423, 0.3454129099845886, 0.048560984432697296, -0.08135445415973663, -0.169266939163208, 0.004196031019091606, -0.1070697233080864, 0.16193021833896637, 0.003678638720884919, -0.1316060721874237, 0.03743233531713486, -0.2227642685174942, 0.0629718154668808, 0.11015178263187408, -0.14491192996501923, -0.26854407787323, 0.055648546665906906, 0.06412694603204727, 0.03294005244970322, -0.03546345233917236, 0.21059663593769073, -0.19909942150115967, -0.031077120453119278, 0.19353316724300385, -0.0550510436296463, 0.10075697302818298, -0.16335153579711914, 0.17473424971103668, -0.06222842261195183, -0.17940624058246613, 0.09598181396722794, -0.022539781406521797, 0.03291153162717819, 0.08615022152662277, 0.128798708319664, 0.1712552160024643, -0.18837760388851166, 0.27519410848617554, -0.19422221183776855, 0.007853648625314236, 0.019625551998615265, 0.017419962212443352, -0.16267803311347961, 0.050089966505765915, -0.05079988017678261, 0.014134028926491737, 0.1300935298204422, -0.07712483406066895, 0.11986364424228668, 0.012727279216051102, 0.15889745950698853, 0.05174854397773743, -0.1168108731508255, 0.12969672679901123, 0.05074351280927658, 0.08827243745326996, 0.045303430408239365, 0.009633149020373821, -0.35463112592697144, 0.07454592734575272], [-0.7615472078323364, 0.6454325914382935, 0.03344837948679924, 0.5367475152015686, -0.3831031918525696, 1.065557837486267, -0.6952224969863892, 0.35188257694244385, -0.4083063006401062, 0.9355350732803345, -0.3848887085914612, -0.35739001631736755, 0.95073002576828, -1.0583299398422241, -0.5338295698165894, 0.14959923923015594, -0.3866868019104004, 0.7811362147331238, -0.1715882569551468, -0.35917508602142334, 0.45806944370269775, -0.5670734643936157, 0.2382846176624298, -0.6153017282485962, -1.11082923412323, 1.3912678956985474, -0.966134250164032, -0.09385088086128235, -0.5037630200386047, -0.08083707094192505, -0.24072231352329254, -0.2687823474407196, -1.033517837524414, -0.26295411586761475, 0.6497214436531067, 0.6719655990600586, 1.47675359249115, 0.8067390322685242, 0.7219269275665283, 0.2656988501548767, 0.5007258057594299, -0.2496034801006317, -0.7295116186141968, 0.4367252290248871, -1.2124754190444946, 0.4484214186668396, -0.9676392674446106, -0.6592214107513428, -0.9145564436912537, -0.14529110491275787, 0.22135485708713531, -0.8850095272064209, 1.187448501586914, 0.8847546577453613, -0.08190508931875229, -1.2546429634094238, 0.9916682243347168, 0.05027999356389046, -0.48731109499931335, -0.42171040177345276, 0.9777165055274963, -0.5273777842521667, 0.3034086525440216, -0.2931582033634186, 0.29421839118003845, 1.2875051498413086, 0.4416913092136383, -0.451614111661911, -0.6752235889434814, -0.01486463937908411, -0.6162287592887878, 0.43524280190467834, -1.0201071500778198, -0.48172521591186523, -0.25555893778800964, 1.0144420862197876, -0.8044137358665466, -0.6474886536598206, 1.0235265493392944, 0.7199193835258484, -0.7512204647064209, -0.7377063035964966, 0.28577521443367004, -0.269949346780777, -0.3179522752761841, 1.1521741151809692, 0.2771834135055542, -0.1787480115890503, 0.6267662048339844, 1.0626860857009888, 0.9233025908470154, 0.07482126355171204, -0.01268343161791563, -0.4283676743507385, 0.971625030040741, 0.3494188189506531, 1.1524282693862915, 0.13284195959568024, 0.6033660173416138, -0.6721374988555908, 0.6350737810134888, -0.3256075382232666, -0.4830980896949768, 0.01643131487071514, -0.039855584502220154, 0.983329176902771, 0.7573556303977966, 0.00281366053968668, -0.472328782081604, -0.7898921370506287, 0.5149039030075073, -1.6467883586883545, 0.13505800068378448, -0.5355686545372009, -0.8180227279663086, 0.15079288184642792, 1.0593150854110718, 0.06895262002944946, -0.7171860933303833, 0.8558947443962097, -0.597989022731781, 0.67473304271698, -0.6990651488304138, 0.8275862336158752, -1.0267590284347534, -0.9719012379646301, -1.293951153755188, -1.1765499114990234, -0.7219730615615845, -0.48994725942611694, -0.08754583448171616, -0.4887947738170624, -0.21128475666046143, -1.1524088382720947, 0.6355947256088257, -1.499811053276062, 0.18563693761825562, -0.806267261505127, 0.8199469447135925, -0.19319507479667664, 0.18883541226387024, 0.23102298378944397, 0.1989509016275406, -0.8079739212989807, -0.5792849063873291, -0.6224528551101685, 1.3566492795944214, 0.12044264376163483, 0.021383779123425484, -0.5870475769042969, -0.42489954829216003, -0.7527467608451843, 0.6103730201721191, 0.6862500309944153, -0.03175707161426544, 0.9535366296768188, 0.7167143225669861, 0.006397491320967674, -0.5450979471206665, 0.22054634988307953, -0.5900754928588867, -0.06204085052013397, 1.2560062408447266, -0.01088704913854599, 0.8077581524848938, 1.4333021640777588, 1.3618271350860596, 0.2235865443944931, -0.4581548571586609, -0.6282696723937988, 0.17779015004634857, 1.1855599880218506, 0.5044167637825012, 0.39234817028045654, 1.4955980777740479, 0.022166691720485687, 0.29756468534469604, -0.48305729031562805, -0.04473913833498955, -0.7384588718414307, 0.5337164402008057, -0.9129052758216858, -0.47428810596466064, 0.5638189911842346, 0.08109714090824127, -0.19241033494472504, 0.8004835844039917, -0.4212569296360016, -0.5978976488113403, -0.9009768962860107, 1.0079433917999268, -0.2911151349544525, -0.5127006769180298, -1.1940864324569702, -0.5366318821907043, 0.5584849715232849, -1.1335381269454956, 0.3169119656085968, -0.22026577591896057, -0.15534260869026184, -0.16016732156276703, 0.9566394090652466, 0.19566649198532104, -0.12872403860092163, -0.030615683645009995, -0.9420574903488159, -0.26851147413253784, 0.3897497057914734, -0.9495896100997925, 0.4893796741962433, 0.18687446415424347, 0.4646466076374054, 0.967332661151886, 0.5188043117523193, -0.1342664361000061, 0.5969344973564148, -0.9359958171844482, 0.1630178540945053, 0.7465786337852478, 0.9816968441009521, -0.11642584949731827, -0.2625051438808441, -0.1608504354953766, 0.403160959482193, -0.22477088868618011, -0.7312889099121094, -0.15127912163734436, -1.2998003959655762, 0.6886653304100037, 0.42457911372184753, 0.1664782613515854, 0.6617059707641602, 0.6475676894187927, 1.252244234085083, -0.0018583429045975208, -0.8344133496284485, -0.9211398363113403, -0.9056155681610107, 0.13996385037899017, 0.17064647376537323, -0.7597581744194031, 1.3230465650558472, 1.181877613067627, 0.6932013630867004, 1.0602902173995972, 1.2895981073379517, -0.6493586897850037, -0.5393851399421692, -0.7761635780334473, -1.25778067111969, 0.4031868875026703, -0.5649393796920776, -1.4057103395462036, 0.7758790254592896, -0.11005812138319016, 0.5266477465629578], [0.31856343150138855, 0.07236150652170181, 0.5909645557403564, 0.09283778071403503, 0.12175774574279785, 0.2605324685573578, 0.42409956455230713, 0.9118022322654724, 0.7134210467338562, -0.5896711945533752, 0.579343318939209, 0.008954569697380066, 0.5336253643035889, 0.9647318124771118, -0.7804000973701477, 0.5589727759361267, -0.7914901375770569, 0.5777092576026917, 1.2102904319763184, 0.7591689825057983, -0.6834232807159424, -1.074507474899292, 0.3189554512500763, -0.15360410511493683, -0.29203295707702637, -0.08256665617227554, -0.6192876100540161, -0.13201294839382172, -0.9915217161178589, 0.8814663887023926, 0.2958436608314514, -0.4655020833015442, 0.19757601618766785, -0.6234998106956482, -0.19349662959575653, -0.4488314390182495, 1.13603675365448, -0.7089431881904602, 1.093145489692688, 0.4128605127334595, 0.0839320570230484, 0.6803005933761597, -0.997795581817627, -0.24879716336727142, 0.5222625732421875, 0.139190673828125, 0.6513634920120239, 0.9649569988250732, 0.5889835953712463, 0.7650938034057617, -0.6623103022575378, -1.2136507034301758, 0.9770684242248535, -1.1169861555099487, 1.0193531513214111, 0.31327366828918457, -1.2559462785720825, -0.8028396368026733, -1.0654276609420776, 0.7169761061668396, -0.5754119157791138, -0.5713130831718445, -0.03499981388449669, -0.098624087870121, 0.3292589783668518, 0.7247098684310913, -0.016081685200333595, -1.238426923751831, -0.6057872772216797, -0.21882668137550354, -1.0167315006256104, -0.9152528047561646, 0.21489441394805908, -0.20925165712833405, 0.16426211595535278, -1.109144926071167, -0.4914856553077698, 0.23027537763118744, -0.44271668791770935, -0.1945478767156601, -0.08730893582105637, 1.0216596126556396, -1.0195591449737549, -0.262236624956131, -0.5473441481590271, -0.022611649706959724, -0.6857836246490479, 0.36930644512176514, 0.41355326771736145, 1.1884615421295166, -0.1938905566930771, 0.4590083956718445, -0.4328247904777527, -0.8536848425865173, -0.8009244799613953, 0.293818861246109, 0.4380205273628235, 0.743878960609436, 1.4058973789215088, -0.5163761377334595, 0.6645111441612244, -0.22314892709255219, -0.4098513424396515, -0.29449743032455444, -0.24407139420509338, -0.8556668758392334, -0.5028185248374939, 0.07650598138570786, -0.13432709872722626, 0.9959927797317505, 0.5870469212532043, 1.176445484161377, 0.4523813724517822, 0.6414521932601929, 0.3377246856689453, 0.6796047687530518, 0.6155654191970825, 0.23707474768161774, -1.220630407333374, 0.1445683240890503, 0.14387647807598114, -0.9328116774559021, -0.614534318447113, 0.6500314474105835, -0.538297176361084, 1.1955519914627075, 0.09158392995595932, 0.22673740983009338, -0.57979416847229, 0.7729933857917786, 1.143976092338562, 0.389390766620636, 0.3759486973285675, -1.1883800029754639, -0.06801233440637589, -0.2888810634613037, 1.526719093322754, 0.9122588038444519, 0.2384600043296814, 0.8930684924125671, -0.22719600796699524, 0.2531341016292572, 1.1040502786636353, 0.9731708765029907, -1.1392267942428589, 0.7320215106010437, -0.8761501908302307, -0.8452337384223938, -0.02646845020353794, 0.8944622874259949, 1.2481255531311035, -0.3849460482597351, -0.22706694900989532, 0.3947315514087677, -1.207631230354309, 0.06307361274957657, 0.6578976511955261, 0.5200642943382263, 1.168863296508789, -0.37611961364746094, -0.5955770611763, -1.005361557006836, -0.21883933246135712, -1.4427194595336914, -0.4208188056945801, -0.05217700079083443, -0.3697567582130432, -0.7092817425727844, 0.05133315175771713, -1.017457127571106, -0.5032042264938354, -0.16727891564369202, -0.33762702345848083, -0.3996686041355133, -0.390471875667572, -0.15594302117824554, -0.06914442777633667, -0.9761714339256287, 0.20499111711978912, -1.1531975269317627, 0.8102958798408508, 0.6455329060554504, -0.2939039170742035, 0.5415711998939514, -0.8257724046707153, 0.026170263066887856, 0.3500784635543823, -0.8529883027076721, -1.107406735420227, 0.4575626850128174, 0.3041754364967346, -0.583694577217102, -0.38122037053108215, 0.06533407419919968, 0.8865624070167542, -0.7150715589523315, -1.5236332416534424, -0.6337503790855408, 0.7843772768974304, 0.5460941791534424, 0.21002568304538727, -0.5722432732582092, 0.895737886428833, 0.05903708562254906, -0.25558900833129883, 1.1896852254867554, -0.5202778577804565, 1.377434492111206, -0.5519002676010132, -0.3953266739845276, 0.7051534652709961, -0.0964590534567833, 0.5551839470863342, 0.29515382647514343, -0.10655172169208527, -0.7819278240203857, -0.30438411235809326, -1.1622486114501953, 0.3488735556602478, -0.812237024307251, 0.010425522923469543, -0.7059308886528015, -1.1702804565429688, -1.0601117610931396, -0.9435151219367981, -0.048735808581113815, -0.8059239983558655, -0.23684222996234894, 0.09370198100805283, 0.6888896226882935, -0.6505369544029236, -0.5980833172798157, 0.4470505714416504, -1.2413533926010132, 0.6942084431648254, 0.6881962418556213, -0.7531740665435791, 0.8425079584121704, -0.34313806891441345, -0.6435542106628418, -0.4371168613433838, -1.0022271871566772, -0.3205127418041229, -0.9841100573539734, 0.5507315397262573, -0.23940642178058624, 0.8505268096923828, 0.681042492389679, 0.4309617280960083, -1.2330090999603271, 1.2636953592300415, -0.03715024143457413, 0.22652193903923035, 0.12139561772346497, -0.2501789927482605, 0.4894581735134125], [1.8570406436920166, 5.82678747177124, -7.7788310050964355, -4.937232971191406, 11.54355525970459, -2.7099361419677734, -4.57998514175415, -0.27930545806884766, -0.2862081229686737, 3.448270797729492, 10.172632217407227, -4.0614013671875, 4.482745170593262, 4.0509843826293945, -2.3811194896698, -1.5710090398788452, -1.5460638999938965, -4.200267314910889, 5.272067546844482, 5.804807662963867, -1.8475894927978516, 9.348160743713379, 1.3300639390945435, 0.03892229124903679, 0.9331885576248169, 8.756011962890625, -1.6605435609817505, -1.4623087644577026, -3.0541863441467285, 4.311734676361084, -0.3075620234012604, -4.127172946929932, -9.286768913269043, -5.752974987030029, 1.3181294202804565, -7.101253509521484, 3.737699508666992, 3.6961617469787598, 3.1890504360198975, 4.531853199005127, -2.245543956756592, -6.914010524749756, -0.08475526422262192, -6.215422630310059, 3.745759963989258, 8.578998565673828, 1.2083098888397217, 9.92329216003418, -3.269083261489868, 2.046726942062378, -2.382425308227539, -8.252462387084961, 8.62023639678955, -3.4981560707092285, -9.864885330200195, -1.6636641025543213, 8.250438690185547, 0.23513305187225342, 7.830345153808594, 0.5057650804519653, -4.616463661193848, 1.1136904954910278, -5.9559245109558105, 0.8301313519477844, -3.004521131515503, -8.430272102355957, -0.9521607160568237, 2.6459951400756836, -2.216128349304199, -2.903636932373047, 0.2407112419605255, -0.7974312901496887, 2.0911686420440674, 7.527349472045898, -5.25656795501709, -3.5349361896514893, -6.626011848449707, 2.2250611782073975, 2.9735827445983887, 4.613170623779297, 3.734180212020874, 3.1935489177703857, 1.2877893447875977, -7.31616735458374, 1.7313380241394043, 3.9967427253723145, -1.8293139934539795, 5.694043159484863, 4.906975746154785, -1.22420334815979, -2.487989902496338, 7.7496256828308105, 2.335801839828491, 0.6518539190292358, -3.34599232673645, 5.325399398803711, 0.7427961230278015, -4.926078796386719, 2.2680561542510986, 9.686192512512207, 0.4580240249633789, -4.098448753356934, 6.988723278045654, 4.704432964324951, 2.904409408569336, 4.0303263664245605, 1.0482079982757568, -5.536509990692139, -3.9864587783813477, -6.659239292144775, 4.070667266845703, -0.022240955382585526, 4.195268630981445, 5.566302299499512, -3.052995204925537, -7.175955772399902, 8.467459678649902, -0.7413802146911621, -2.897294759750366, 4.014310359954834, -7.783957004547119, -8.5545072555542, -6.278295993804932, -2.939009666442871, -0.20173873007297516, 2.123431444168091, 1.6080939769744873, 6.849912643432617, 7.477458953857422, -5.4365315437316895, 1.584480881690979, 6.88767147064209, 6.003439426422119, 4.52716588973999, 3.533841133117676, -2.5014936923980713, -2.1105387210845947, 1.3225936889648438, -2.036823272705078, -9.33531665802002, -2.425297260284424, -6.2136921882629395, 3.698406934738159, 6.653985977172852, -0.4851462244987488, -7.139566421508789, -0.1664917916059494, 2.437471628189087, -0.6922181248664856, 5.277688980102539, -6.194551944732666, -4.734218597412109, 1.237307071685791, -6.413304328918457, 3.6061413288116455, -0.09224485605955124, -7.163761615753174, -1.6862112283706665, -0.2820775508880615, 3.303288698196411, -3.585636854171753, -1.8993327617645264, 8.983674049377441, -0.24628740549087524, 0.8221652507781982, 1.0881997346878052, 8.39685344696045, 7.108020782470703, -1.9180409908294678, 5.055215835571289, -5.8107523918151855, 0.6901445984840393, 4.895277500152588, 4.493393421173096, -5.170117378234863, 0.5569864511489868, -4.585199356079102, -0.20732739567756653, 4.490822792053223, -5.8852667808532715, 6.25690221786499, 5.967670440673828, 3.34421968460083, 7.92160701751709, 5.937175273895264, 8.761637687683105, 0.09730008989572525, 5.651117324829102, -6.567359447479248, 1.661454439163208, -0.9198879599571228, -4.150243759155273, 0.47511449456214905, 2.869086265563965, 1.1881794929504395, -11.02831745147705, -6.591217041015625, 8.545454978942871, -3.659339666366577, -2.7331669330596924, 13.306376457214355, -0.3836478590965271, -5.619344234466553, -2.996187448501587, -0.04637439548969269, -9.368041038513184, -8.002839088439941, 0.7707751393318176, 6.193812370300293, 6.665108680725098, -4.735963821411133, 0.21717508137226105, 6.669879913330078, -4.344654083251953, -2.6551811695098877, -1.343267798423767, -5.723323822021484, -0.31137341260910034, 3.4928276538848877, 1.2591403722763062, 2.8345084190368652, -2.997941255569458, -4.418478488922119, 5.391708850860596, 4.140682220458984, -6.504444122314453, 5.174098968505859, -5.125971794128418, -6.062643527984619, -3.728238821029663, -3.7937965393066406, -2.7994155883789062, 7.099215030670166, 5.140625, 12.363951683044434, -7.180702209472656, 2.4941751956939697, -1.6536921262741089, -2.98260498046875, 6.647494792938232, 3.597416639328003, 3.871936798095703, -7.579582691192627, -5.953968048095703, -3.4353153705596924, -0.8785156011581421, -3.0468122959136963, 2.961812734603882, -1.5354658365249634, 0.03566865995526314, 3.756730556488037, 9.468700408935547, 5.9850544929504395, 6.234538555145264, 5.947844982147217, -0.6896964907646179], [0.21987618505954742, 0.09360332787036896, 0.053635671734809875, 0.07350100576877594, 0.1868443638086319, 0.5027616024017334, 0.1591280698776245, 0.2012719064950943, -0.13763707876205444, 0.31497520208358765, 0.3975799083709717, -0.4720308482646942, 0.0622992105782032, -0.2019685059785843, 0.31282874941825867, -0.324619323015213, 0.2685036361217499, -0.2690727114677429, 0.04355059191584587, -0.2757117450237274, 0.13359414041042328, -0.08086273074150085, 0.02096288464963436, -0.12486512213945389, 0.10234136879444122, -0.13605260848999023, 0.0778178721666336, -0.12705372273921967, 0.25893089175224304, -0.2949288785457611, -0.0013490788405761123, -0.16632471978664398, 0.1594170778989792, -0.32678064703941345, 0.3379960060119629, -0.09415742009878159, -0.10108369588851929, 0.20467524230480194, -0.09421917051076889, -0.622861921787262, 0.24976785480976105, 0.5451294183731079, 0.07996740192174911, -0.19023050367832184, -0.14460285007953644, 0.32646670937538147, -0.03627576306462288, -0.2068633735179901, 0.14834417402744293, 0.16647844016551971, -0.059049345552921295, -0.23042689263820648, 0.2896745800971985, -0.31213855743408203, -0.2769385874271393, 0.0035751245450228453, -0.3574960231781006, -0.21805571019649506, 0.1385161578655243, -0.059503212571144104, -0.21447579562664032, 0.5249870419502258, 0.11751966923475266, -0.1987864077091217, 0.03135180100798607, 0.18046274781227112, 0.2539586126804352, -0.2939854860305786, -0.2021940052509308, -0.41204869747161865, -0.038025084882974625, -0.3485155999660492, -0.9802652597427368, -0.5499972701072693, 0.5001969337463379, 0.07219043374061584, -0.0884682759642601, 0.0023312305565923452, 0.2034989446401596, 0.23077192902565002, 0.44288644194602966, -0.04138028249144554, -0.2958809733390808, 0.5886067152023315, -0.18030409514904022, -0.22932440042495728, 0.2316240817308426, -0.25960609316825867, 0.11696147918701172, 0.25741448998451233, -0.4435599148273468, -0.22722327709197998, -0.22403399646282196, -0.2305331826210022, -0.17291350662708282, -0.0763256624341011, -0.20879265666007996, -0.2295144498348236, 0.16544921696186066, 0.17960502207279205, -0.352538138628006, -0.0018134360434487462, 0.5404926538467407, -0.27989843487739563, 0.1295461803674698, -0.1830299198627472, -0.08181728422641754, 0.30973020195961, 0.2884160876274109, 0.269849956035614, 0.2929942309856415, 0.09658133238554001, -0.09432757645845413, -0.009792926721274853, -0.33065518736839294, -0.16918399930000305, 0.17531363666057587, 0.10928089916706085, 0.41880109906196594, -0.3510333001613617, -0.18337520956993103, 0.27790072560310364, 0.22448202967643738, -0.000706495891790837, 0.07265486568212509, 0.20083877444267273, -0.3324280381202698, -0.46675175428390503, 0.12102458626031876, 0.15604372322559357, 0.10762841999530792, 0.5515248775482178, 0.3285452127456665, -0.28379595279693604, -0.4208034574985504, 0.2254827618598938, 0.08335889130830765, 0.10576989501714706, -0.2699207365512848, -0.23653388023376465, 0.03928869962692261, 0.023238562047481537, -0.26855042576789856, 0.44454607367515564, -0.05381167680025101, 0.2170872688293457, -0.22137123346328735, -0.333053857088089, 0.4447510540485382, 0.25922173261642456, 0.005222078412771225, 0.06359796226024628, 0.23218177258968353, -0.9168320894241333, 0.4651317596435547, 0.23936206102371216, -0.42624786496162415, -0.16186967492103577, -0.6288220286369324, 0.2848053574562073, -0.010355901904404163, 0.3358837962150574, 0.38308581709861755, 0.1621243953704834, 0.26932963728904724, 0.10167738795280457, -0.06464283913373947, 0.05664645507931709, -0.07480636984109879, 0.2161513864994049, -0.20463094115257263, -0.20532989501953125, -0.14961770176887512, -0.44528353214263916, 0.0004763649485539645, 0.39133208990097046, 0.13883107900619507, -0.02439189702272415, 0.13826610147953033, 0.006548839155584574, 0.13208112120628357, 0.05930030345916748, 0.1214405819773674, 0.08395498991012573, 0.34761252999305725, -0.171346977353096, 0.12485124915838242, 0.17291267216205597, -0.35344773530960083, -0.2638644874095917, 0.3487338423728943, -0.37391358613967896, -0.32883283495903015, -0.013101854361593723, 0.3522322475910187, -0.24333955347537994, 0.18427444994449615, 0.17158281803131104, -0.11856576800346375, 0.1334315836429596, -0.1776382178068161, -0.4073152542114258, -0.14281214773654938, -0.7923710942268372, -0.16298280656337738, 0.5150166749954224, 0.2814863324165344, 0.15784932672977448, 0.13371087610721588, 0.1308469921350479, -0.45805802941322327, -0.15057756006717682, 0.04210628941655159, -0.09913241118192673, -0.04654547944664955, 0.4190863370895386, 0.30302339792251587, -0.31577789783477783, -0.06792885065078735, -0.10904782265424728, -0.022111723199486732, 0.10006463527679443, -0.43346741795539856, -0.13739237189292908, -0.9464902281761169, 0.15472611784934998, -0.28867220878601074, -0.1366727501153946, 0.0009989433456212282, -0.17720818519592285, -0.4098289906978607, 0.05695256590843201, 0.09638257324695587, -0.373182475566864, -0.26571667194366455, 0.2865562438964844, 0.37482213973999023, -0.20150233805179596, 0.1852652132511139, -0.5788645148277283, -0.13284803926944733, 0.11304384469985962, 0.4178524911403656, 0.19894930720329285, 0.31613096594810486, 0.02535286732017994, -0.23842519521713257, -0.27010610699653625, 0.5236560106277466, -0.39561882615089417, -0.39222055673599243, 0.26033782958984375, 0.16460467875003815, 0.19153787195682526, 0.3110332190990448, -0.030570460483431816], [-0.3413705825805664, -0.1395007073879242, 0.07529184222221375, -0.2442656308412552, -0.25921446084976196, 0.29271671175956726, -0.08223079890012741, -0.25880300998687744, -0.12029074877500534, 0.16875115036964417, -0.369648277759552, -0.514793872833252, -0.3705499768257141, 0.10965707898139954, -0.21683046221733093, 0.0964631512761116, -0.2892056107521057, 0.03111598640680313, -0.09244482219219208, -0.1566917598247528, -0.39857882261276245, -0.037080541253089905, 0.7550130486488342, 0.47614532709121704, 0.3473825752735138, 0.08343270421028137, 0.30789220333099365, -0.1476738005876541, -0.3276599943637848, 0.2559794783592224, -0.13574784994125366, 0.46822571754455566, -0.07142604887485504, 0.3502615988254547, 0.025885336101055145, 0.4465901553630829, -0.406141072511673, 0.1639188826084137, 0.13540545105934143, 0.35919463634490967, 0.36740100383758545, 0.014893431216478348, 0.4418669044971466, -0.11653701961040497, 0.3204318881034851, 0.24847222864627838, 0.4930000901222229, -0.483097106218338, -0.11444498598575592, -0.034429341554641724, 0.19243358075618744, -0.45181089639663696, -0.3541284501552582, 0.446152925491333, 0.0119025819003582, 0.2230663299560547, 0.08543991297483444, 0.3400932550430298, -0.048402249813079834, 0.4043123424053192, 0.2986575663089752, -0.7985952496528625, -0.2163669615983963, -0.025250546634197235, -0.19177816808223724, 0.1680624634027481, -0.5265896916389465, 0.21722738444805145, -0.3992846608161926, -0.3853657841682434, -0.055961087346076965, -0.15495240688323975, -0.7734882831573486, -0.34917381405830383, 0.05880027264356613, -0.3363639712333679, -0.2818843126296997, -0.2699994146823883, -0.08412282913923264, -0.4195553660392761, -0.25686538219451904, 0.48099300265312195, 0.6086180806159973, 0.8502687811851501, 0.5396086573600769, 0.25322234630584717, 0.6347060203552246, -0.16097642481327057, -0.24218876659870148, -0.5100528597831726, -0.21468017995357513, -0.2517237365245819, -0.4490646719932556, 0.30380088090896606, 0.11665359139442444, 0.4398193657398224, 0.3786962330341339, 0.42111095786094666, -0.13787630200386047, -0.1123727336525917, 0.2937232553958893, -0.12144315987825394, -0.4441748857498169, -0.20222730934619904, -0.20848378539085388, 0.06978344172239304, -0.3681522607803345, -0.575594425201416, 0.4963994026184082, 0.3010915219783783, 0.5165687203407288, -0.09535761922597885, -0.4501505494117737, -0.5279257893562317, -0.11812973022460938, -0.10351300239562988, 0.3507223427295685, 0.11799509078264236, -0.08813594281673431, 0.56822669506073, -0.08681502938270569, -0.14882206916809082, 0.39833179116249084, 0.20318882167339325, -0.13405297696590424, -0.4451932907104492, 0.17291869223117828, -0.32652243971824646, 0.5309075713157654, 0.35329702496528625, 0.25268131494522095, -0.51006019115448, -0.5494447946548462, 0.19095513224601746, 0.3855638802051544, -0.5595831274986267, -0.05788520723581314, 0.13778328895568848, 0.34340500831604004, -0.3600427508354187, -0.33720818161964417, 0.31936386227607727, 0.6165605187416077, 0.7950083613395691, -0.19499711692333221, -0.05489946901798248, -0.22425538301467896, 0.2829139232635498, 0.15306487679481506, 0.020924746990203857, 0.22842758893966675, -0.38292402029037476, -0.31266775727272034, -0.17171306908130646, -0.21132135391235352, -0.13600008189678192, 0.021528948098421097, 0.0028297496028244495, -0.3053879141807556, 0.566626787185669, 0.48290538787841797, 0.287049263715744, 0.15033908188343048, -0.03319941833615303, 0.12838046252727509, -0.6036273241043091, 0.4227750301361084, 0.3749060332775116, -0.22217701375484467, 0.38007107377052307, -0.19996055960655212, -0.010802438482642174, -0.041023775935173035, -0.4352461099624634, -0.25188958644866943, -0.24102210998535156, 0.18174444139003754, -0.11352233588695526, -0.14369633793830872, -0.03232739865779877, -0.21293821930885315, -0.2985270023345947, 0.03300413861870766, -0.08303526043891907, 0.37544524669647217, -0.11054035276174545, -0.48007410764694214, -0.38114890456199646, 0.042228635400533676, -0.0672001764178276, -0.015272078104317188, -0.32446524500846863, 0.265722393989563, -0.3508472740650177, 0.2338680922985077, -0.191431924700737, -0.13644841313362122, -0.6403820514678955, -0.7523045539855957, -0.4416387379169464, 0.08522319048643112, -0.3714609444141388, 0.4166053235530853, -0.623177707195282, 0.5415751934051514, -0.048817228525877, 0.3124804198741913, 0.5139882564544678, -0.5543301105499268, 0.23899805545806885, 0.018491443246603012, -0.011954228393733501, 0.16721731424331665, -0.025677496567368507, -0.235696941614151, -0.5824763178825378, -0.8856721520423889, 0.05766667053103447, -0.2615889310836792, 0.3165249824523926, -0.23891015350818634, -0.5334447026252747, 0.2948795557022095, 0.35596194863319397, -0.28792691230773926, 0.1017414778470993, 0.6063920259475708, 0.2082330733537674, 0.10304167121648788, 0.25478267669677734, 0.6599450707435608, -0.4643503725528717, -0.46879103779792786, -0.11126913875341415, -0.40401172637939453, 0.11174175143241882, -0.6741425395011902, 0.19299528002738953, -0.39318838715553284, 0.34692612290382385, -0.31196027994155884, -0.03583095222711563, 0.05102946236729622, 0.13321846723556519, 0.6162222623825073, -0.33977821469306946, -0.14679262042045593, 0.1258770078420639, 0.036570023745298386, 0.4361661374568939, -0.3761098384857178, -0.37683019042015076, -0.2659696042537689, -0.017961597070097923, 0.011543342843651772, -0.07678095251321793], [0.015181061811745167, 0.03468162938952446, 0.11581932753324509, -0.15647226572036743, 0.01680474728345871, -0.10450756549835205, 0.16458271443843842, -0.043724264949560165, -0.17093637585639954, 0.014624588191509247, -0.14663726091384888, -0.16391609609127045, -0.17774845659732819, 0.22089800238609314, -0.003983033820986748, -0.09734084457159042, 0.07763773947954178, -0.04249632731080055, -0.06914525479078293, 0.07716716825962067, 0.07824113219976425, 0.13992205262184143, 0.07777038961648941, -0.04565712809562683, -0.1507159173488617, 0.08618161082267761, -0.21613158285617828, 0.12020396441221237, 0.11406494677066803, -0.01954982429742813, -0.2025146335363388, 0.024731332436203957, 0.16851936280727386, 0.22396062314510345, -0.11147357523441315, 0.1049991324543953, -0.028001291677355766, -0.2007179707288742, 0.11971545219421387, -0.0389113686978817, 0.152653768658638, 0.023236006498336792, 0.23117126524448395, -0.03209633380174637, -0.0640660896897316, -0.1224738210439682, -0.030131369829177856, -0.00027774673071689904, 0.1514786034822464, -0.09433141350746155, 0.0544637031853199, -0.008023973554372787, 0.008171086199581623, 0.018393445760011673, 0.11074717342853546, -0.1632695496082306, 0.06549806147813797, 0.1275789886713028, 0.1411193311214447, -0.008763979189097881, 0.05414433032274246, 0.11709029972553253, -0.0006844828021712601, -0.24032211303710938, 0.0564279779791832, 0.1281866431236267, 0.04641861841082573, 0.20367228984832764, 0.08895605057477951, 0.1852438598871231, -0.0031959060579538345, -0.09965625405311584, 0.0879000648856163, -0.014064467512071133, -0.00994995515793562, -0.13931311666965485, -0.10630431026220322, 0.12355220317840576, 0.057356033474206924, -0.17883574962615967, -0.13206325471401215, 0.0658094510436058, -0.17381267249584198, -0.07275205105543137, 0.06462377309799194, -0.12393063306808472, 0.030737360939383507, 0.08558429777622223, 0.05961025506258011, 0.07426714897155762, 0.02322583645582199, 0.140827476978302, -0.0703004002571106, 0.04409119859337807, -0.0781305804848671, -0.10981546342372894, 0.028096172958612442, 0.1653532087802887, -0.16983374953269958, 0.07580475509166718, -0.0032287428621202707, 0.10145500302314758, -0.031045211479067802, -0.06328871101140976, 0.12462326884269714, 0.0518885999917984, 0.1942661851644516, 0.1131073459982872, -0.12141690403223038, -0.02333211340010166, -0.05133430287241936, -0.06604820489883423, 0.15108484029769897, 0.11662644892930984, -0.08757032454013824, -0.1987912952899933, 0.15363265573978424, -0.08133738487958908, -0.22106768190860748, -0.19425742328166962, -0.22264772653579712, 0.16059906780719757, 0.030640875920653343, 0.01538025587797165, -0.0893217921257019, 0.08539924770593643, -0.0035581185948103666, 0.15345118939876556, 0.05080043897032738, 0.10120491683483124, -0.05185312777757645, -0.032671619206666946, 0.17042970657348633, 0.05722777172923088, 0.1281404048204422, 0.00935280416160822, -0.0016976397018879652, 0.06405863165855408, -0.2769606113433838, 0.021749449893832207, 0.22145573794841766, -0.0993342250585556, 0.09060913324356079, -0.033270496875047684, -0.016570620238780975, -0.11728005856275558, -0.08830118924379349, 0.01090501993894577, -0.0014973359648138285, 0.028731636703014374, 0.018174538388848305, -0.012675993144512177, -0.052550215274095535, 0.043621160089969635, -0.1382213979959488, 0.17100609838962555, 0.12505953013896942, -0.15091082453727722, 0.03590410202741623, 0.12798357009887695, 0.1259256899356842, 0.12949024140834808, -0.05482363700866699, 0.10966498404741287, -0.06356591731309891, -0.08882509917020798, 0.1286664605140686, -0.05542725324630737, 0.1465587317943573, -0.03319858759641647, 0.13432848453521729, -0.1984129101037979, 0.1304333657026291, 0.12530763447284698, -0.05015947297215462, -0.197109654545784, 0.12456544488668442, -0.23129843175411224, 0.037315484136343, -0.14810986816883087, -0.006083579733967781, 0.12411932647228241, 0.1153130903840065, -0.0442483052611351, 0.05857763811945915, -0.03384647145867348, -0.08600226044654846, -0.010746964253485203, 0.3009420931339264, 0.16953587532043457, -0.10196838527917862, -0.024753212928771973, -0.04492108151316643, -0.11345943808555603, 0.07452565431594849, 0.09007781744003296, 0.03982057794928551, -0.04714898392558098, -0.09882169961929321, -0.12400822341442108, -0.006385043263435364, 0.018107663840055466, -0.011802819557487965, 0.024740397930145264, -0.03612299636006355, 0.10171891748905182, -0.09792086482048035, -0.016242049634456635, -0.038923230022192, -0.10640718787908554, 0.13007494807243347, 0.02892998233437538, -0.11216142773628235, 0.04157041385769844, -0.037087682634592056, -0.048524271696805954, 0.03093559481203556, 0.13624271750450134, 0.0048242551274597645, -0.21262715756893158, -0.057177770882844925, 0.025193097069859505, -0.13616116344928741, 0.0803428590297699, -0.11627833545207977, 0.12814457714557648, 0.005244433879852295, -0.0834835022687912, 0.005865880288183689, -0.1204834058880806, 0.040698833763599396, -0.0937456265091896, -0.06165750324726105, 0.02499387040734291, 0.13778233528137207, -0.0770365446805954, -0.09043803066015244, 0.11938967555761337, -0.10118486732244492, 0.0291284192353487, 0.017111781984567642, 0.08600232005119324, 0.15535759925842285, 0.041113581508398056, -0.1350249946117401, 0.1269405633211136, -0.1753460019826889, -0.056957144290208817, -0.06191488727927208, -0.04545890912413597, 0.08796410262584686, -0.05491749569773674, -0.055891234427690506, -0.05780627578496933, 0.23470908403396606, -0.15398456156253815], [-0.10127847641706467, 0.3925740420818329, -0.1554078906774521, -0.23487715423107147, -0.2778541147708893, -0.005208647809922695, 0.5052087306976318, -0.24487383663654327, 0.11790803074836731, 0.21946321427822113, -0.2579376697540283, -0.27796420454978943, 0.20730167627334595, -0.4147952198982239, 0.30068740248680115, 0.41561323404312134, 0.6601614952087402, 0.004405615385621786, 0.42591914534568787, 0.11946719884872437, 0.5132763981819153, -0.3485472798347473, 0.1920149326324463, 0.21207305788993835, 0.36282917857170105, 0.3380896747112274, -0.1155083179473877, -0.26912736892700195, 0.4680134654045105, -0.16574500501155853, 0.1520424783229828, -0.48038235306739807, 0.2114858627319336, 0.38450613617897034, 0.2288096696138382, 0.451373428106308, 0.12971751391887665, 0.22907453775405884, -0.2847477197647095, -0.2558700144290924, -0.11020481586456299, 0.13431426882743835, 0.13629868626594543, -0.47503212094306946, -0.3075566291809082, -0.023721814155578613, -0.21034198999404907, 0.45101457834243774, 0.005188461393117905, -0.3219144940376282, 0.14481998980045319, 0.18256966769695282, 0.46877017617225647, 0.2050866037607193, 0.27032017707824707, 0.08617347478866577, -0.24848125874996185, 0.07114791870117188, 0.31051957607269287, -0.25130030512809753, 0.5585000514984131, 0.2693653404712677, 0.05796477943658829, 0.21585381031036377, -0.22868354618549347, 0.21926376223564148, -0.34622448682785034, -0.3100510835647583, -0.5456099510192871, -0.35782143473625183, -0.455306738615036, -0.3404195308685303, -0.3349018096923828, 0.5046439170837402, -0.1714884489774704, 0.13763195276260376, -0.38214462995529175, -0.382001131772995, 0.0958186462521553, 0.2832690179347992, -0.39378124475479126, 0.11110915243625641, -0.31209495663642883, -0.2312408983707428, -0.42001160979270935, 0.4824501574039459, -0.3530569076538086, 0.07799462229013443, 0.40481242537498474, -0.04829894378781319, 0.2674182057380676, 0.2480682134628296, 0.17685188353061676, 0.17289897799491882, 0.3647279739379883, -0.5037588477134705, -0.2661338150501251, -0.13675852119922638, 0.0960141122341156, 0.41117939352989197, 0.16048717498779297, -0.3256569802761078, -0.0973869264125824, -0.4639473557472229, 0.07059448957443237, 0.18398982286453247, 0.053928274661302567, 0.364604651927948, -0.43997129797935486, 0.25566366314888, 0.32085755467414856, -0.6803591847419739, -0.4882795214653015, -0.048889413475990295, 0.3266763985157013, -0.2873820960521698, -0.2716854512691498, -0.373645156621933, -0.10714104026556015, 0.15464960038661957, 0.17642904818058014, -0.5033692121505737, -0.5059390068054199, 0.21825604140758514, -0.5027967691421509, 0.11872982233762741, 0.17925810813903809, 0.5229864716529846, -0.3699302673339844, 0.31677767634391785, -0.18551543354988098, 0.10068541020154953, 0.30096057057380676, -0.40908026695251465, -0.5252946615219116, -0.05126720666885376, -0.06000131741166115, 0.1905195713043213, -0.4145776033401489, 0.4717388451099396, -0.34907394647598267, 0.39139634370803833, -0.1458035409450531, 0.2537999153137207, 0.27242201566696167, -0.18119506537914276, 0.49887022376060486, 0.019943945109844208, 0.5333261489868164, -0.32944437861442566, -0.18102379143238068, -0.3548581004142761, -0.4645421504974365, 0.38032326102256775, 0.3755902349948883, -0.3732045292854309, -0.19874322414398193, 0.08819182217121124, 0.269043892621994, -0.3795149624347687, -0.10535947233438492, 0.13602867722511292, -0.139744371175766, -0.2590976059436798, -0.05518164858222008, 0.3113712668418884, -0.3091701865196228, 0.19539859890937805, -0.34722286462783813, -0.10320649296045303, 0.1411515325307846, 0.3326164782047272, -0.11999895423650742, -0.30136844515800476, 0.6861016750335693, -0.10863752663135529, -0.13733084499835968, -0.2255914956331253, -0.4118865728378296, 0.21170738339424133, 0.01678389310836792, 0.006788678467273712, 0.37999337911605835, -0.2912260591983795, -0.3747805953025818, 0.029569396749138832, -0.4012899696826935, -0.035881318151950836, -0.18117934465408325, -0.5518834590911865, 0.5613682866096497, 0.22639188170433044, -0.39426296949386597, -0.21006803214550018, 0.43419212102890015, 0.12354671210050583, 0.2757644057273865, 0.21657809615135193, 0.386417955160141, -0.08088162541389465, -0.4832213819026947, 0.1940067857503891, -0.04058311507105827, -0.48688560724258423, 0.049130603671073914, 0.0315905325114727, 0.23516851663589478, 0.004073715768754482, 0.1591005176305771, -0.22153440117835999, -0.09954080730676651, -0.34492990374565125, -0.7372893691062927, -0.09098898619413376, 0.3448111116886139, 0.003534778719767928, -0.3934231996536255, -0.2938682734966278, -0.30188459157943726, 0.15940754115581512, 0.31063464283943176, 0.48864495754241943, 0.28646644949913025, 0.6068680882453918, 0.47389495372772217, 0.3532983064651489, -0.5006425380706787, 0.2922050952911377, -0.1796068698167801, 0.11257181316614151, 0.24967338144779205, -0.015546120703220367, 0.047769252210855484, 0.30680787563323975, 0.5331470966339111, 0.372810035943985, -0.05794885382056236, 0.29780104756355286, -0.35797467827796936, 0.11396656930446625, -0.23417805135250092, -0.057461243122816086, -0.4575643241405487, 0.14393262565135956, -0.4341648519039154, 0.4070642590522766, 0.012778736650943756, -0.11793380230665207, -0.35699719190597534, 0.19004938006401062, 0.054255321621894836, -0.35965341329574585, -0.22524406015872955, -0.5040741562843323, -0.14189176261425018, 0.1656387448310852], [0.1680314689874649, -0.10080917924642563, -0.2830371856689453, 0.5829504728317261, 0.019866276532411575, -0.159513458609581, -0.015097160823643208, 0.35088855028152466, -0.15223102271556854, -0.4820388853549957, 0.0541534423828125, -0.49676623940467834, 0.14631927013397217, -0.20392924547195435, 0.48636001348495483, -0.410037636756897, -0.3449893295764923, -0.2742385268211365, 0.1471099853515625, -0.3854341208934784, 0.3742271065711975, -0.27414754033088684, 0.15656979382038116, 0.4470924139022827, 0.1674899160861969, -0.1407964825630188, 0.6457362771034241, -0.21175755560398102, -0.5687808394432068, -0.3301587998867035, -0.19557930529117584, 0.23279671370983124, -0.3030613958835602, -0.32555434107780457, 0.09396625310182571, -0.4162099063396454, -0.05929092690348625, -0.42538967728614807, 0.016822315752506256, -0.09691323339939117, -0.2139359563589096, -0.5207595825195312, -0.28494346141815186, 0.0676313191652298, 0.44024360179901123, -0.38397103548049927, 0.25580811500549316, 0.09470156580209732, 0.5994447469711304, -0.5920917391777039, 0.10280861705541611, -0.42704206705093384, -0.11983190476894379, 0.14126713573932648, 0.47003233432769775, 0.16930079460144043, -0.7319939732551575, -0.10866736620664597, -0.46117255091667175, -0.4200581908226013, 0.5500540137290955, -0.24347823858261108, -0.03577763959765434, -0.2000695765018463, -0.45598381757736206, -0.0008949937764555216, -0.11294128745794296, -0.000529754557646811, -0.5157984495162964, -0.30525583028793335, -0.015084968879818916, -0.13482554256916046, 0.3941841423511505, 0.49341416358947754, -0.16618521511554718, 0.5720075964927673, -0.4374655485153198, 0.3348259925842285, 0.023976435884833336, -0.125808447599411, 0.08199232071638107, -0.5492260456085205, 0.30153530836105347, 0.2036200761795044, -0.3052201569080353, 0.5800910592079163, 0.0766376182436943, -0.0647941529750824, 0.2609400451183319, -0.26467812061309814, -0.12529437243938446, 0.031748220324516296, -0.007622562814503908, 0.3680630326271057, 0.19935977458953857, 0.033892806619405746, -0.040380049496889114, 0.3933011293411255, -0.42215487360954285, 0.43348854780197144, 0.2558625042438507, -0.020050378516316414, 0.38854914903640747, 0.1097014769911766, -0.14355991780757904, 0.4305282235145569, -0.15383847057819366, 0.1502617746591568, 0.3062964081764221, 0.10512813925743103, 0.41069796681404114, -0.07311902940273285, 0.06665252149105072, -0.3997793197631836, -0.5271535515785217, -0.22805237770080566, -0.22778329253196716, 0.22373968362808228, -0.3967295289039612, 0.07549040764570236, 0.07079646736383438, 0.3125608563423157, -0.3607247769832611, -0.31286749243736267, 0.026611551642417908, 0.3923780918121338, 0.03308933228254318, -0.4093409478664398, -0.4675004780292511, -0.20209570229053497, 0.0769910216331482, -0.46929511427879333, -0.3562312126159668, -0.5686189532279968, -0.18431611359119415, 0.24083133041858673, -0.05794527009129524, 0.097836934030056, 0.15386483073234558, 0.47956329584121704, 0.1882741004228592, 0.1534367799758911, -0.26673346757888794, 0.28320953249931335, -0.5668258666992188, -0.5067789554595947, -0.21268980205059052, 0.2250625491142273, -0.3739902973175049, -0.42346733808517456, -0.19900113344192505, -0.12219177186489105, -0.4673693776130676, 0.4078342914581299, -0.09677115827798843, 0.3853696882724762, 0.07351178675889969, -0.2865680754184723, -0.5164295434951782, 0.38530299067497253, 0.1686953604221344, -0.30459779500961304, -0.5836447477340698, 0.0088339326903224, -0.4228299558162689, 0.12189037352800369, 0.01221751794219017, -0.09761638939380646, 0.5001013278961182, 0.37507420778274536, 0.3016567826271057, -0.4632005989551544, -0.276373952627182, -0.12540732324123383, 0.4352477788925171, 0.4357983469963074, 0.11659839004278183, -0.23431670665740967, -0.40656334161758423, 0.28962403535842896, 0.030439049005508423, -0.1787867695093155, -0.3868218958377838, 0.5623587965965271, 0.09928832203149796, 0.5184400081634521, 0.05360494554042816, -0.10359867662191391, -0.38511863350868225, 0.44765394926071167, -0.33407413959503174, 0.3385602533817291, 0.4018254578113556, 0.15356256067752838, 0.5674588680267334, 0.21253730356693268, -0.0018593298736959696, -0.19259560108184814, -0.06046469509601593, -0.10173363983631134, 0.2959255278110504, 0.09883735328912735, -0.10465362668037415, 0.09266456961631775, 0.17721974849700928, -0.4113495647907257, -0.08268143981695175, -0.48093751072883606, -0.043919891119003296, -0.04493433237075806, 0.3365020155906677, 0.2983953058719635, 0.22361895442008972, 0.34470027685165405, 0.327819287776947, 0.5015208125114441, 0.1384442299604416, 0.1519336998462677, 0.19426767528057098, 0.1343994140625, -0.2663517892360687, -0.040639251470565796, -0.20055094361305237, 0.004621512722223997, -0.04780758544802666, -0.19239166378974915, -0.4044882357120514, 0.7061107158660889, -0.5034518837928772, -0.4048583209514618, -0.36312323808670044, 0.3782002329826355, 0.23139725625514984, -0.5336166024208069, 0.4194052219390869, 0.06518992781639099, -0.22795847058296204, 0.2395520955324173, -0.6328855156898499, -0.20453312993049622, 0.2644641399383545, 0.11495192348957062, 0.10440132766962051, 0.323867529630661, 0.3782060444355011, -0.5038897395133972, 0.26424863934516907, 0.09599798917770386, -0.3018738329410553, -0.1416132003068924, 0.31396040320396423, 0.16837424039840698, -0.003071680199354887, -0.7111668586730957, -0.03867238014936447, -0.2545318007469177], [1.4798731803894043, -1.1953068971633911, -1.1748849153518677, 1.7878600358963013, -1.2361005544662476, 1.8016211986541748, 0.30311912298202515, -0.25765711069107056, 0.5996069312095642, 0.8290299773216248, -1.0744097232818604, -1.7356890439987183, 0.7370516061782837, 1.2912657260894775, -0.8665330410003662, -1.3444721698760986, 1.6471508741378784, -1.6743775606155396, -0.00888765323907137, 0.6092211604118347, -1.8943475484848022, 2.370914936065674, -0.5942979454994202, -1.3676154613494873, -1.0024701356887817, -0.6277132034301758, 1.2701767683029175, -1.5770926475524902, 1.5975269079208374, 1.1176491975784302, 1.4350035190582275, -0.475382536649704, -1.2211570739746094, 2.0599706172943115, -1.2284883260726929, -1.8380941152572632, -1.7658677101135254, 0.6530508399009705, 0.8470169305801392, 1.4504858255386353, 1.8228472471237183, -1.5626838207244873, 1.0439939498901367, 1.381411075592041, -0.3187539279460907, 0.9233410954475403, 0.05727076902985573, -1.091081142425537, -0.16119149327278137, -0.4553598165512085, -1.0862668752670288, -3.2997348308563232, -0.7330947518348694, 0.5601112246513367, -1.905876874923706, 0.561091959476471, 1.9138028621673584, -0.25368499755859375, 2.089172601699829, -1.4084402322769165, 2.3713479042053223, -2.2686049938201904, 0.9831686615943909, -0.1226719543337822, 0.12513336539268494, 0.3932107985019684, -1.0138229131698608, -1.0239285230636597, 0.7184032201766968, 0.32224032282829285, 1.0478219985961914, 1.6444908380508423, -0.32757407426834106, -0.18529945611953735, 0.3402634859085083, -0.3770582973957062, -2.446061134338379, -0.09263183921575546, -0.7159391045570374, -0.019475320354104042, -1.4455976486206055, -1.3676586151123047, -0.1996224969625473, 0.964042067527771, 0.4176939129829407, -0.13722729682922363, -2.2734227180480957, -1.3625845909118652, -1.7783228158950806, -2.0916097164154053, 2.119508743286133, 1.3783977031707764, 0.9122682809829712, -0.2644985318183899, -0.29056820273399353, 0.21259279549121857, 1.0616087913513184, -1.5214062929153442, 1.2083203792572021, 1.5892014503479004, -1.62452232837677, 2.3760836124420166, -0.7137475609779358, 3.60191011428833, -0.496706485748291, 0.3021550178527832, 2.661010980606079, 0.8199073672294617, -1.594685673713684, 1.5923330783843994, 1.6743038892745972, -0.5216572880744934, -0.7427017092704773, -0.1545444279909134, -1.4635096788406372, -0.2875199615955353, -2.8653476238250732, -0.3795302212238312, 1.3959681987762451, 1.7427679300308228, 0.3651370108127594, -1.1930723190307617, -1.4909437894821167, 2.4767463207244873, 1.7811199426651, 0.14748090505599976, 1.479104995727539, -0.03954927623271942, -1.6223474740982056, 0.33892592787742615, 0.7475659847259521, -0.585660457611084, -1.8000444173812866, 0.849259614944458, 2.548621654510498, 0.263690710067749, -0.6277559995651245, 1.2878056764602661, -0.5412864089012146, 1.8259044885635376, -1.4289114475250244, -0.49316152930259705, 1.802708625793457, -1.172613263130188, 0.9811931848526001, -0.18486417829990387, -1.532175064086914, -1.0184071063995361, -1.0460277795791626, -2.270949363708496, -0.9201498031616211, -0.7049825191497803, -1.4746499061584473, -1.928648829460144, 0.6174703240394592, 0.2105262726545334, -1.9944826364517212, -1.1281589269638062, 0.23075835406780243, 1.1363247632980347, 0.5753364562988281, -0.8084157705307007, 2.140183925628662, 0.7135936617851257, 1.3521144390106201, -1.3285887241363525, 1.0854637622833252, -0.9206991195678711, -1.950926423072815, -2.623080015182495, -0.9230031967163086, 0.46970027685165405, -1.6256752014160156, -1.2398167848587036, 0.5276139378547668, 2.0231306552886963, -1.2270488739013672, 1.3774484395980835, -0.23267042636871338, -0.4890478551387787, 1.4586988687515259, 1.0038061141967773, 1.333418607711792, 2.2983014583587646, 0.5638231635093689, 1.1970109939575195, 0.2451840192079544, 0.8755828738212585, 0.04670798033475876, -0.8489636778831482, 3.1790900230407715, 0.5304551124572754, 0.055221959948539734, 0.861596405506134, 0.47218772768974304, -0.8387613892555237, -1.999273657798767, -0.46107348799705505, 0.08782360702753067, 0.7377789616584778, -1.4032820463180542, 0.2860937714576721, -0.11129256337881088, 0.13549906015396118, -0.8612006306648254, 0.14178581535816193, -0.8229393362998962, 0.9869530200958252, -0.6922575831413269, 0.7129995226860046, -2.4297616481781006, -0.01521118264645338, 2.874164581298828, 0.6390476226806641, -0.5778626799583435, 0.06539464741945267, 1.2951539754867554, 0.959453821182251, 0.048233047127723694, -2.0378668308258057, 1.3243141174316406, 0.012998368591070175, 0.2113531231880188, 1.7476204633712769, -0.33131563663482666, 0.31690719723701477, -0.41620418429374695, 1.2436810731887817, 0.47570571303367615, -2.3876898288726807, 1.0356643199920654, -0.24610404670238495, -0.87225341796875, 0.5646684765815735, 2.7369470596313477, -0.11709503829479218, 1.6185245513916016, -1.7644065618515015, 1.7997078895568848, 1.1481773853302002, -1.2454873323440552, 1.0249069929122925, 1.7248256206512451, 0.20846375823020935, 0.2843466103076935, 3.0520706176757812, -3.017029285430908, -1.611328363418579, -0.20282721519470215, -1.6413159370422363, -1.3992317914962769, 0.043848417699337006, -0.48278164863586426, 0.2346469759941101, -0.5479150414466858, -1.4517629146575928], [-0.07672259956598282, 0.03606434166431427, -0.45462289452552795, -0.005394923500716686, 0.3607693910598755, 0.361542284488678, -0.2878734767436981, -0.24921628832817078, -0.1497364640235901, 0.24229677021503448, -0.059852659702301025, -0.22899886965751648, 0.2520277202129364, -0.26587167382240295, 0.042401958256959915, -0.07419025152921677, -0.23395277559757233, -0.09607934206724167, -0.5591529011726379, 0.18596477806568146, -0.07934410870075226, 0.12940998375415802, 0.2608724534511566, -0.22512011229991913, -0.2946101427078247, -0.15721119940280914, -0.2217123806476593, 0.34696725010871887, 0.12330160290002823, -0.4848901033401489, 0.5672001242637634, 0.4644263684749603, 0.28050804138183594, -0.29132768511772156, -0.22355486452579498, -0.10126043856143951, -0.15347546339035034, -0.3816310167312622, -0.43653345108032227, -0.1247079074382782, -0.11137107759714127, -0.284341037273407, -0.16343162953853607, 0.2910110056400299, -0.09459149092435837, 0.13993866741657257, 0.3791191875934601, -0.3324665427207947, 0.2789810299873352, -0.11782228946685791, -0.05770588666200638, 0.15557712316513062, -0.0755491852760315, 0.06248995289206505, -0.28879618644714355, -0.21400628983974457, -0.21734619140625, 0.2680767774581909, -0.29828840494155884, -0.17648980021476746, 0.2513968050479889, 0.09320314973592758, -0.09797579050064087, 0.3325880467891693, 0.28974297642707825, 0.007030234206467867, 0.07046743482351303, -0.027153927832841873, -0.15136311948299408, -0.13167013227939606, -0.334401935338974, 0.0012709524016827345, 0.24810872972011566, 0.4934709668159485, 0.11109735071659088, -0.12920427322387695, 0.0961865782737732, -0.34937620162963867, 0.23698943853378296, 0.49049288034439087, -0.057139381766319275, -0.23806235194206238, 0.4243965148925781, -0.3307796120643616, 0.4074822962284088, 0.07983535528182983, -0.03424103185534477, 0.48723554611206055, 0.21491338312625885, 0.40146997570991516, -0.46012741327285767, -0.03595435619354248, 0.150617316365242, 0.14899741113185883, -0.21215566992759705, 0.26117706298828125, 0.1886490285396576, -0.5059158205986023, -0.13741426169872284, 0.005041905678808689, -0.18057695031166077, 0.304256796836853, -0.30537277460098267, -0.1451318860054016, 0.026455774903297424, -0.17236532270908356, -0.24114663898944855, -0.23520527780056, 0.28231081366539, 0.3556741774082184, 0.3898788392543793, 0.12015499174594879, -0.29984232783317566, -0.1927325576543808, -0.022249944508075714, -0.08859027177095413, -0.4113001823425293, 0.24143533408641815, 0.34030425548553467, 0.3253439962863922, 0.34800174832344055, 0.3179332911968231, -0.07585273683071136, -0.05825328454375267, 0.21042044460773468, 0.5188598036766052, -0.32778671383857727, 0.060806021094322205, 0.5320286154747009, 0.540959358215332, 0.41846951842308044, 0.426441490650177, -0.0003896625421475619, -0.38273316621780396, 0.2637120187282562, 0.26051855087280273, -0.005669419653713703, -0.29213887453079224, -0.41736137866973877, 0.1167459562420845, -0.547748863697052, 0.2961507737636566, -0.24243298172950745, 0.1787855178117752, 0.2459688037633896, -0.2815050184726715, 0.018433641642332077, 0.4209287464618683, -0.23316603899002075, 0.19979335367679596, 0.3235102891921997, 0.3865011930465698, -0.11019577085971832, 0.15593722462654114, -0.05111498013138771, -0.04601433500647545, -0.1681835800409317, 0.1194809079170227, -0.3593173325061798, -0.0877043679356575, -0.373529314994812, 0.06733964383602142, -0.06948365271091461, -0.2811453938484192, -0.3210045397281647, -0.43492063879966736, -0.0916828140616417, -0.40893417596817017, 0.12159183621406555, -0.18350884318351746, 0.12928490340709686, 0.21455085277557373, 0.034367885440588, -0.21043723821640015, 0.25417986512184143, 0.12857726216316223, -0.35847198963165283, 0.1476825773715973, 0.1449059098958969, 0.3022706210613251, -0.17099128663539886, -0.12198247760534286, 0.4075135886669159, -0.1463402658700943, -0.1563573032617569, 0.23689821362495422, 0.2436852902173996, 0.15733765065670013, -0.03911185264587402, -0.05977446958422661, 0.029982494190335274, 0.14774173498153687, 0.4367629289627075, 0.1089838296175003, 0.2276173233985901, 0.5287665128707886, 0.12189731001853943, -0.3203752934932709, -0.3393344581127167, 0.46547651290893555, -0.49361923336982727, 0.3892424404621124, -0.06881307810544968, 0.25675320625305176, 0.33334270119667053, 0.1898447573184967, -0.3257307708263397, 0.31967324018478394, -0.23080214858055115, -0.08409128338098526, 0.2537870407104492, -0.43893659114837646, -0.2055521160364151, 0.09197644889354706, 0.28670915961265564, 0.010779562406241894, -0.21258388459682465, -0.12358184903860092, -0.4140280783176422, 0.21576476097106934, -0.3764711022377014, -0.03122882917523384, 0.4982750117778778, 0.2771076261997223, 0.4184006452560425, -0.02122896909713745, 0.4806159436702728, 0.07681361585855484, -0.26710233092308044, 0.20947840809822083, -0.3051055669784546, -0.19699735939502716, -0.3974325954914093, -0.03600871190428734, 0.045873012393713, 0.09267021715641022, 0.0359087735414505, -0.0255602914839983, -0.20874039828777313, -0.2890814244747162, -0.6763619184494019, 0.25923511385917664, 0.0008362368680536747, -0.046925272792577744, -0.21934327483177185, 0.25915154814720154, 0.437409371137619, 0.11613152921199799, 0.4397437274456024, -0.0678059533238411, 0.4053032398223877, 0.09522351622581482, 0.2878868877887726, -0.0276519563049078, -0.08899892121553421, 0.027330521494150162], [0.5210300087928772, 0.2388673573732376, 0.6283294558525085, -0.1750883311033249, 0.813388466835022, 0.521310567855835, 0.32132506370544434, 0.6771789193153381, -0.20056217908859253, 0.15887635946273804, 0.336617648601532, -0.6745733618736267, 0.20160841941833496, 0.4355084300041199, 0.6555659770965576, -0.4736076593399048, -0.8533046841621399, 0.6799585819244385, 0.5344857573509216, -0.0544218011200428, 0.16660992801189423, 0.0710982084274292, 0.1957945078611374, -0.181466743350029, 0.09784923493862152, -0.46328261494636536, 0.4526243805885315, 0.38448360562324524, -0.4630332291126251, 0.08115210384130478, 0.046710919588804245, 0.2738199532032013, -0.352369487285614, -0.29285284876823425, -0.2065819799900055, -0.41793474555015564, -0.23990046977996826, -0.635856568813324, 0.7809802889823914, -0.5848060846328735, -0.4453335702419281, -0.4497239887714386, -0.11242058128118515, -0.48897334933280945, -0.04959777370095253, 0.19807960093021393, 0.26918062567710876, 0.26409292221069336, 0.18112048506736755, -0.1074294000864029, -0.21188054978847504, -0.255861759185791, 0.7879257798194885, -0.5610365271568298, 0.5413541197776794, 0.3932996094226837, -0.2998231053352356, -0.4700845181941986, -0.2252894639968872, 0.4434835910797119, 0.25524482131004333, 0.13720586895942688, -0.20662431418895721, -0.16045300662517548, 0.36362332105636597, 0.2602631151676178, 0.5499571561813354, -0.5838958024978638, 0.1665475070476532, -0.23937755823135376, -0.4747512638568878, -0.19112902879714966, -0.27286165952682495, -0.1166360154747963, -0.3889840543270111, -0.20437827706336975, -0.7439994215965271, 0.3256412446498871, 0.4797191023826599, -0.2195887565612793, -0.17636996507644653, 0.23909656703472137, 0.27219879627227783, 0.014232064597308636, 0.5690318942070007, -0.7157320380210876, 0.38647717237472534, -0.05974676460027695, -0.2876117527484894, 0.004496185574680567, 0.48768484592437744, 0.23311208188533783, 0.4660370647907257, -0.11338352411985397, 0.6737945079803467, -0.20129548013210297, 0.2907031774520874, 0.48679035902023315, -0.3361314535140991, 0.7431698441505432, 0.07317138463258743, 0.3302574157714844, -0.16022591292858124, -0.06419793516397476, 0.2774849534034729, 0.4349023997783661, 0.6269981861114502, -0.6090645790100098, -0.5104485750198364, 0.4672187864780426, 0.6848010420799255, -0.22999277710914612, -0.1352132260799408, -0.32213500142097473, -0.3646842837333679, -0.31459176540374756, -0.19610057771205902, 0.5680647492408752, -0.03432656452059746, -0.10278040915727615, -0.0634690672159195, 0.10032986849546432, -0.06912308931350708, -0.2691550850868225, 0.055978793650865555, -0.47595080733299255, 0.23750458657741547, -0.13181206583976746, -0.5743349194526672, -0.04780467972159386, -0.4456450939178467, -0.05627560615539551, -0.051379937678575516, -0.20319688320159912, -0.05797625705599785, 0.23338103294372559, -0.2065308839082718, -0.3618514835834503, 0.261346697807312, 0.6564480662345886, 0.24218977987766266, 0.4607250988483429, 0.06949746608734131, 0.354976624250412, 0.6397936344146729, 0.44972822070121765, 0.0398494228720665, 0.5273253917694092, -0.2559051811695099, 0.22133217751979828, -0.04711449518799782, 0.31230175495147705, 0.23240827023983002, -0.4339030981063843, -0.07605137676000595, -0.3907223045825958, -0.41666701436042786, 0.15916922688484192, 0.5290290713310242, 0.14357741177082062, -0.11311553418636322, -0.2442632019519806, -0.8123382925987244, 0.24439390003681183, -0.09703744947910309, -0.2794937491416931, -0.5597612261772156, 0.24973247945308685, -0.391509085893631, -0.20979464054107666, -0.28120157122612, 0.10320300608873367, 0.6080289483070374, -0.05287773534655571, 0.03377201408147812, 0.657565176486969, 0.6990059018135071, 0.3461935222148895, 0.35322657227516174, 0.09154515713453293, -0.09115011245012283, -0.2841833233833313, -0.26537203788757324, -0.1913844347000122, -2.532488679207745e-06, 0.4905730187892914, 0.07975704222917557, 0.4550272226333618, 0.08635078370571136, 0.4451872706413269, -0.11853073537349701, -0.15152427554130554, -0.4677583873271942, -0.15849708020687103, 0.4033887982368469, 0.27040958404541016, 0.17068350315093994, 0.024361763149499893, 0.40757372975349426, 0.0815395936369896, 0.342883437871933, 0.4937208294868469, -0.12167680263519287, -0.42954957485198975, -0.5464871525764465, -0.43834561109542847, -0.6435034871101379, 0.5487507581710815, 0.09812573343515396, -0.46283361315727234, -0.1776449978351593, 0.4912330210208893, -0.4358117878437042, -0.17188671231269836, -0.5048063397407532, -0.6083487868309021, -0.6459710597991943, -0.5271464586257935, 0.20496290922164917, -0.037180155515670776, -0.7728925943374634, -0.40653568506240845, 0.25789785385131836, -0.0510905385017395, -0.5149149894714355, -0.18507924675941467, 0.09127309173345566, 0.27460211515426636, -0.03758345544338226, -0.2555161118507385, 0.39857813715934753, -0.37217578291893005, 0.44803890585899353, -0.15382899343967438, -0.3564348816871643, -0.4177204370498657, 0.32126232981681824, 0.06545168906450272, 0.025541260838508606, 0.05398083105683327, -0.10246036946773529, 0.2040741741657257, -0.06622007489204407, 0.14500555396080017, -0.170872762799263, 0.38810375332832336, -0.7936133742332458, 0.41825345158576965, 0.6799849271774292, 0.6301941871643066, 0.47200125455856323, -0.2532162070274353, -0.5882570743560791, -0.22984696924686432, -0.12893275916576385, 0.06790223717689514], [0.08469896763563156, 0.3195796608924866, 0.4113087058067322, 0.08829890936613083, -0.3903670310974121, 0.2363748550415039, -0.2449956089258194, 0.3468405604362488, 0.46816858649253845, 0.052418168634176254, 0.19268110394477844, -0.23827749490737915, -0.3578139543533325, -0.022088652476668358, -0.2899901866912842, -0.01062721200287342, 0.44414326548576355, 0.4460095465183258, 0.31377580761909485, -0.38282760977745056, -0.23795007169246674, 0.16613368690013885, -0.07248988002538681, -0.04687582328915596, -0.03924857825040817, -0.3225061595439911, 0.43875011801719666, -0.21073360741138458, 0.027420740574598312, -0.3399929404258728, -0.05131445452570915, -0.58636474609375, -0.11463246494531631, -0.007892145775258541, 0.16269400715827942, -0.20722292363643646, 0.3968523144721985, -0.18815121054649353, 0.10820730775594711, -0.00717972032725811, 0.07422153651714325, -0.03119131363928318, -0.44972720742225647, -0.4557187557220459, 0.2191377729177475, 0.3827767074108124, -0.08051212131977081, 0.3320787250995636, 0.12808217108249664, 0.23449327051639557, -0.3491353988647461, -0.03226284682750702, -0.15495577454566956, -0.2790657579898834, 0.49155813455581665, -0.4320352375507355, 0.049299728125333786, -0.13907447457313538, 0.19803282618522644, 0.5548926591873169, -0.054433006793260574, 0.3500410318374634, 0.0251941941678524, -0.35103505849838257, -0.22000223398208618, 0.06818164885044098, 0.28772443532943726, 0.08654483407735825, 0.2719549834728241, 0.2756440043449402, 0.24919889867305756, 0.14774267375469208, 0.025907574221491814, -0.4423366189002991, 0.6315668225288391, -0.08353777229785919, 0.11328021436929703, -0.2330586314201355, 0.5167675018310547, 0.20081791281700134, 0.25332143902778625, 0.15444032847881317, -0.051618222147226334, 0.19652530550956726, -0.14658354222774506, 0.11936740577220917, -0.04581519588828087, -0.4470056891441345, 0.195342019200325, -0.07149471342563629, -0.4882303476333618, 0.41041773557662964, -0.25699856877326965, 0.3383997976779938, 0.07764945179224014, 0.4084582030773163, 0.3232329785823822, -0.3342525064945221, -0.3223709464073181, 0.31501156091690063, 0.13425329327583313, 0.21325941383838654, 0.2804320454597473, -0.2653951048851013, -0.17472265660762787, 0.35285666584968567, 0.25120478868484497, -0.07018998265266418, -0.281532347202301, -0.030351202934980392, 0.07809895277023315, 0.19015195965766907, 0.23704883456230164, 0.338998407125473, -0.3837764859199524, 0.3688836097717285, -0.13937029242515564, -0.05600593611598015, 0.5367323756217957, 0.08445972949266434, -0.026241708546876907, 0.39880841970443726, 0.06914207339286804, 0.2748658061027527, -0.05312381684780121, 0.001900329370982945, 0.09933215379714966, -0.3678877353668213, 0.2819835841655731, 0.11960723996162415, 0.36649808287620544, 0.2606687545776367, 0.24970343708992004, -0.4256240725517273, -0.10488829761743546, 0.14627686142921448, -0.13539282977581024, 0.23946939408779144, -0.13118205964565277, 0.16851189732551575, 0.2576524019241333, -0.06795255839824677, 0.3759371340274811, 0.17916162312030792, -0.15203295648097992, 0.4111122488975525, -0.5877466201782227, -0.13009493052959442, -0.0731193944811821, -0.083656445145607, 0.43285542726516724, 0.28702235221862793, -0.2748359441757202, -0.3063335716724396, -0.23470847308635712, 0.14918489754199982, 0.16248786449432373, -0.0378088653087616, -0.1618734896183014, -0.605414628982544, -0.09098002314567566, 0.26794782280921936, -0.1511244922876358, -0.017456725239753723, 0.5652765035629272, 0.027143176645040512, -0.2949891686439514, 0.3968272805213928, 0.3292781710624695, 0.12381884455680847, -0.11885326355695724, -0.2138446867465973, 0.3243027627468109, -0.25708943605422974, 0.046532899141311646, 0.08204533904790878, 0.3903999924659729, 0.17887471616268158, -0.0743732675909996, -0.07730530202388763, -0.24616852402687073, -0.3467654287815094, 0.09692217409610748, -0.23400358855724335, 0.5604098439216614, -0.022455932572484016, 0.1315368413925171, -0.436082124710083, -0.4517025947570801, -0.24254660308361053, 0.13592098653316498, -0.2409891039133072, 0.19090063869953156, 0.19611972570419312, 0.27988138794898987, 0.3423449993133545, 0.1033640131354332, 0.1301075965166092, 0.09594422578811646, -0.14249379932880402, 0.35059475898742676, -0.10832781344652176, -0.3937801420688629, 0.31564345955848694, -0.024664370343089104, -0.27583178877830505, 0.17174914479255676, 0.0026206383481621742, -0.37304064631462097, 0.20886333286762238, 0.1945565640926361, -0.1926071047782898, 0.31614649295806885, 0.2549864947795868, 0.34329622983932495, -0.07946355640888214, -0.11041240394115448, -0.08421815931797028, 0.21490858495235443, 0.1678328663110733, -0.09418094158172607, -0.359686940908432, -0.08000712096691132, -0.4370773136615753, 0.07401952892541885, 0.10138294845819473, -0.09402728080749512, -0.40913769602775574, 0.2542000710964203, -0.2872614562511444, 0.1919482797384262, 0.2189764678478241, -0.03984066843986511, 0.07249385863542557, 0.08193793147802353, -0.1986820101737976, 0.12182416021823883, 0.32427430152893066, 0.01398405060172081, -0.40546324849128723, -0.10452573001384735, 0.3127276599407196, -0.19197329878807068, -0.1650698035955429, 0.3209131062030792, -0.5413637161254883, 0.07550881057977676, -0.20258334279060364, -0.20933423936367035, 0.399641215801239, -0.16327418386936188, -0.08560945838689804, 0.16060277819633484, -0.24287594854831696, 0.038260702043771744, 0.23476994037628174], [0.06099141016602516, 0.2723081707954407, -0.3983140289783478, 0.20316702127456665, -0.23377305269241333, 0.004559328779578209, -0.049886200577020645, -0.2963515520095825, -0.31267163157463074, -0.10505130141973495, 0.23045551776885986, 0.32131481170654297, -0.3198229968547821, -0.1800459623336792, -0.38619446754455566, -0.3209476172924042, -0.13811521232128143, 0.5242243409156799, 0.224504292011261, 0.05909832566976547, -0.004072555340826511, -0.14813829958438873, 0.08680557459592819, 0.137267604470253, 0.030823538079857826, -0.07676493376493454, -0.1399371325969696, 0.032730504870414734, -0.3472399413585663, 0.0764101892709732, 0.28586703538894653, 0.37302905321121216, 0.01088135689496994, -0.23933430016040802, 0.35640034079551697, -0.010734135285019875, -0.08737602084875107, 0.17977303266525269, -0.3497958481311798, -0.38105475902557373, -0.06987632811069489, 0.4510425329208374, -0.2610529661178589, 0.3456757664680481, -0.13052771985530853, 0.10920020937919617, 0.14706750214099884, 0.26821205019950867, 0.09449011832475662, -0.22375455498695374, 0.01671759784221649, -0.09788697957992554, -0.11225344240665436, -0.13079369068145752, -0.053038276731967926, -0.18131327629089355, 0.22558408975601196, 0.22597220540046692, 0.011490189470350742, 0.3702314496040344, -0.08161891251802444, 0.17756341397762299, -0.03543496131896973, 0.13891130685806274, 0.05045516788959503, 0.15925706923007965, -0.02556024119257927, 0.4503920078277588, 0.1416638195514679, -0.42742300033569336, 0.23848722875118256, 0.14914508163928986, -0.25674358010292053, 0.22785764932632446, 0.16880838572978973, -0.19985562562942505, -0.2413472980260849, -0.41848084330558777, -0.29216262698173523, 0.0516216903924942, -0.25076064467430115, -0.337861031293869, 0.45641493797302246, -0.13374820351600647, -0.2781662940979004, 0.08389373868703842, 0.6270278692245483, 0.14709438383579254, -0.11504910886287689, 0.3315078020095825, -0.3427843451499939, -0.312839150428772, 0.21623754501342773, 0.24127140641212463, 0.29075273871421814, -0.37857744097709656, -0.24671097099781036, 0.050292618572711945, -0.24776872992515564, -0.18383781611919403, -0.18178287148475647, 0.06470302492380142, 0.10696510225534439, 0.09570080041885376, 0.2200695276260376, -0.4861835241317749, 0.018611988052725792, -0.1660231053829193, -0.14171332120895386, -0.32094645500183105, 0.2591562867164612, 0.2246033400297165, 0.07098861038684845, -0.24154643714427948, 0.43182939291000366, -0.13522198796272278, 0.011695514433085918, -0.4108036160469055, 0.46587854623794556, 0.1626678705215454, -0.2528197169303894, 0.1541675478219986, 0.36832717061042786, -0.20784519612789154, 0.2310587465763092, -0.3766608238220215, -0.12660099565982819, -0.3198244273662567, -0.0354926660656929, -0.27910614013671875, -0.11212655901908875, -0.19274331629276276, -0.2061423510313034, 0.43265989422798157, 0.1432330310344696, 0.04536251723766327, -0.2124919295310974, -0.03854462876915932, 0.5320088863372803, 0.3361310064792633, 0.17272067070007324, 0.2018294334411621, 0.17292918264865875, 0.2309076488018036, 0.1711145043373108, 0.07888436317443848, -0.13822489976882935, -0.3373555541038513, 0.20953229069709778, 0.024258015677332878, 0.13407616317272186, -0.2703001797199249, -0.3161296248435974, -0.17159591615200043, 0.3212987780570984, 0.23903077840805054, 0.08319167792797089, -0.19083552062511444, -0.15301446616649628, -0.43243172764778137, -0.012701347470283508, 0.31003907322883606, -0.11913929879665375, 0.36114105582237244, 0.3751303553581238, -0.13105423748493195, -0.17291201651096344, -0.2525877058506012, -0.4602733552455902, -0.41413626074790955, 0.37678757309913635, 0.4139448404312134, -0.12878470122814178, 0.014823817647993565, 0.06907257437705994, 0.32275390625, -0.05803823098540306, -0.08293820917606354, 0.2593331038951874, -0.1098596602678299, 0.436206191778183, 0.14494159817695618, -0.3348318040370941, -0.27588555216789246, -0.30660420656204224, -0.13127638399600983, -0.3254598081111908, 0.30486685037612915, -0.3446148931980133, 0.36639413237571716, -0.005586532410234213, -0.5352748036384583, 0.25158601999282837, 0.38970714807510376, 0.04458686709403992, 0.5044844150543213, -0.23044060170650482, 0.11364340782165527, 0.565973699092865, -0.19200146198272705, 0.37497565150260925, 0.2387048751115799, 0.20550259947776794, 0.16230064630508423, 0.0912378802895546, -0.32120779156684875, -0.32434797286987305, 0.2731412351131439, 0.32033470273017883, 0.07177011668682098, -0.1429702490568161, -0.2768357992172241, -0.2133551388978958, 0.2532946467399597, -0.1683587282896042, -0.23452261090278625, 0.19156765937805176, 0.3188566565513611, -0.22529539465904236, 0.43019983172416687, -0.2784363329410553, -0.07194871455430984, 0.10659286379814148, 0.11849508434534073, 0.17966893315315247, -0.16566511988639832, -0.17871439456939697, 0.20695450901985168, 0.11618851125240326, -0.15271681547164917, 0.008719082921743393, -0.46060433983802795, 0.13501732051372528, 0.27725377678871155, -0.4263446629047394, 0.027217013761401176, 0.2606949806213379, -0.19464245438575745, 0.23285482823848724, 0.1787903606891632, 0.403273344039917, 0.21396653354167938, -0.4001152217388153, 0.06979413330554962, 0.3727569282054901, -0.16787753999233246, 0.2751320004463196, -0.29672473669052124, -0.2664051353931427, -0.01947729103267193, 0.3523077368736267, -0.18314553797245026, 0.04053282365202904, 0.558050274848938, 0.36004483699798584, 0.3219587802886963], [0.6128522753715515, -0.4533924460411072, -0.0712021142244339, -0.48738598823547363, 0.4987536072731018, 0.1317300796508789, 0.12629351019859314, -0.09539858996868134, 0.45451465249061584, -0.48993679881095886, 0.15315251052379608, 0.18275251984596252, 0.4188801646232605, 0.5251069664955139, 0.28839629888534546, -0.41785162687301636, 0.30816298723220825, -0.571397066116333, 0.5018364787101746, 0.20831602811813354, -0.5497424006462097, -0.4528403580188751, -0.20155708491802216, -0.2448904812335968, -0.24676448106765747, -0.056399501860141754, -0.3810155987739563, -0.6922902464866638, 0.299599289894104, 0.35422906279563904, 0.23807886242866516, -0.12479140609502792, -0.42996373772621155, 0.343767911195755, 0.3374910056591034, 0.49732479453086853, 0.4676443636417389, -0.37971019744873047, 0.6428149342536926, -0.4240027070045471, -0.5707768797874451, -0.016343189403414726, -0.2662251889705658, -0.653809130191803, 0.41176649928092957, -0.3466382622718811, 0.265898197889328, -0.15015241503715515, 0.28592514991760254, 0.3967539370059967, -0.2566142678260803, 0.25946736335754395, 0.004061542451381683, -0.1849926859140396, -0.10220019519329071, 0.08700963854789734, 0.35606661438941956, -0.04235924407839775, 0.2465352714061737, 0.7286291122436523, -0.23826226592063904, -0.5525842905044556, 0.06628946214914322, -0.3244616985321045, -0.5895663499832153, 0.43952324986457825, -0.49207496643066406, -0.5542116761207581, -0.12974217534065247, 0.3566136360168457, 0.3228387236595154, 0.29475921392440796, 0.13905319571495056, -0.418927401304245, 0.0999550148844719, -0.17505964636802673, 0.18616972863674164, 0.07846654951572418, -0.7252252697944641, 0.5937067866325378, 0.36392879486083984, 0.7474902868270874, -0.4714210331439972, 0.16240930557250977, 0.09432118386030197, 0.2058362066745758, -0.37370091676712036, -0.49107807874679565, 0.057476144284009933, 0.6282351016998291, 0.5006278157234192, 0.016918839886784554, -0.41579174995422363, -0.36971190571784973, -0.19431865215301514, 0.18744319677352905, -0.3588894307613373, 0.03577793762087822, -0.6265242695808411, -0.5139347314834595, -0.43977880477905273, 0.2305043786764145, 0.07069160044193268, -0.5869291424751282, -0.12513086199760437, 0.4816409945487976, -0.029947690665721893, 0.4589664936065674, -0.16853992640972137, 0.18481802940368652, 0.5337580442428589, 0.6123018860816956, -0.4201371371746063, 0.1125640869140625, 0.08663100004196167, -0.35717472434043884, 0.41395696997642517, 0.06862477958202362, 0.07727494090795517, 0.29967930912971497, 0.17703890800476074, 0.667818009853363, 0.5442987084388733, 0.5372783541679382, -0.3708609938621521, 0.902357280254364, 0.43100807070732117, -0.26854491233825684, -0.08394843339920044, 0.279859721660614, 0.7283089756965637, 0.09540913254022598, 0.25385046005249023, -0.9923058748245239, -0.28173816204071045, -0.5531346797943115, -0.04161519929766655, -0.09708906710147858, -0.2821630537509918, -0.047957055270671844, 0.3677319586277008, -0.06058225408196449, 0.20364728569984436, -0.3483799695968628, -0.3439997732639313, 0.3811395466327667, 0.2480742186307907, -0.09922229498624802, -0.04155297204852104, -0.3065904378890991, 0.12125331908464432, -0.2272414118051529, -0.4072335660457611, -0.21831881999969482, -0.6274619102478027, 0.3749030828475952, 0.67646324634552, -0.015726158395409584, -0.22601838409900665, 0.5603398680686951, 0.38777098059654236, 0.38087624311447144, -0.21697579324245453, -0.40514814853668213, 0.4496205151081085, 0.4052709937095642, -0.48845410346984863, -0.10193368047475815, 0.16341707110404968, 0.19285498559474945, -0.5737995505332947, -0.22044506669044495, -0.5267608761787415, -0.019287025555968285, 0.5146007537841797, -0.2706855237483978, -0.24103230237960815, -0.1628846377134323, 0.49044328927993774, -0.21813331544399261, -0.18628545105457306, -0.13816821575164795, 0.339094877243042, 0.3836284279823303, -0.0009628936531953514, 0.1983712613582611, 0.22119060158729553, 0.3641294836997986, 0.16758999228477478, 0.05629867687821388, -0.3236679136753082, -0.4963109493255615, 0.3267553150653839, -0.3900686204433441, -0.285574346780777, -0.29408279061317444, -0.6635953187942505, -0.5525388121604919, 0.022500034421682358, 0.11339537799358368, -0.18682025372982025, -0.7053813934326172, 0.27575579285621643, 0.18199501931667328, 0.5334630012512207, -0.5530408024787903, -0.5500498414039612, -0.20143169164657593, -0.1092013269662857, -0.6047592163085938, 0.39695999026298523, -0.12331017851829529, -0.4557601809501648, 0.10147294402122498, 0.6343168616294861, 0.1269216537475586, 0.19705384969711304, 0.16348454356193542, 0.004976406693458557, -0.21831145882606506, 0.5019737482070923, 0.4936366081237793, -0.2517600953578949, -0.31691694259643555, -0.3218178153038025, 0.45927906036376953, -0.2530212104320526, -0.1764223277568817, 0.2620781362056732, 0.4981958270072937, -0.4819065034389496, 0.12289857119321823, 0.3186251223087311, -0.16195017099380493, 0.24061566591262817, 0.08614842593669891, 0.1544603556394577, 0.5428521037101746, 0.2195425182580948, 0.16623176634311676, -0.22661440074443817, 0.14947602152824402, 0.5496731996536255, 0.319254070520401, -0.23561955988407135, 0.2780067026615143, 0.15387165546417236, -0.07905561476945877, -0.26653969287872314, 0.6086394786834717, -0.3021719753742218, 0.500175416469574, 0.41591954231262207, -0.266165167093277, -0.29372280836105347, 0.09474650770425797], [0.43618786334991455, -0.4557495713233948, 0.07865884900093079, 0.27484214305877686, 0.04323840141296387, 0.3813924789428711, 0.17419379949569702, 0.4560524821281433, 0.5721571445465088, -0.18484555184841156, 0.34841400384902954, -0.15310914814472198, 0.3547745645046234, -0.12536880373954773, -0.4251682758331299, -0.4077887237071991, -0.16995136439800262, 0.14500834047794342, 0.4076272249221802, 0.013863829895853996, 0.07374867796897888, 0.2922881543636322, -0.338290810585022, -0.10617643594741821, -0.20709586143493652, 0.4917221963405609, -0.3335574269294739, 0.11542748659849167, 0.02980238012969494, 0.3355804681777954, -0.09134075790643692, 0.01202060841023922, -0.02650204487144947, -0.1903081089258194, -0.007260946556925774, -0.20898747444152832, -0.12121458351612091, -0.21926800906658173, -0.4810434579849243, 0.04696062207221985, 0.20019163191318512, -0.16584846377372742, -0.23708979785442352, -0.24401889741420746, 0.01881614699959755, -0.09546685963869095, 0.13420918583869934, -0.014102322980761528, 0.14192363619804382, 0.051725395023822784, -0.26345017552375793, 0.2036510705947876, 0.3895565867424011, 0.12533904612064362, 0.4784194827079773, 0.38542863726615906, 0.11114577203989029, 0.10834626108407974, 0.06671073287725449, 0.13703353703022003, 0.4651910662651062, -0.24480663239955902, -0.42471712827682495, -0.1500549167394638, 0.22028052806854248, 0.09197582304477692, -0.15680921077728271, 0.10935065895318985, -0.39288046956062317, 0.38039031624794006, -0.12382028251886368, 0.394512414932251, 0.14794360101222992, 0.09262733906507492, -0.216859370470047, -0.037699371576309204, 0.4229729473590851, 0.1004335805773735, 0.4914904236793518, 0.1335172802209854, 0.2212526649236679, -0.09767661988735199, 0.09161442518234253, -0.2096974104642868, 0.02471727505326271, 0.4305708706378937, -0.07598903030157089, -0.062009748071432114, -0.262022465467453, -0.16386263072490692, -0.350237637758255, 0.08247379213571548, 0.21348217129707336, -0.1973942667245865, -0.038750261068344116, -0.08395060896873474, 0.1060505211353302, 0.30823174118995667, -0.3640522360801697, -0.25610819458961487, 0.3135189712047577, -0.03240394592285156, -0.39262452721595764, -0.1572500616312027, -0.08862005919218063, -0.120921790599823, -0.05286378785967827, -0.5256688594818115, -0.45457208156585693, -0.2792980968952179, 0.10691835731267929, 0.3390600085258484, 0.30767661333084106, -0.11341001838445663, 0.04209562763571739, 0.020625311881303787, 0.17255830764770508, 0.0324125811457634, -0.3023408055305481, -0.2583804130554199, 0.10411886870861053, -0.3154360055923462, 0.1820591688156128, 0.3633812665939331, -0.43412378430366516, -0.37352368235588074, -0.4678523540496826, -0.04452332854270935, -0.3242460787296295, 0.44434744119644165, 0.11908924579620361, 0.015236415900290012, 0.13121747970581055, -0.43634939193725586, -0.1626756489276886, 0.10058961063623428, 0.12690386176109314, 0.28753262758255005, 0.38489624857902527, 0.5556299686431885, -0.22257979214191437, 0.36499470472335815, 0.022364875301718712, -0.297507107257843, 0.3096413314342499, 0.2580054998397827, 0.20803585648536682, -0.07763063162565231, 0.26941025257110596, 0.10964702069759369, -0.3736557960510254, -0.352668821811676, -0.30411621928215027, 0.16298498213291168, -0.0841386541724205, 0.14339254796504974, 0.13959065079689026, 0.19831541180610657, -0.15979620814323425, -0.053751569241285324, 0.2778480052947998, 0.16480553150177002, 0.0899796262383461, 0.08467932045459747, 0.2324979454278946, 0.40257060527801514, -0.22330880165100098, 0.07827247679233551, -0.13173680007457733, -0.2907690405845642, 0.32944944500923157, -0.25852611660957336, 0.33475276827812195, -0.5277860760688782, 0.3111506998538971, -0.3562811017036438, -0.16717225313186646, 0.3270508944988251, 0.07044783234596252, -0.0785531997680664, 0.18151044845581055, 0.18569020926952362, -0.35631322860717773, -0.12932227551937103, 0.2061847746372223, 0.16397978365421295, -0.2344149351119995, -0.26678887009620667, -0.12357062846422195, -0.10812555253505707, 0.29796212911605835, 0.3166671097278595, -0.17555172741413116, -0.09346624463796616, -0.16439807415008545, -0.14525102078914642, 0.04913175106048584, 0.2258339524269104, 0.6725856065750122, 0.08086653798818588, 0.0734516829252243, 0.05244648456573486, 0.1090073511004448, 0.1569419950246811, -0.33157995343208313, 0.3708924949169159, 0.29187652468681335, 0.1702534556388855, 0.3359147906303406, 0.27208101749420166, -0.2675842344760895, 0.07056854665279388, -0.264911413192749, 0.488954097032547, 0.056930456310510635, -0.1221274882555008, -0.1370248645544052, -0.07356283813714981, 0.12841983139514923, 0.16989393532276154, 0.44605153799057007, 0.19601841270923615, -0.3148919343948364, 0.4514981806278229, 0.017282705754041672, 0.00978711899369955, -0.33878055214881897, -0.2703714668750763, 0.3877342641353607, 0.27026402950286865, -0.2897928059101105, -0.14877350628376007, 0.5414437651634216, -0.2347477227449417, -0.05018550157546997, 0.04219441115856171, 0.41396772861480713, -0.06541556864976883, -0.26159241795539856, 0.13186337053775787, -0.2952994406223297, 0.4251735508441925, 0.14772304892539978, 0.17386683821678162, 0.278412401676178, 0.16403713822364807, 0.25280702114105225, -0.45095735788345337, 0.272215336561203, 0.1450648009777069, 0.11403535306453705, -0.44602933526039124, -0.05306234955787659, 0.04257720336318016, -0.23122352361679077, 0.11447678506374359], [-0.03608032688498497, -0.544535219669342, 0.27035006880760193, -0.34486302733421326, 0.1251642256975174, -0.09864931553602219, 0.24693050980567932, 0.12052680552005768, -0.1871567964553833, -0.549430787563324, 0.12168865650892258, 0.21771851181983948, 0.270523339509964, 0.1302051842212677, 0.06998798996210098, -0.19280369579792023, -0.09921115636825562, 0.19209975004196167, 0.1553054004907608, 0.05434758588671684, -0.21681755781173706, 0.3061196804046631, -0.2912769317626953, 0.22630007565021515, 0.197437584400177, -0.03132961317896843, -0.08554679155349731, 0.3117595911026001, -0.4861581325531006, -0.04347093775868416, -0.27131491899490356, -0.20316630601882935, 0.01767577975988388, -0.06577218323945999, 0.1932656466960907, -0.2737616300582886, 0.12847401201725006, -0.19854772090911865, -0.28777775168418884, 0.32488489151000977, -0.13783271610736847, -0.07113728672266006, -0.23399482667446136, 0.04816728085279465, 0.014989152550697327, 0.3361726701259613, -0.3900623619556427, 0.28602316975593567, -0.4957362115383148, 0.12945713102817535, 0.32796546816825867, 0.08350448310375214, -0.018873518332839012, -0.2231556475162506, -0.34815818071365356, 0.13163670897483826, 0.07931101322174072, 0.3086695373058319, -0.2031751573085785, -0.12766234576702118, -0.12781204283237457, -0.16767990589141846, 0.26284563541412354, -0.19254915416240692, -0.11676622182130814, -0.20115141570568085, -0.04082963615655899, 0.03819848224520683, 0.16059495508670807, -0.05189583823084831, -0.165101557970047, -0.450827956199646, 0.12370607256889343, -0.6175189018249512, -0.26423463225364685, 0.08426415175199509, -0.15686245262622833, -0.4008111357688904, 0.11362387239933014, 0.3912580907344818, 0.16227255761623383, 0.09330472350120544, 0.36841079592704773, 0.2165374606847763, -0.03302652761340141, 0.12865829467773438, -0.3637280762195587, 0.07233642786741257, 0.2206016182899475, -0.21573175489902496, 0.09705053269863129, 0.07786239683628082, 0.14853915572166443, -0.33064892888069153, 0.3037618398666382, 0.355212539434433, -0.33887311816215515, 