{"in_shape": [null, 66], "layers": [{"type": "dense", "activation": "relu", "shape": [null, 128], "weights": [[[0.11617209017276764, 0.44949889183044434, -0.04304363578557968, -0.14670410752296448, 0.16048406064510345, 0.015370157547295094, -0.07698086649179459, -0.13104815781116486, 0.1589130312204361, -0.20581871271133423, -0.18183976411819458, 0.07784956693649292, 0.03453342616558075, -0.20959727466106415, 0.3939068615436554, -0.3811250925064087, -0.05394371226429939, 0.2721567153930664, 0.1709621697664261, -0.3187497854232788, 0.0718248039484024, 0.023958856239914894, -0.16625948250293732, -0.03890891373157501, 0.28714603185653687, 0.28127026557922363, 0.00551825575530529, 0.031134426593780518, 0.1444287896156311, -0.010782722383737564, 0.5311397314071655, -0.07107631117105484, -0.2467367947101593, 0.2896723747253418, -0.2897111773490906, -0.07149817049503326, -0.1810888946056366, 0.2631826102733612, 0.24759328365325928, 0.10812357068061829, -0.07061018794775009, 0.3108367919921875, 0.14966042339801788, 0.3044850826263428, 0.19222408533096313, -0.12377386540174484, -0.059478577226400375, -0.16680099070072174, 0.2441786825656891, 0.2639549970626831, 0.23726636171340942, 0.11650211364030838, -0.28464439511299133, 0.193226158618927, 0.044540297240018845, -0.09003230929374695, -0.02050716243684292, -0.11338716745376587, 0.23300224542617798, -0.10000907629728317, -0.1301061064004898, -0.18687765300273895, 0.0745183601975441, -0.37962108850479126, -0.10340777039527893, 0.12010497599840164, -0.28258201479911804, -0.2369549572467804, -0.09850543737411499, 0.0891692116856575, -0.1616162210702896, -0.1449374556541443, 0.20628295838832855, -0.09409667551517487, -0.038002219051122665, -0.08606239408254623, -0.0048994990065693855, 0.04305572435259819, -0.11248554289340973, 0.10767938196659088, -0.2745233476161957, -0.1953672170639038, -0.017414402216672897, 0.21829338371753693, 0.27422088384628296, -0.25423887372016907, -0.19492097198963165, -0.16148650646209717, 0.033506233245134354, -0.3661331534385681, -0.04479604959487915, -0.03663984313607216, 0.022375989705324173, -0.35567742586135864, -0.07191665470600128, 0.23496554791927338, -0.2504563629627228, -0.008506071753799915, 0.04932696372270584, 0.009721433743834496, 0.07700442522764206, -0.4141048789024353, 0.04151486977934837, 0.40311047434806824, -0.06213466078042984, 0.1655566394329071, -0.016103865578770638, -0.1333790123462677, 0.20946745574474335, 0.14907170832157135, 0.06686705350875854, 0.19956685602664948, 0.14640016853809357, -0.07676265388727188, -0.06054750457406044, 0.15289293229579926, -0.03275487571954727, -0.10497550666332245, -0.49961963295936584, 0.0589943490922451, 0.20853391289710999, -0.08186086267232895, 0.04410773143172264, -0.31863951683044434, -0.3371588885784149, -0.25725463032722473, 0.12110923230648041, -0.17322076857089996], [0.004873181693255901, -0.31047356128692627, -0.19354970753192902, -0.3115440309047699, -0.23017467558383942, 0.07282701879739761, 0.15040245652198792, -0.1452380269765854, 0.08818541467189789, 0.1918032169342041, -0.3615562319755554, -0.08415713906288147, -0.2830387055873871, 0.35150501132011414, 0.227064311504364, -0.23844769597053528, -0.3969785273075104, -0.030213618651032448, 0.2537534534931183, -0.1881522238254547, -0.21158720552921295, 0.23881766200065613, 0.42174118757247925, 0.4044531285762787, -0.26845574378967285, 0.099900022149086, 0.07594431191682816, 0.06975889205932617, 0.3503020107746124, 0.21439610421657562, 0.44554203748703003, 0.24211415648460388, 0.10768929123878479, 0.08886208385229111, -0.4111855626106262, -0.052251916378736496, 0.3796634376049042, -0.2035369724035263, -0.032586969435214996, 0.06687113642692566, 0.04656903073191643, -0.2871380150318146, -0.16008879244327545, -0.24128776788711548, -0.400967001914978, 0.04771975800395012, 0.17985734343528748, -0.27200692892074585, -0.09598942846059799, -0.2571030259132385, -0.2195839285850525, -0.1260152906179428, 0.048116713762283325, 0.13888974487781525, 0.0422615185379982, -0.1874256283044815, -0.013300364837050438, -0.37106847763061523, -0.16099508106708527, 0.2581445574760437, 0.01347721740603447, 0.09032882750034332, -0.07639631628990173, -0.002198529429733753, -0.44824862480163574, 0.4240160584449768, 0.1602286845445633, 0.09696219116449356, 0.20978416502475739, -0.24704638123512268, -0.10877997428178787, -0.1445201337337494, -0.0959712490439415, -0.037263307720422745, 0.4382071793079376, 0.08649399131536484, -0.19039344787597656, 0.2818956673145294, -0.22319377958774567, -0.1678842306137085, -0.09348420798778534, -0.16948962211608887, -0.20482325553894043, -0.03489094600081444, -0.014286471530795097, -0.0856998935341835, -0.3151485323905945, 0.16511176526546478, 0.04936918616294861, 0.1540306955575943, -0.08906281739473343, -0.20688845217227936, 0.271801620721817, -0.1471409946680069, -0.39131027460098267, 0.06328149884939194, 0.11759399622678757, 0.009050456807017326, 0.33528363704681396, 0.19560791552066803, -0.022422224283218384, 0.054188624024391174, -0.3565865755081177, 0.06612199544906616, -0.256064236164093, -0.250562459230423, -0.10124804824590683, 0.13312077522277832, 0.06182021647691727, 0.49053293466567993, 0.09260331839323044, 0.14522704482078552, 0.08011994510889053, 0.06709354370832443, 0.16122747957706451, -0.12212866544723511, 0.16457699239253998, 0.17586086690425873, -0.028609711676836014, -0.13555428385734558, -0.23706533014774323, -0.05300268158316612, -0.5203313827514648, -0.1027873232960701, 0.31617847084999084, -0.01714322157204151, 0.09095621109008789, 0.15277568995952606], [-0.13941718637943268, -0.3294367790222168, 0.44230642914772034, 0.25382155179977417, -0.09858197718858719, -0.10009404271841049, -0.2196774035692215, 0.25146088004112244, 0.17725341022014618, -0.0819879025220871, 0.16741850972175598, -0.4693000018596649, 0.4496253430843353, -0.10614318400621414, -0.0391363762319088, 0.010443185456097126, 0.006951083894819021, -0.44415825605392456, 0.2300303429365158, 0.2734275162220001, -0.26343682408332825, 0.08457373827695847, 0.21383841335773468, -0.15418435633182526, 0.1440109759569168, -0.2560268044471741, -0.11840412765741348, -0.23747961223125458, -0.12187180668115616, 0.054981060326099396, -0.04807702824473381, -0.1402873545885086, 0.2710614800453186, 0.12899819016456604, 0.057372938841581345, -0.295951247215271, -0.02515164576470852, -0.26721999049186707, 0.24453331530094147, 0.3146515488624573, -0.012743762694299221, -0.11744223535060883, 0.16011105477809906, -0.20077727735042572, 0.07847392559051514, -0.009724845178425312, -0.3729725182056427, -0.09332910925149918, -0.45008569955825806, -0.21808522939682007, 0.2703537940979004, -0.0012703650863841176, 0.5511385202407837, 0.3915677070617676, -0.1807612031698227, 0.050112515687942505, 0.006034085992723703, 0.10884496569633484, 0.08304046094417572, 0.030160386115312576, 0.33600085973739624, 0.3800736963748932, -0.06272471696138382, 0.012955673970282078, -0.09399668872356415, 0.18934692442417145, -0.09345858544111252, -0.47788068652153015, -0.15504209697246552, 0.4072566628456116, 0.10058657079935074, 0.1781720519065857, -0.6311344504356384, -0.3391152024269104, -0.036105237901210785, -0.4347049593925476, 0.11168224364519119, 0.007159429602324963, 0.30706948041915894, -0.2948378324508667, -0.31198740005493164, -0.07059938460588455, -0.19873255491256714, -0.22681652009487152, -0.4851265847682953, -0.2507409453392029, -0.11227340251207352, -0.08345310389995575, 0.022259090095758438, -0.09485556930303574, 0.2308483123779297, -0.2753755748271942, -0.06788919121026993, -0.008978818543255329, 0.01255438569933176, 0.16415569186210632, 0.3216417729854584, 0.06897037476301193, 0.07015050947666168, 0.021693876013159752, -0.28286775946617126, 0.20433558523654938, -0.32007890939712524, 0.12295292317867279, -0.060898032039403915, 0.2029026299715042, 0.4074512720108032, 0.07162056118249893, 0.16783706843852997, -0.05421498417854309, -0.010562659241259098, 0.16630741953849792, 0.11631164699792862, -0.2161017656326294, -0.17859162390232086, -0.4318791329860687, 0.025650272145867348, 0.06089207902550697, 0.03343620523810387, -0.041896019130945206, 0.09661708772182465, 0.46727630496025085, -0.08854922652244568, -0.06323293596506119, 0.05002113804221153, -0.3487932085990906, -0.2975485920906067, 0.2868555784225464], [0.6481338739395142, 1.4578981399536133, 0.5359199643135071, -0.19161571562290192, -0.4119437336921692, 0.5148268938064575, -0.30588188767433167, -1.44650399684906, -0.12592074275016785, -0.11918102204799652, -4.131280899047852, -1.572773814201355, 0.3492383658885956, 0.33907145261764526, 1.1080594062805176, 1.4830706119537354, 0.18308986723423004, 2.557610511779785, -1.1411709785461426, -0.47198888659477234, -1.4969764947891235, 1.5776464939117432, 2.5119235515594482, 0.25574567914009094, -1.7282848358154297, 3.5057733058929443, -0.17990674078464508, 0.5158609747886658, 2.6532065868377686, 0.6349239349365234, 2.0945417881011963, -0.1332101821899414, 0.4078539311885834, 1.1416603326797485, -1.709835171699524, 0.1930985450744629, 0.8993033766746521, -3.522886276245117, 0.053910285234451294, -2.7692503929138184, -0.5188317894935608, -0.5852211713790894, 0.4334311783313751, -1.0284554958343506, -2.3943512439727783, 2.0671002864837646, 0.1778520792722702, -1.7520970106124878, -0.552602231502533, -0.007958684116601944, -2.5144264698028564, -2.211251974105835, -0.13305217027664185, -1.119001030921936, 1.806604266166687, -0.5284065008163452, 1.148244023323059, -1.4157660007476807, -3.468629837036133, 0.14856880903244019, -0.9030981063842773, -1.429187297821045, -0.12243852019309998, 1.5373064279556274, 0.47193995118141174, 1.1397814750671387, 0.8924643993377686, 0.335410475730896, -1.2023897171020508, 0.19746975600719452, 0.005491325166076422, -0.02165316231548786, -2.2803893089294434, -2.319394588470459, 1.4007893800735474, 0.5239046812057495, -1.1292402744293213, 0.0778607577085495, -1.0294358730316162, 3.2415077686309814, 0.16827546060085297, -1.038615107536316, 1.6045244932174683, -1.856980562210083, -1.07096529006958, -1.3862879276275635, -0.9290869832038879, -0.3584727644920349, 3.228882074356079, 2.474686622619629, 0.09233193099498749, 0.35836073756217957, -0.21603326499462128, 0.37307193875312805, -2.2835004329681396, 0.6635944247245789, -0.47086402773857117, -0.766962468624115, 3.375950813293457, -1.9686393737792969, 2.4870476722717285, -0.5266928672790527, -0.936212956905365, 3.602165699005127, -0.5468117594718933, -1.6757330894470215, 0.6250830292701721, 2.478955030441284, 0.4076974391937256, -0.5861932039260864, 0.05435626953840256, -1.311219334602356, 0.5439309477806091, -2.017315626144409, -1.4383682012557983, -1.607090711593628, -0.4738575518131256, 0.4972301721572876, 1.434085726737976, 0.2455330640077591, 1.266595482826233, 0.143711656332016, -2.354405641555786, 3.3273603916168213, 1.1222665309906006, -0.7370778918266296, 0.7094013690948486, 2.914242744445801], [-0.18648584187030792, -0.40256667137145996, -2.552165985107422, 0.6572335958480835, -5.4762372970581055, 2.253538131713867, -0.7985922694206238, -0.05582470819354057, -0.4901576042175293, 0.2745722532272339, 7.799428939819336, -2.6820716857910156, 3.4217560291290283, -4.97821044921875, -1.4595720767974854, 0.27488231658935547, 8.302387237548828, 1.8664751052856445, -0.09789877384901047, 2.937689781188965, -3.1532890796661377, 0.259234756231308, 5.694706916809082, -0.08824773877859116, 0.5320927500724792, -5.460355758666992, 0.7008084058761597, 4.03316068649292, -3.7468535900115967, 3.124763250350952, -1.7489982843399048, 2.3043551445007324, -1.5741912126541138, -8.16081714630127, 2.244070053100586, -0.7330234050750732, 0.3620491921901703, -2.080080509185791, -2.764173984527588, 2.2427592277526855, 1.0798200368881226, -1.2524245977401733, 5.712679862976074, 2.6555604934692383, -0.29699698090553284, 0.5201195478439331, 2.287982940673828, -6.910319805145264, -1.124121904373169, 2.7704098224639893, -5.918915271759033, 1.452655553817749, 1.9943211078643799, -1.0896116495132446, -0.8036254644393921, 0.6422145962715149, -6.378037929534912, 5.773644924163818, 2.0037355422973633, 2.634226083755493, 1.3554043769836426, 0.8176451325416565, 2.9996352195739746, -2.1417324542999268, 3.2062458992004395, -2.0282890796661377, 1.3573936223983765, -2.695439338684082, -3.6364617347717285, -2.2811946868896484, 2.4396634101867676, -1.5347224473953247, -4.177867412567139, -1.026039481163025, 3.1429948806762695, -6.4260149002075195, 0.1905348300933838, -0.8185544610023499, -2.7437899112701416, -4.31943416595459, 1.6833069324493408, 4.266192436218262, 0.5394704937934875, 3.5695908069610596, 0.029494838789105415, 6.292782783508301, -3.2913224697113037, -3.3482961654663086, -2.625732183456421, 3.881649971008301, 0.034955501556396484, -0.6621429920196533, 8.079261779785156, 4.3894572257995605, 0.1339636594057083, -3.6731338500976562, 5.884607791900635, 5.290102481842041, -1.4877586364746094, 1.1889941692352295, 7.758763790130615, 7.191332817077637, 0.9621685147285461, -8.580031394958496, -1.1548532247543335, 2.7015347480773926, -8.126489639282227, -0.09343234449625015, 2.8467354774475098, -2.112579345703125, -0.6057047843933105, -0.5382816195487976, -7.449886322021484, -5.593459129333496, -3.227013111114502, 1.9587159156799316, 3.50828218460083, 2.9073994159698486, 1.3592606782913208, 1.1394739151000977, 0.7421411275863647, 2.120957612991333, -3.0055088996887207, 0.5250696539878845, -0.6509641408920288, 3.075056552886963, -3.6963136196136475, 0.26508012413978577], [-1.8082187175750732, 2.8597328662872314, -1.8766124248504639, -0.21458135545253754, 1.5781728029251099, -2.4187586307525635, 2.5203492641448975, -0.06142093613743782, -0.9607252478599548, -0.4824543595314026, 1.5483598709106445, -1.4482206106185913, -2.2152798175811768, 1.4135750532150269, -0.20869871973991394, 4.565062046051025, 0.7568625807762146, -0.1975676417350769, -0.017277486622333527, -1.4522658586502075, -0.02696971967816353, 2.4856719970703125, -0.21548913419246674, 0.27865317463874817, 3.387974262237549, -0.6860933899879456, -0.9529794454574585, -0.549331784248352, -0.6019136905670166, -1.9136580228805542, -1.3279359340667725, 0.031363505870103836, -0.7460842132568359, -0.7109737992286682, -1.66743004322052, -2.4095706939697266, -0.6670466661453247, 1.5282964706420898, 1.7206807136535645, -1.4608508348464966, 1.8212910890579224, -2.253011703491211, -0.8578456044197083, 0.5131514072418213, 1.4700466394424438, 5.261559963226318, -1.1944340467453003, 1.7832083702087402, -1.0983777046203613, -3.95845627784729, -1.8524678945541382, -1.3791533708572388, -2.157424211502075, -2.5925965309143066, 3.3058626651763916, 0.04833770543336868, -0.04664131626486778, 0.7871008515357971, 2.0989692211151123, 2.3234386444091797, -0.3144403398036957, -1.1641185283660889, -2.6528773307800293, -0.6194955706596375, 1.3195992708206177, -0.41440534591674805, -1.6335710287094116, -3.3911705017089844, -2.6885945796966553, -2.1540257930755615, -1.8632171154022217, -1.5242575407028198, -0.5221071243286133, 0.5075817704200745, -2.0923070907592773, 1.395670771598816, -0.7684621810913086, -0.4087788462638855, 0.07088939845561981, 5.103349685668945, -2.2492547035217285, 1.9632518291473389, 0.3054005205631256, -3.571295976638794, -3.38515305519104, -0.4794772267341614, 3.361816644668579, -2.8248491287231445, 0.8318179249763489, 5.780526638031006, -0.5194424986839294, -1.3370161056518555, 4.802547931671143, -1.334559440612793, -3.084054708480835, -0.6402932405471802, 0.037495218217372894, 1.6565673351287842, 0.9087840914726257, 3.103015899658203, -1.2005189657211304, -2.212740898132324, 0.14684732258319855, -1.8185330629348755, 2.4381558895111084, -0.9247077703475952, -0.4784851372241974, 2.4561548233032227, 3.8768043518066406, 0.6649563312530518, 0.9476773738861084, 1.4068260192871094, -2.1183953285217285, -0.830170214176178, 0.36831140518188477, 1.822455883026123, 0.8857104778289795, -2.6199393272399902, -0.2921329736709595, -0.5784218311309814, 3.0556042194366455, -0.27476388216018677, -2.727194309234619, 2.1546754837036133, 1.970735788345337, 0.1377185434103012, 0.366055965423584, 0.5429574251174927], [-0.2149888277053833, 0.7356502413749695, -0.15191544592380524, -0.22022293508052826, -0.06423604488372803, 0.4785645306110382, 0.19651466608047485, 0.40405339002609253, 0.20072557032108307, 0.227395161986351, -0.6598018407821655, 0.2106172740459442, 0.19793596863746643, 0.4453284442424774, -0.49360391497612, 0.3581079840660095, 0.2850591838359833, 0.25555646419525146, -0.3629472553730011, -0.6525720357894897, -0.7133748531341553, -0.14689429104328156, 0.158461332321167, 0.16735512018203735, -0.154242604970932, 0.4310579299926758, 0.1450204998254776, -0.5989074110984802, 0.1520519107580185, -0.7487893104553223, 0.2695566713809967, -0.5165155529975891, 0.3700600564479828, -0.42803022265434265, 0.34292709827423096, -0.6967601180076599, -0.3734818398952484, 0.25198668241500854, 0.08431322872638702, 0.3883167803287506, -0.4932629466056824, 0.07563522458076477, 0.16606533527374268, 0.22561241686344147, -0.2781306803226471, -0.334593266248703, -0.679917573928833, 0.5724575519561768, -0.12935151159763336, 0.30140528082847595, -0.4996671974658966, 0.7320164442062378, -0.058932602405548096, 0.019733907654881477, 0.2877989113330841, -0.665506899356842, 0.17637789249420166, 0.47518089413642883, -0.33307722210884094, -0.5153079032897949, -0.06490622460842133, -0.29971495270729065, -0.7536705136299133, 0.1409052610397339, 0.6716113090515137, 0.6217290759086609, 0.41323888301849365, -0.09928837418556213, 0.3174354135990143, -0.1264418512582779, 0.4993423521518707, -0.27655264735221863, 0.12787111103534698, 0.4098738729953766, 0.0517088882625103, 0.23589767515659332, -0.3020898103713989, 0.07414761930704117, 0.27800989151000977, -0.06941279768943787, -0.47551098465919495, 0.19572389125823975, -0.1281457394361496, 0.30844902992248535, -0.34945806860923767, 0.6837248206138611, -0.062568798661232, -0.6018741130828857, -0.2410387396812439, -0.41865935921669006, -0.09672737866640091, 0.32517009973526, -0.2034423053264618, 0.21335089206695557, 0.05623346194624901, 0.41220328211784363, 0.11992546916007996, 0.11512938141822815, 0.21985268592834473, -0.598195493221283, -0.4563158452510834, -0.06891701370477676, 0.10319559276103973, 0.39538708329200745, 0.387738972902298, -0.425427109003067, -0.4073740243911743, -0.46854111552238464, 0.08864456415176392, 0.30171534419059753, 0.4502979815006256, -0.14273446798324585, 0.24539518356323242, -0.41463276743888855, -0.554105281829834, -0.0611860454082489, -0.2861865162849426, -3.246266351197846e-05, 0.3929150104522705, 0.02765376679599285, 0.5437167286872864, -0.022021403536200523, -0.08434777706861496, 0.5828183889389038, 0.3476879596710205, 0.26658186316490173, 0.6663417816162109, -0.47529545426368713], [0.7878440022468567, 0.6313957571983337, -0.507542073726654, -0.44511282444000244, 0.762507975101471, 0.3602959215641022, -0.398183673620224, -0.4335465431213379, 0.8346967101097107, 0.5770804286003113, 0.4050668776035309, 0.3612065315246582, -0.8875275254249573, 0.06954699009656906, 0.5496504306793213, -0.24782094359397888, -0.1440736949443817, 0.1302143931388855, 0.4715254008769989, 0.6219192743301392, -0.5569638013839722, -0.1930832713842392, -0.011477173306047916, 0.26654475927352905, 0.5155390501022339, 0.20631296932697296, -0.5065822601318359, 0.37086862325668335, 0.26463645696640015, 0.19412310421466827, 0.07484307140111923, -0.23441070318222046, -0.6065646409988403, 0.8116517663002014, 0.302486389875412, -0.8684294819831848, 0.4611338675022125, -0.5115534663200378, 0.17743317782878876, -0.3574536144733429, -0.26398345828056335, -0.14613713324069977, 0.7308846712112427, -0.3056095540523529, -0.602084219455719, 0.42551130056381226, -0.3099205493927002, 0.3300175964832306, 0.3579632639884949, -0.2138899862766266, -0.3643106520175934, -0.4627635180950165, 0.1464366763830185, 0.52995365858078, -0.6605622172355652, -0.15276160836219788, 0.07330285012722015, 0.8087955117225647, -0.4614776372909546, 1.3947614431381226, 0.47757041454315186, -0.005983591079711914, 0.5035436749458313, 0.8229966163635254, 0.5184633135795593, -0.5849343538284302, -0.33368930220603943, 0.18784897029399872, 0.1954738348722458, 0.700269877910614, -1.2761716842651367, -0.10623331367969513, 0.20872649550437927, -0.5974926352500916, -0.2794701159000397, 0.07865949720144272, -0.10192765295505524, 0.7169867157936096, 0.35893309116363525, 0.36375269293785095, -0.05832810699939728, -0.40056949853897095, -0.008201449178159237, -0.42682215571403503, -0.7002562880516052, -0.5063032507896423, -0.4165405333042145, 0.6008294224739075, 0.5194442272186279, -0.35426050424575806, -0.7027398347854614, -0.9406277537345886, 0.5216386318206787, 0.5293648838996887, 0.35928744077682495, -0.3262811005115509, -0.769201397895813, -0.416888952255249, -0.22425910830497742, -0.4158968925476074, -0.050736431032419205, -0.37479081749916077, -0.09570243954658508, 0.3846253454685211, -0.04545196518301964, 0.4054315388202667, 0.09935334324836731, -0.8571367859840393, -0.19314074516296387, 0.764891505241394, -0.6494736075401306, 0.02563948556780815, 0.49400171637535095, 0.19361324608325958, -0.8928454518318176, 0.10588686913251877, 1.0975918769836426, -0.9958123564720154, 0.46279630064964294, 0.1262529045343399, 0.584953248500824, -0.3898678123950958, 0.7722010016441345, 0.9935715794563293, -0.15525521337985992, 0.11881949752569199, 0.20325878262519836, -0.8131534457206726], [0.24667227268218994, 0.3211078941822052, -0.18777886033058167, -0.24775603413581848, -0.15088783204555511, 0.2137899547815323, 0.21653114259243011, -0.18737977743148804, -0.07297264039516449, -0.054314110428094864, -0.027639351785182953, 0.27340343594551086, -0.20073606073856354, -0.17829498648643494, 0.10165668278932571, 0.1536247879266739, -0.23312149941921234, 0.270289808511734, -0.09754174947738647, 0.025808081030845642, 0.019063061103224754, -0.027829602360725403, 0.02249986119568348, 0.030499663203954697, 0.06103375554084778, 0.1935596466064453, 0.05799271538853645, -0.09367942810058594, 0.01300671137869358, -0.015890609472990036, 0.04249878600239754, -0.1411980390548706, -0.25896352529525757, -0.10690074414014816, 0.08577729761600494, 0.1423257440328598, -0.11080287396907806, 0.18597561120986938, -0.22913865745067596, -0.21042585372924805, 0.02750997431576252, -0.04908721521496773, -0.1497354805469513, 0.09959734231233597, -0.009013594128191471, -0.10915253311395645, 0.2847307026386261, -0.019687272608280182, 0.2908545136451721, 0.21400022506713867, -0.07744522392749786, 0.16281597316265106, -0.22004325687885284, -0.28407642245292664, -0.009191912598907948, -0.1081014946103096, 0.1329474002122879, -0.13257846236228943, 0.18436770141124725, -0.12270412594079971, -0.18123914301395416, -0.23443157970905304, 0.1554708182811737, -0.009979121387004852, -0.22331996262073517, -0.18131832778453827, 0.11197546124458313, 0.08896370232105255, 0.0312536247074604, -0.15383212268352509, 0.11264827847480774, -0.017887551337480545, 0.24572300910949707, 0.08791924268007278, 0.15402363240718842, 0.2948564291000366, -0.22561350464820862, 0.10817766934633255, -0.30702418088912964, 0.18296505510807037, 0.1489436775445938, 0.0881114974617958, 0.17142707109451294, 0.10932290554046631, 0.3179551064968109, 0.27216291427612305, 0.20754612982273102, 0.177908793091774, 0.08486427366733551, -0.007486988790333271, 0.04344671964645386, 0.2282998412847519, 0.0012602253118529916, 0.1537899672985077, -0.009566201828420162, -0.14604802429676056, -0.10115183889865875, -0.218746617436409, 0.05711820721626282, -0.021773092448711395, 0.22645170986652374, 0.2173454761505127, 0.21884113550186157, -0.019383739680051804, 0.16036401689052582, -0.06721451878547668, -0.29954230785369873, -0.057123709470033646, -0.12018904089927673, -0.07091383635997772, 0.08063066005706787, -0.1099478080868721, -0.10443229228258133, -0.1016116589307785, -0.09624498337507248, 0.0717819482088089, 0.03469283878803253, 0.14363977313041687, -0.01809941790997982, -0.12562525272369385, -0.2505287826061249, -0.3679269254207611, 0.1708725541830063, 0.016299033537507057, 0.02856489270925522, 0.26507824659347534, 0.04240097478032112, -0.09316729754209518], [-1.2484246492385864, -1.4491034746170044, 3.156580924987793, 1.9689322710037231, 3.5067319869995117, 1.142655611038208, -1.200354814529419, -0.2506694793701172, -0.3435090482234955, 0.2608170807361603, -1.0710368156433105, -1.2643952369689941, -0.019553279504179955, 1.3690694570541382, 0.6422163248062134, 1.4068742990493774, -0.2256089448928833, -0.9568508863449097, 1.6748485565185547, 0.9092978835105896, -0.26978346705436707, -0.312465101480484, -2.48014235496521, 0.1781463474035263, 0.6842340230941772, -2.234050989151001, -1.4696805477142334, -0.16828115284442902, -0.5869219303131104, -2.438715696334839, 0.2639298737049103, -1.5831890106201172, 1.3244863748550415, -0.1551908403635025, -0.9446011781692505, -2.3768649101257324, 0.716458261013031, -0.6341234445571899, 0.3304155766963959, 0.57561194896698, 0.29496583342552185, 1.069942831993103, 1.9752460718154907, -1.3815041780471802, 1.1336643695831299, -0.6279138922691345, 0.012752365320920944, 0.6990798711776733, -0.5712376832962036, 1.2348607778549194, 2.5372791290283203, -0.9510881304740906, -0.3935607969760895, 1.747083067893982, -0.8454466462135315, 0.7803807258605957, -1.987448811531067, 1.1385539770126343, 1.401588797569275, -0.5619005560874939, 2.0186493396759033, 1.110925316810608, -1.0686280727386475, -1.1821093559265137, 0.6799789667129517, 0.3985518217086792, -2.2242074012756348, -2.2697293758392334, -1.0732817649841309, 2.1541199684143066, 1.4170467853546143, 1.9130878448486328, 0.6602199673652649, 0.5297943949699402, 1.2965134382247925, -1.1614714860916138, 0.317121297121048, -1.5560628175735474, 1.7329235076904297, 0.4551902115345001, -0.8921111226081848, -0.4182513952255249, 2.239201307296753, 1.0275123119354248, -0.19820959866046906, 1.5232585668563843, 0.3631497621536255, -2.2680888175964355, -0.4636548161506653, -0.687929093837738, 2.1891636848449707, -1.417847990989685, -1.1820191144943237, 0.9339587688446045, -0.298427551984787, -0.8359179496765137, -0.7647906541824341, 0.00022062681091483682, -2.110461473464966, -1.1372311115264893, 0.03834905847907066, -0.8384290337562561, 0.33699822425842285, 1.2623616456985474, 0.1760343462228775, 2.4979703426361084, 0.4433440864086151, -1.0376358032226562, 1.456213116645813, -1.0223928689956665, 1.502468466758728, 0.26208895444869995, -1.000554084777832, 0.6066036224365234, 0.8905794620513916, -1.6349623203277588, -0.7342333197593689, -1.2192106246948242, 0.7725728750228882, 1.2942854166030884, 2.559457778930664, 0.4335893392562866, 1.9439151287078857, -1.7809878587722778, 0.8222677707672119, -1.1512250900268555, 0.4095686674118042, 0.7126374840736389], [-0.4230577349662781, -0.7135334610939026, -2.1375529766082764, 1.622237205505371, -0.1453402042388916, 0.0033571997191756964, -1.0672638416290283, 0.12688769400119781, -0.6941715478897095, -0.7786443829536438, 0.2861887216567993, 0.5898292660713196, -0.06817455589771271, -0.034188948571681976, 0.5871948003768921, 0.03229109197854996, -1.2569688558578491, 1.5280095338821411, -2.1986753940582275, -0.6195590496063232, -0.057203568518161774, 2.265148401260376, 1.3071993589401245, 2.035921812057495, -1.0063515901565552, -1.8125132322311401, 1.3562606573104858, -1.0907610654830933, -0.43047502636909485, -0.03083898313343525, -0.6228514313697815, -1.8361402750015259, 1.830490231513977, 0.232811838388443, -0.3279692232608795, 1.4261231422424316, 0.537076473236084, -1.0086091756820679, -2.334592342376709, -0.23706959187984467, 0.9593167304992676, -1.2364863157272339, -1.0074427127838135, 1.6572940349578857, -1.7426884174346924, -0.21439996361732483, 0.4111793339252472, 2.56856369972229, -1.1107107400894165, 0.7495588660240173, -2.490720510482788, 0.9068580269813538, 1.1965125799179077, 0.03724871203303337, 0.028358299285173416, -0.7444483637809753, -1.4676471948623657, -0.8714777231216431, 0.35523849725723267, 1.6916449069976807, 1.4925057888031006, -0.19342868030071259, -0.5622138977050781, 1.3511968851089478, -0.04496912658214569, -1.0394505262374878, 1.4815192222595215, 0.9964781999588013, 0.9485931992530823, -0.9907032251358032, -1.300792932510376, 1.4324414730072021, 1.8146425485610962, 1.0907210111618042, 0.14966994524002075, -0.4128352701663971, -2.206294059753418, 1.1860935688018799, 1.4499778747558594, -0.8335934281349182, 0.653715968132019, -0.16298863291740417, -0.9501126408576965, -0.31272172927856445, 1.6552125215530396, 1.4427345991134644, 0.38386839628219604, 1.4409031867980957, -0.32610267400741577, 0.536776065826416, 1.4484261274337769, 0.8226315379142761, 0.7531827688217163, 0.7809403538703918, 2.0909266471862793, -0.40490248799324036, -0.9746461510658264, -1.0843976736068726, -0.4419049620628357, 1.1213761568069458, -1.608472228050232, 0.6436815857887268, -1.0916141271591187, -1.0505850315093994, -0.3288086950778961, -0.9098161458969116, -0.19294023513793945, 1.2606483697891235, 0.17153365910053253, 0.4023934602737427, 0.9372134208679199, -0.018064990639686584, -1.6333653926849365, 0.7963728904724121, -1.2854571342468262, 0.569429874420166, 0.9970673322677612, 1.2377676963806152, 1.0422271490097046, -0.7177045345306396, -1.1454143524169922, -0.5611478090286255, -0.12481992691755295, -0.08953052759170532, 2.681323528289795, 1.284633755683899, -1.2921355962753296, -0.3616533875465393], [0.9892023205757141, 0.18992114067077637, -0.8657508492469788, 0.6499931216239929, 1.998611330986023, -1.3603168725967407, -1.7850914001464844, -0.38387003540992737, -1.6388541460037231, 0.8196996450424194, 2.0286672115325928, 1.129340648651123, 1.0192346572875977, 0.00926744844764471, -1.3163368701934814, -1.2537659406661987, 1.2464269399642944, 2.0855822563171387, 2.357473134994507, 0.19161076843738556, 0.3250432312488556, -1.9485366344451904, 1.6506742238998413, 1.156631350517273, 1.996132731437683, -2.8497259616851807, -2.858116626739502, 1.4607545137405396, -0.8710305094718933, -1.648560643196106, -0.9182697534561157, 1.0253174304962158, 0.7672038674354553, 0.587294340133667, 0.8140514492988586, -0.2943805754184723, 1.3101940155029297, -1.9000575542449951, -1.3173779249191284, -1.7774204015731812, -1.0139087438583374, -0.30475056171417236, -0.37440112233161926, 1.323320746421814, -0.8928914070129395, -0.3728618621826172, -2.1398184299468994, 2.6101670265197754, -1.533398985862732, 2.152740478515625, -0.06539703905582428, 0.4036639630794525, 0.5034369230270386, -1.1481565237045288, 1.6985780000686646, -0.33169394731521606, -1.0116512775421143, 2.338317394256592, -0.07425887137651443, -2.1956894397735596, -0.09003273397684097, 2.7076520919799805, 0.40637245774269104, -0.851312518119812, 0.011877752840518951, -2.7024571895599365, -2.20595645904541, -0.10818566381931305, 0.5261524319648743, -1.9749265909194946, 1.2073028087615967, 2.079599380493164, -1.7730828523635864, -1.4153043031692505, 0.10954999178647995, 0.1906954050064087, -3.0075299739837646, 2.989312171936035, 1.8320322036743164, 0.15532514452934265, 2.0195372104644775, -0.31207525730133057, 2.488530158996582, 2.0119733810424805, -0.75114506483078, 2.1692075729370117, 1.4653664827346802, -1.2340384721755981, 0.341613233089447, -2.70442533493042, 1.944935917854309, -1.5285148620605469, -1.7388522624969482, -1.4573167562484741, 0.9148538708686829, 1.9424183368682861, -0.3126043975353241, 1.130097508430481, -3.072580337524414, 2.5044689178466797, 0.19930222630500793, 0.4293273091316223, 3.8393642902374268, 0.025979842990636826, -0.555648922920227, -1.4744311571121216, 0.24169686436653137, 1.5557730197906494, 1.1374032497406006, -1.82456374168396, -1.0895237922668457, -2.015171527862549, 1.0783262252807617, 1.3792120218276978, -0.8881321549415588, -0.4467301666736603, -1.6093138456344604, 1.6446869373321533, 0.614942193031311, 0.9341405034065247, 0.32059577107429504, 1.4004367589950562, -0.13779008388519287, -0.7444761395454407, 0.8407614827156067, 0.0628793016076088, 3.035078525543213, -0.31803786754608154], [-0.5061259269714355, -0.24043108522891998, -0.11276990920305252, 1.2905185222625732, -1.4489182233810425, -1.804561734199524, -0.746164083480835, 1.3813679218292236, -1.397295355796814, -1.7795436382293701, -1.1103979349136353, -1.0558897256851196, 1.0521024465560913, -1.1094398498535156, 1.8350459337234497, -0.7233350872993469, -1.49431312084198, -0.34879499673843384, 2.1063711643218994, -0.3006938099861145, -2.1756234169006348, 1.2277873754501343, 0.40290695428848267, 1.5962721109390259, 0.9683861136436462, 1.2141934633255005, -1.072497844696045, 1.8210227489471436, 0.507159411907196, 1.4668155908584595, -0.7843499779701233, 0.7561115026473999, 1.4434640407562256, -0.833493709564209, -1.2641716003417969, -2.4947431087493896, 1.570519208908081, -0.6892968416213989, 0.37825965881347656, 0.3143458962440491, 2.340557336807251, 0.14716856181621552, 1.2462928295135498, -0.2617151439189911, 2.5904715061187744, 2.121530294418335, 0.4670262634754181, -1.341251254081726, -1.7551686763763428, -2.122541666030884, 1.8613280057907104, -2.194335460662842, 1.073164463043213, 1.0025081634521484, -0.5176898837089539, -1.2106053829193115, 0.645578145980835, 0.20599620044231415, -0.6865872740745544, 0.4085635840892792, -1.1716171503067017, 1.037751317024231, -0.6953852772712708, 0.668033242225647, 0.9690881371498108, 0.3105701804161072, -0.6634661555290222, 0.4702487885951996, -0.3893465995788574, 1.7690908908843994, -0.010425044223666191, 1.030412197113037, 0.13276450335979462, -1.5224473476409912, 1.120027780532837, -0.9378890991210938, -0.9641281366348267, -1.0392813682556152, -0.19993719458580017, -0.7592106461524963, -1.0961859226226807, -0.6552601456642151, 0.0849485769867897, -0.53099125623703, -0.2584329843521118, -1.8667446374893188, -1.5544077157974243, -1.0918312072753906, 0.6309777498245239, -1.412874698638916, 1.0213563442230225, -0.16425763070583344, 1.8478728532791138, -2.104682207107544, -0.6104946732521057, -0.7257368564605713, 1.8445082902908325, -1.3780816793441772, 0.18887153267860413, 0.15782299637794495, 0.21867738664150238, 1.7642980813980103, -0.5840771198272705, 1.4116791486740112, -1.932814121246338, -0.8556000590324402, 1.9774078130722046, -0.0656285434961319, 1.5356184244155884, -1.1773170232772827, 0.060130391269922256, 1.7161552906036377, 1.57606840133667, -0.9278643727302551, -0.3481053113937378, 0.8248746395111084, 0.7938329577445984, 0.2939998507499695, 0.7777901887893677, 0.5783416628837585, -1.061746597290039, -0.535995602607727, -2.1813576221466064, -1.0149258375167847, -1.1522148847579956, -3.0068347454071045, -0.5741145610809326, 0.36263224482536316], [1.3623008728027344, -1.2383809089660645, -1.3403260707855225, -1.6133029460906982, 0.42714163661003113, 1.6601905822753906, -0.3810986876487732, -0.58854740858078, 0.8748909831047058, -1.9637864828109741, 0.04336915910243988, 0.6683664917945862, 1.093080759048462, 0.5796836614608765, -1.4903141260147095, 0.9863510727882385, 0.8801069259643555, 1.0554612874984741, -0.10703714936971664, 0.9567791819572449, 1.0089921951293945, 0.022673849016427994, -0.6779998540878296, 1.3494877815246582, -0.7010903358459473, 0.0923301950097084, 1.012787938117981, -0.5943934917449951, -0.7382373213768005, -0.5018900036811829, -0.2534615993499756, -0.6791455745697021, -1.4581009149551392, 0.11673508584499359, 1.3681098222732544, 0.05896063521504402, -1.407910704612732, 1.198194146156311, 0.6806628704071045, -0.007866294123232365, -0.35653573274612427, 0.24742749333381653, 0.6560742855072021, -0.80499666929245, -0.3357391059398651, -0.39692193269729614, 0.08608124405145645, 0.7006141543388367, 0.32180553674697876, -0.5852484107017517, -0.8915098905563354, 0.4947696626186371, -0.11969168484210968, -1.0856095552444458, 0.9293457269668579, 1.4081532955169678, -0.8551543354988098, 0.0694313570857048, 0.9367863535881042, -0.5821735858917236, -0.4671878218650818, -0.8326423764228821, -0.739875316619873, 0.0342215858399868, -1.5525624752044678, -1.3671033382415771, 0.6818093061447144, 1.4549003839492798, -1.127236008644104, -0.9354409575462341, 0.6538737416267395, -0.3635638356208801, 0.5027703642845154, 1.4970629215240479, -0.5322067141532898, -0.4631730318069458, -1.3752665519714355, 0.4013000428676605, -0.45629647374153137, 0.9625380635261536, 0.7369567155838013, -0.5921700596809387, 1.2297192811965942, -1.5281320810317993, 1.4218168258666992, 1.2043147087097168, 1.393673062324524, -0.70188307762146, -0.0434286892414093, 1.066055417060852, -0.630917489528656, 0.8905577063560486, -1.1151492595672607, -0.2720452547073364, 0.19996796548366547, -0.4237501621246338, 1.1146481037139893, 1.5074007511138916, -0.08964324742555618, -0.11623422056436539, 0.6449047327041626, 1.977892279624939, -0.44060197472572327, -1.6369857788085938, -1.2978191375732422, 0.3811337649822235, 0.06151285767555237, -1.6266400814056396, 0.8085705637931824, 0.1430429369211197, 1.0800955295562744, -1.2964112758636475, -1.404564619064331, -0.25541952252388, 0.013737416826188564, 0.6437303423881531, -0.9345173239707947, 0.6722550392150879, 1.9044630527496338, -0.7041881680488586, -1.5572539567947388, -0.35807332396507263, 1.0423924922943115, 1.3710238933563232, 0.19155195355415344, 1.6211906671524048, -0.9845889210700989, -0.44619420170783997], [0.8077476024627686, -1.9569787979125977, -1.0526100397109985, -1.6433919668197632, 1.497833013534546, -1.6122210025787354, 0.9195020794868469, -0.6157695055007935, 0.6299631595611572, -1.3078197240829468, 0.9997804164886475, -0.058222439140081406, 1.4767651557922363, -0.8319127559661865, 0.14042939245700836, 0.021203143522143364, 1.4818003177642822, -0.18631456792354584, 1.7921748161315918, -0.016636693850159645, -1.8282208442687988, -2.542616367340088, 1.4253425598144531, 1.1723875999450684, -1.104164719581604, 0.13547377288341522, 2.9906792640686035, 1.3273369073867798, 0.4663936197757721, -0.7599464654922485, -0.4698152244091034, 1.372533917427063, -0.08886644244194031, -0.2658616602420807, -0.4581604301929474, -1.1974161863327026, 0.659375786781311, -2.372039318084717, -1.6369810104370117, -2.4591314792633057, 0.6723572015762329, 1.7927345037460327, 0.5877736806869507, -0.5996399521827698, -0.42264482378959656, 1.460955262184143, 1.446694016456604, -0.26135167479515076, -1.4779244661331177, 0.18568696081638336, -0.36244985461235046, -1.3714770078659058, 1.058197021484375, 2.9501898288726807, 0.9612900018692017, -0.28510648012161255, -0.050594624131917953, -1.9385874271392822, 0.9574139714241028, 0.7855433821678162, 1.5784600973129272, -0.6105970740318298, -1.7718923091888428, 0.13539645075798035, -0.9503687024116516, 0.5201628804206848, -1.0153696537017822, 1.7782976627349854, -1.4943445920944214, -0.7605006694793701, 0.5673469305038452, 0.9603533148765564, -1.3783808946609497, -0.9301325678825378, -2.091367721557617, -1.1942609548568726, 0.35551127791404724, 1.3469241857528687, 1.0953737497329712, 0.6732087135314941, 0.029313189908862114, -0.44125378131866455, 0.7098590135574341, 1.2126232385635376, -1.3434587717056274, 0.48038938641548157, -0.43552127480506897, 0.6252801418304443, 0.8170211315155029, -0.2603800594806671, 0.009455113671720028, 0.6475347280502319, 2.1092472076416016, 1.1568318605422974, -0.5417881011962891, 1.4176756143569946, -1.882867693901062, -1.7212257385253906, -1.3369923830032349, 2.167940616607666, 0.05833534151315689, 0.5212105512619019, 1.3141142129898071, 2.0883710384368896, -1.1648895740509033, -3.580007791519165, 1.0497219562530518, -0.5894732475280762, 0.1681225299835205, -1.9539682865142822, 0.38466471433639526, 2.88118314743042, -2.192744016647339, -1.9385707378387451, -3.0917718410491943, -1.8067700862884521, -1.8406766653060913, 1.530123233795166, 2.792872905731201, -0.9468756318092346, 0.9559407830238342, 0.03820468857884407, -0.5211712121963501, 1.4088600873947144, -2.782822847366333, 2.0199408531188965, 2.4564383029937744, 1.0246939659118652], [0.4204791188240051, -0.8831401467323303, -0.04915158078074455, -0.2580147087574005, 0.8105372190475464, -1.8468949794769287, -0.2935715913772583, -0.22746990621089935, 2.1990716457366943, 0.922584056854248, 2.1831307411193848, -1.567320466041565, -0.05378184840083122, 1.0591245889663696, -1.3128142356872559, 0.2580421268939972, -0.0002646209904924035, 0.5821309089660645, -1.70339834690094, 1.3869028091430664, -1.8527871370315552, -1.2953046560287476, -0.7525327205657959, -0.6652669906616211, -0.6405455470085144, -0.5923355221748352, -1.9760271310806274, 0.0906933844089508, 0.87841796875, 1.3403537273406982, -0.36299198865890503, 0.9682384729385376, -0.3517114222049713, 0.5869361162185669, 0.7468696236610413, -1.3273663520812988, -2.8217673301696777, 0.29500919580459595, 0.31355640292167664, 1.9741002321243286, -2.1773452758789062, 0.4296295642852783, -0.014223787933588028, 0.1891808956861496, -0.000631412782240659, 1.047466516494751, -2.7379701137542725, 1.2553411722183228, -0.9953335523605347, 1.2670223712921143, 0.9986570477485657, 3.1598517894744873, 2.2669458389282227, 0.29631710052490234, -0.5541464686393738, -0.9757438898086548, -0.7991473078727722, 1.904566764831543, -1.078957438468933, 1.3649802207946777, 0.6716712117195129, 1.5402241945266724, -1.0426186323165894, -0.5856754779815674, 2.4993393421173096, -0.5160925984382629, 0.2509159445762634, 0.48624861240386963, 0.7723913788795471, 2.378174066543579, -0.4812798500061035, 0.08435268700122833, -0.7809470295906067, 1.3697292804718018, -1.338855266571045, -1.0900464057922363, 1.8946871757507324, -0.5679882168769836, 1.6018928289413452, 1.2085402011871338, -0.3627632260322571, 1.5765328407287598, -1.26520574092865, 0.9507567286491394, -0.4673502743244171, 0.6071807146072388, 0.49344152212142944, -0.9171010851860046, -0.47319936752319336, -1.9054874181747437, -0.09809704124927521, 1.0493402481079102, -0.723102867603302, -0.3303897976875305, -0.1857176572084427, 2.300271987915039, 0.0432443842291832, -0.6615869998931885, -1.8590549230575562, -0.07102144509553909, -1.5061463117599487, -0.9257922172546387, 0.9891564249992371, -2.0342705249786377, 1.3957953453063965, 0.763916015625, 1.3429601192474365, 2.184340476989746, 0.054597944021224976, -0.31133967638015747, 0.6973795294761658, 1.274170994758606, -0.43317607045173645, -0.5946447253227234, 0.8895729780197144, -0.914766788482666, -1.6918963193893433, -1.41245698928833, -0.18070076406002045, -1.2983067035675049, 0.15326853096485138, 1.195601463317871, -0.3106875419616699, -0.6340408325195312, -1.5494697093963623, 0.012085544876754284, 1.5107935667037964, 1.3090415000915527], [-1.2797479629516602, -0.47341227531433105, 0.5987486839294434, 2.0749950408935547, 0.16050252318382263, 1.7064839601516724, -1.091124176979065, 1.8420637845993042, -0.0878901332616806, -1.0252765417099, 0.7074095010757446, -1.9874260425567627, 0.3311968743801117, 0.8859888315200806, -1.5649871826171875, -1.3917429447174072, 0.8389744162559509, -0.9530351758003235, 0.9696763157844543, 2.6471683979034424, 0.2944822609424591, 0.012179156765341759, -0.6719509959220886, -1.6869438886642456, -0.8700593709945679, -1.2034529447555542, -0.21152368187904358, -0.8537322282791138, 0.8088932633399963, -0.28256598114967346, -1.0884301662445068, 0.45022645592689514, -0.544269323348999, -0.9273172616958618, 1.0453702211380005, -2.1707093715667725, 0.10449472069740295, -1.2421208620071411, -0.055319882929325104, 1.2198116779327393, 0.1910226047039032, -0.5242494344711304, 1.0025513172149658, -1.751029372215271, 0.40174350142478943, -0.3597804605960846, -0.05772588402032852, -0.5366630554199219, -2.962252140045166, -0.7798976302146912, 0.39099791646003723, -0.4574386775493622, 1.7534962892532349, -0.18434812128543854, 0.2914294898509979, 0.965988278388977, 0.4454035758972168, 0.4162205159664154, 0.7083488702774048, -0.9665123224258423, 1.2328145503997803, -0.17269569635391235, -1.184799313545227, 0.29223912954330444, -0.5178442001342773, 0.5103718638420105, -0.6190046668052673, -0.8013964295387268, 1.0078566074371338, 0.528935432434082, 0.34065213799476624, -0.33117058873176575, -1.1513248682022095, -0.005027235485613346, 1.0966211557388306, -1.1301114559173584, 0.11345496028661728, -1.8541003465652466, 0.34956806898117065, -1.6897082328796387, 0.3236679136753082, -0.07080130279064178, -0.12053518742322922, -1.8998488187789917, -2.0156848430633545, -0.8795896768569946, -0.7825606465339661, -0.8803830146789551, 0.5539624691009521, 0.8930884003639221, 0.16972389817237854, -0.26500624418258667, -0.8811516761779785, 1.9025565385818481, -0.8581256866455078, -0.4693778157234192, 0.49600282311439514, -1.4106082916259766, 0.3119141757488251, 0.08359990268945694, -0.31043151021003723, -0.5207694172859192, -1.7229646444320679, -1.8986811637878418, -1.80172860622406, -0.432553231716156, 0.36808353662490845, -0.5893883109092712, 1.2268633842468262, 0.5617609024047852, -1.2286441326141357, 0.4726983308792114, -1.554317593574524, -1.441872477531433, -0.43794503808021545, -0.9389922618865967, 0.3894629180431366, 1.4241241216659546, 0.7073594331741333, 1.1221600770950317, -1.8196293115615845, 2.0197300910949707, -0.6493120789527893, 0.7695094347000122, 0.09455253928899765, -0.9889807105064392, -0.19923025369644165, -0.8921259045600891], [-1.0301576852798462, 1.5644912719726562, -0.052302755415439606, 0.32598066329956055, -2.0276191234588623, 1.82030189037323, -0.055176276713609695, -0.1687552034854889, 0.4230526089668274, 1.2279870510101318, 0.3201531767845154, -0.48425066471099854, 0.42067593336105347, 0.8165214657783508, -2.4215800762176514, -0.2714022696018219, 1.0538049936294556, -0.3649141192436218, -0.5658965706825256, -1.9719560146331787, 1.1579655408859253, -0.8892707824707031, -0.7065905928611755, -0.5387669205665588, 1.4293814897537231, -1.5202096700668335, 0.2770896852016449, 0.5080317854881287, -0.854254961013794, 1.591758131980896, -0.4903944134712219, 1.0337241888046265, 0.5896264314651489, 0.29865047335624695, 0.358825147151947, -2.0535738468170166, 1.2066909074783325, 1.8985531330108643, 0.47906094789505005, -1.0187631845474243, -0.16087761521339417, -0.558800458908081, 1.435389757156372, -1.2868798971176147, 1.5378658771514893, 1.3058377504348755, -1.630434513092041, 0.44608813524246216, -1.2085132598876953, 0.9155957102775574, 1.4536116123199463, -0.660288393497467, 0.8507848381996155, -0.3728925287723541, -0.22998690605163574, 0.21046195924282074, -1.537058711051941, -0.38849931955337524, -1.3386952877044678, 1.846035122871399, 0.932333767414093, -1.6654846668243408, -0.5269436836242676, 2.93861722946167, 0.2252901792526245, 0.6737626194953918, 0.014569192193448544, -0.8086758255958557, 0.05132213979959488, 1.874550700187683, -0.8370622992515564, -0.871792733669281, -0.2549504339694977, -1.0487542152404785, 0.856665313243866, -0.7255136370658875, -0.398329496383667, -0.6403679251670837, -0.4732315242290497, 0.6263390183448792, 0.3092120885848999, -1.9412500858306885, -1.1156047582626343, 0.12631654739379883, -0.5798091292381287, 2.3816046714782715, -0.10954498499631882, 0.8201112151145935, -0.526050865650177, 2.004197120666504, 1.5904361009597778, -0.34988659620285034, -1.2116351127624512, 0.8592231869697571, 2.51009464263916, -2.3926589488983154, 0.40473878383636475, 0.2533422112464905, 2.1662943363189697, -2.418055772781372, 2.538102149963379, -0.4737107455730438, 0.49254295229911804, -0.43790072202682495, 0.5839352607727051, 1.792707085609436, -0.9521424770355225, -1.3648487329483032, 0.8138274550437927, 3.0787031650543213, 1.3870214223861694, -0.2095450609922409, 0.544711709022522, -1.119782567024231, 0.22533638775348663, -1.7374826669692993, -0.4705480635166168, -0.036491669714450836, -1.245287537574768, 1.2627466917037964, -0.918412983417511, 0.9131647944450378, 0.3345983624458313, 1.2787199020385742, 0.7453219294548035, 1.4377634525299072, 0.36779311299324036, -0.14824756979942322], [0.7195985913276672, -1.141703724861145, -0.9827877879142761, -1.1080011129379272, 1.4347052574157715, 0.3532455563545227, 1.2667049169540405, 0.5025186538696289, 1.2845362424850464, 0.47976306080818176, 0.949057400226593, 0.27071449160575867, -0.5413915514945984, -1.615787148475647, 1.104215145111084, -1.3040748834609985, -1.4896445274353027, 1.7684417963027954, -0.34171634912490845, 1.1523864269256592, -3.149538278579712, 0.9286471009254456, 2.0077567100524902, 1.1554635763168335, -1.7200864553451538, 1.9851044416427612, -0.49713391065597534, -0.12703682482242584, -1.3330003023147583, -1.6455483436584473, 2.046954870223999, -0.8952437043190002, -0.2590654194355011, 0.3166775107383728, 0.3671827018260956, -0.6036688685417175, -0.12558743357658386, -0.7209147810935974, 1.726396083831787, -0.5769311785697937, 2.3786654472351074, -1.1931242942810059, -0.3139161765575409, -2.571436882019043, -0.8308278918266296, -0.9359835386276245, 0.846676230430603, -1.1276257038116455, -0.9214199185371399, -1.4564913511276245, -0.17150770127773285, -1.1955740451812744, -1.0801526308059692, 1.3357146978378296, -0.6402889490127563, -1.187146782875061, -1.1692304611206055, -0.6787863969802856, -0.957642674446106, 0.04794507846236229, 1.2034454345703125, 3.0538642406463623, 0.5287679433822632, -0.6926698684692383, -0.708400309085846, 1.5748132467269897, -1.2255371809005737, 0.1020025834441185, -0.35622143745422363, 1.251009464263916, 0.8012039661407471, -0.21089906990528107, -2.57065749168396, -1.9105477333068848, 2.091895341873169, -1.313923716545105, -0.2838119864463806, -1.1148910522460938, -1.1516953706741333, -2.6686782836914062, -0.2012985199689865, -3.2650232315063477, -0.48188626766204834, 1.1344386339187622, 1.506193995475769, -2.438342332839966, 0.13429498672485352, 0.5153512358665466, 1.192979335784912, -1.8254916667938232, 0.24551430344581604, 1.4063833951950073, 0.10155676305294037, -0.6411034464836121, 0.22910413146018982, 2.1381070613861084, 0.10740954428911209, 0.19262278079986572, 0.9086143970489502, -0.059997908771038055, -1.6037395000457764, 1.3180421590805054, -2.249788284301758, -0.4107382893562317, 0.6114147901535034, -0.541789174079895, 1.0993187427520752, 1.2743316888809204, 1.3792669773101807, 0.7277423143386841, -2.5377676486968994, 1.2050453424453735, -1.0082874298095703, 0.8258885145187378, -0.9214938282966614, -0.1888369768857956, 1.9798787832260132, -0.6257344484329224, 1.8470221757888794, -0.2962440550327301, -0.42217862606048584, 1.7976582050323486, -1.1181243658065796, -1.7250804901123047, -1.564294457435608, -1.7020329236984253, 1.66376793384552, 2.8077430725097656], [-1.0160726308822632, -0.18324433267116547, 0.316415011882782, 1.2400505542755127, 0.09325115382671356, -1.2886316776275635, -0.2341555655002594, 2.6416382789611816, 0.049720458686351776, 1.0246148109436035, 0.12865203619003296, -1.2841333150863647, 0.39555859565734863, -0.3039686977863312, -0.12910686433315277, 1.6134223937988281, 1.4375513792037964, -1.276140809059143, -1.498543381690979, 0.9926462769508362, -1.730641484260559, -0.6677557229995728, 2.233769178390503, -1.0151177644729614, 0.9110654592514038, -1.9194799661636353, -1.188484787940979, 0.2518942654132843, 0.33448657393455505, -1.203639268875122, -0.18647529184818268, 0.8933261036872864, 1.024936556816101, 0.8649963140487671, 0.4184817671775818, 0.022380275651812553, 2.0144903659820557, -1.586912989616394, 0.16746407747268677, 1.8813544511795044, 1.3543875217437744, -1.3981950283050537, 2.157759189605713, -2.077446937561035, -0.7719278931617737, 0.5266832113265991, -0.8336907625198364, 0.9518088698387146, -1.5556377172470093, -1.8841618299484253, -0.7321842908859253, -1.2292344570159912, 2.3775603771209717, 1.1802963018417358, -1.7610079050064087, -0.9173569679260254, -0.634980320930481, 0.46938198804855347, -0.165572851896286, 0.3970886170864105, 0.5654093027114868, 1.9092155694961548, -0.08480570465326309, 0.9555344581604004, 1.4857027530670166, -0.3969948887825012, 2.124695062637329, 0.1441812366247177, 0.553358256816864, 0.23619228601455688, 0.694894015789032, 1.2794387340545654, -0.8239510655403137, -1.1831717491149902, 0.6828376054763794, -2.0259881019592285, 0.9032179713249207, -0.44872623682022095, 0.976443886756897, -0.7381449341773987, -2.037717342376709, 0.04725722223520279, -1.4119504690170288, -1.059442162513733, -0.6842089891433716, 0.2006877362728119, -0.8623398542404175, 0.5417256951332092, -1.7983012199401855, 1.6074296236038208, -0.48848772048950195, 0.6022302508354187, -0.9451158046722412, 0.01994374208152294, 1.490233063697815, 0.6336961984634399, 0.7567141652107239, 0.5640859007835388, -1.107918381690979, -0.36992043256759644, -1.6718175411224365, 0.06228233128786087, -0.6068897843360901, 0.9730126857757568, -1.2513549327850342, 1.1424070596694946, 2.044365882873535, 0.4951044023036957, 0.9220091104507446, 0.4706125855445862, -0.22840943932533264, 0.4766426086425781, -0.7597823739051819, -0.14232690632343292, 1.3547732830047607, -1.022979974746704, 1.1980470418930054, 2.0284810066223145, -0.4147360324859619, 0.42001864314079285, -1.1225409507751465, 1.0730170011520386, -1.416832685470581, 0.37953436374664307, 2.7453677654266357, 0.17840313911437988, -1.566512107849121, 1.6218737363815308], [2.629260301589966, -0.7303085923194885, -0.9293612241744995, 1.639405608177185, -1.8973344564437866, 1.7943800687789917, -1.1394058465957642, 1.616431713104248, 1.483012318611145, 0.9431131482124329, -0.5088515877723694, -0.744353711605072, -2.2388815879821777, -1.5183532238006592, 0.667570173740387, -0.4924064576625824, 0.42741796374320984, -1.2081351280212402, 0.679207444190979, -0.2186862826347351, 0.9397993087768555, 1.3698537349700928, 1.3288239240646362, 0.36063241958618164, 0.0842132493853569, -0.24841418862342834, 1.3622721433639526, -0.27996954321861267, 0.1980227828025818, 0.08564114570617676, -1.6971724033355713, -0.5052288174629211, 0.6915095448493958, 0.7228586077690125, -1.781520962715149, 1.6517963409423828, 1.1733930110931396, 0.318477600812912, -1.082512378692627, 0.6714127659797668, -2.459538698196411, 0.0027336685452610254, 1.1200227737426758, 0.2689688503742218, 3.0834338665008545, 2.178687810897827, 0.906684398651123, 0.41707080602645874, -0.8926010131835938, -1.667864203453064, 0.825485110282898, -2.652637481689453, 1.200524926185608, 0.42536628246307373, -0.16814447939395905, 0.7808797955513, 1.6498639583587646, -0.9811431765556335, -1.5622470378875732, 1.0972115993499756, -1.1365398168563843, -0.4039704203605652, 0.39077362418174744, 2.4471027851104736, -0.8601831793785095, -0.8925082683563232, 2.0510990619659424, 0.13171015679836273, -1.5622860193252563, -0.3134177029132843, 1.6814287900924683, 1.117186188697815, -0.42710497975349426, 1.1923547983169556, -1.1540892124176025, -1.4869911670684814, 1.0685217380523682, -2.65458083152771, -3.0124402046203613, -0.3030640184879303, -1.683122158050537, 1.133354663848877, -1.7091925144195557, 1.4371654987335205, 0.16688333451747894, -1.3034323453903198, -0.9356724619865417, 0.7226378321647644, -1.0007939338684082, -0.24247033894062042, -1.1080498695373535, -0.3055136799812317, 1.1877491474151611, 0.2780860960483551, 1.0003254413604736, -1.6264137029647827, 2.04068660736084, -0.3991684019565582, 0.9497445225715637, -0.0269327349960804, 1.1927980184555054, 0.3248097896575928, 0.47266972064971924, -0.37404367327690125, -0.4297462999820709, -0.42941105365753174, 0.03478190675377846, -1.004697561264038, -1.4821969270706177, 0.2987833321094513, -2.231330156326294, -0.245610311627388, 1.1892644166946411, 0.16971440613269806, 0.6921454668045044, 1.1180975437164307, 0.7992279529571533, 0.48425036668777466, 0.1267656534910202, 1.2200185060501099, 0.28571876883506775, 1.5623092651367188, -1.3665145635604858, 0.13031065464019775, -0.986829936504364, 0.4151744842529297, -1.7099653482437134, -0.39196646213531494], [-0.45556673407554626, 0.2686949074268341, -0.31204351782798767, -0.2480279952287674, 0.19295400381088257, -0.062196455895900726, -0.27216431498527527, 0.14539285004138947, 0.001684560556896031, 0.2658537030220032, 0.14368221163749695, 0.1884000599384308, 0.22652342915534973, 0.23893843591213226, -0.1691659390926361, 0.2580701410770416, 0.08877288550138474, 0.1669386774301529, -0.12153158336877823, -0.1946837306022644, -0.11495692282915115, 0.27563318610191345, -0.20763857662677765, -0.16486556828022003, -0.20786182582378387, -0.19236965477466583, 0.14931778609752655, 0.3003375232219696, -0.058962590992450714, 0.2817108631134033, -0.006669320166110992, 0.14738991856575012, 0.1562507152557373, 0.4244903326034546, -0.054084837436676025, -0.000798029825091362, -0.024478627368807793, -0.08077633380889893, 0.2851276099681854, -0.016937950626015663, 0.1507406085729599, 0.16632263362407684, 0.10592886805534363, 0.24549992382526398, 0.08600103110074997, -0.26898959279060364, -0.20048955082893372, 0.15225422382354736, -0.1375901848077774, 0.20827461779117584, -0.13913582265377045, 0.1584080308675766, -0.02914070524275303, -0.1666574776172638, 0.08320095390081406, -0.2633454501628876, -0.051599498838186264, -0.03129638731479645, -0.18015120923519135, 0.23995839059352875, -0.09919285029172897, -0.23430569469928741, 0.5201483368873596, 0.3842540681362152, -0.29673856496810913, 0.03497982397675514, -0.245899498462677, -0.01376388780772686, -0.013326192274689674, 0.027580132707953453, -0.1666918396949768, 0.17333796620368958, 0.07024432718753815, -0.14787566661834717, 0.132345050573349, 0.06132899969816208, -0.09670254588127136, -0.13089238107204437, 0.270528644323349, -0.1420377790927887, -0.23998835682868958, 0.26161205768585205, -0.10887826979160309, -0.19717057049274445, 0.4029640853404999, 0.1924372911453247, 0.22846370935440063, 0.03578837588429451, -0.07330042123794556, 0.0020481254905462265, 0.18025143444538116, 0.017652206122875214, -0.1922282725572586, -0.07272106409072876, -0.08827654272317886, 0.14853426814079285, 0.15387435257434845, -0.2673927843570709, -0.14797340333461761, 0.1000174954533577, -0.19603846967220306, -0.02543453313410282, -0.10598702728748322, 0.41997286677360535, 0.017811674624681473, -0.06076909974217415, -0.03924500197172165, 0.06380610167980194, -0.3977377116680145, -0.18662622570991516, -0.07322371006011963, -0.11733048409223557, -0.1159551665186882, -0.381669819355011, 0.08387530595064163, 0.1272096186876297, -0.23358096182346344, 0.2069912552833557, 0.004944986663758755, 0.26987501978874207, -0.3546690046787262, 0.20544439554214478, -0.283973753452301, -0.1294029802083969, -0.18889613449573517, 0.09375259280204773, 0.12699195742607117, 0.18509887158870697], [0.05691508948802948, -0.04407605901360512, -0.15856289863586426, -0.14618927240371704, -0.07997872680425644, -0.3581932485103607, -0.18265043199062347, -0.18343038856983185, -0.02217443287372589, -0.025045303627848625, 0.16449499130249023, -0.09703636169433594, 0.18161825835704803, 0.0762978196144104, -0.03407485783100128, 0.24186480045318604, -0.17553257942199707, 0.01838862895965576, -0.0844167023897171, -0.003561830148100853, -0.011935954913496971, 0.008176394738256931, -0.05780194699764252, 0.23317758738994598, 0.1254533976316452, -0.03953855112195015, -0.060702573508024216, -0.0918886810541153, -0.1724703460931778, 0.2116546779870987, 0.05137026309967041, 0.20626388490200043, -0.09659763425588608, -0.09102114289999008, -0.0764765664935112, 0.022955045104026794, -0.17455065250396729, 0.1573549211025238, -0.13228677213191986, 0.08816168457269669, -0.05198099464178085, 0.2009636014699936, -0.17975883185863495, -0.12232834845781326, 0.05954023450613022, -0.14956268668174744, 0.034052520990371704, 0.04452045261859894, 0.1716509610414505, -0.019489817321300507, -0.1482534259557724, 0.13071224093437195, -0.010478762909770012, 0.09188266843557358, -0.1370183676481247, 0.06231550872325897, -0.0911111831665039, -0.009670424275100231, -0.0018199404003098607, 0.3003753423690796, 0.08910686522722244, 0.17316898703575134, 0.08460423350334167, -0.23958507180213928, -0.09485098719596863, 0.2582271099090576, 0.27727147936820984, -0.01635049469769001, -0.2077571004629135, 0.10492967069149017, -0.045477237552404404, -0.07127935439348221, -0.038350339978933334, -0.18300127983093262, -0.030769800767302513, -0.0011955259833484888, 0.02051178365945816, 0.215229332447052, -0.04106106609106064, -0.18993166089057922, -0.01505171600729227, -0.025539206340909004, -0.16987554728984833, -0.11506039649248123, -0.07395914196968079, 0.020073389634490013, 0.016689278185367584, -0.3322794735431671, 0.27588051557540894, -0.08617781847715378, -0.08409642428159714, -0.13865900039672852, 0.13122467696666718, 0.24958264827728271, -0.03854434937238693, -0.1011057123541832, 0.04115515947341919, -0.02470168098807335, 0.14402206242084503, -0.17126046121120453, 0.04064542427659035, -0.32658785581588745, -0.0034758171532303095, -0.21992127597332, 0.1634129285812378, 0.050058335065841675, -0.1837638020515442, 0.02247280813753605, 0.22225505113601685, -0.12891840934753418, -0.2338714748620987, 0.14463312923908234, 0.15189039707183838, 0.2732324004173279, 0.2817530930042267, -0.08778651058673859, 0.13006694614887238, 0.061938200145959854, -0.04657267779111862, 0.038356564939022064, -0.0017323998035863042, 0.04568061605095863, -0.12615959346294403, -0.24024982750415802, -0.020350364968180656, -0.14624732732772827, 0.029855802655220032, -0.06380920857191086], [-0.18006932735443115, -0.29691654443740845, 0.09067248553037643, -0.3685346841812134, 0.2217084765434265, 0.31943419575691223, -0.009150370955467224, 0.16590145230293274, 0.11537390947341919, -0.010023461654782295, 0.036029040813446045, -0.2773618698120117, -0.28343379497528076, -0.1665172576904297, 0.1681167632341385, 0.06388437747955322, 0.14712165296077728, 0.002719029551371932, -0.007846892811357975, 0.11648432910442352, 0.12515278160572052, 0.34735944867134094, 0.002459729090332985, 0.28162580728530884, -0.007131973747164011, 0.29501083493232727, 0.01376238651573658, 0.0005554069648496807, 0.15111032128334045, 0.18952767550945282, 0.09998350590467453, 0.36782094836235046, 0.018435481935739517, -0.1846693754196167, -0.034343089908361435, -0.2567002475261688, -0.14743617177009583, 0.05695812776684761, 0.2329539954662323, 0.13651970028877258, 0.3147259056568146, -0.04103049263358116, -0.20206449925899506, 0.19617696106433868, -0.3246706426143646, -0.0949205681681633, -0.004102769307792187, -0.10721300542354584, 0.1384333223104477, -0.08749731630086899, -0.14896191656589508, 0.04835248738527298, -0.22152455151081085, 0.27761751413345337, 0.07539276778697968, 0.007840126752853394, 0.2285173088312149, 0.26486310362815857, 0.03805921971797943, 0.01997857540845871, -0.0669616088271141, 0.3629879653453827, -0.24384886026382446, -0.19290146231651306, -0.20443560183048248, 0.27492770552635193, -0.06415867805480957, -0.02099965512752533, 0.21939420700073242, 0.11628331243991852, -0.0555940605700016, 0.12640084326267242, -0.0034164725802838802, -0.05465121939778328, 0.18093131482601166, -0.03127354383468628, -0.09708834439516068, 0.3207421600818634, -0.18714454770088196, -0.10894658416509628, 0.058990877121686935, -0.06916658580303192, -0.12201935797929764, 0.2652876377105713, 0.012666049413383007, -0.4277724325656891, -0.17185567319393158, 0.0418044775724411, -0.17187853157520294, 0.06841292977333069, -0.07695365697145462, 0.17144669592380524, -0.13537481427192688, -0.266215443611145, -0.3669992983341217, -0.21271057426929474, -0.14882872998714447, 0.03981828689575195, -0.00026338480529375374, 0.01068568229675293, -0.14332237839698792, 0.32454055547714233, 0.19339688122272491, -0.1322813183069229, 0.2666987478733063, -0.025836458429694176, -0.21995660662651062, -0.515142560005188, -0.10723433643579483, -0.19222107529640198, -0.15944501757621765, -0.0037979616317898035, -0.006164356134831905, 0.11345403641462326, -0.21406544744968414, -0.2760177254676819, 0.23145537078380585, 0.15230348706245422, -0.11256622523069382, -0.3010733127593994, 0.17677977681159973, 0.037482500076293945, -0.22583159804344177, -0.18784622848033905, -0.1293877363204956, 0.03580843657255173, -0.03518397733569145, 0.2162347286939621], [-0.08792109787464142, -0.09656617790460587, -0.06666793674230576, 0.12842586636543274, -0.12192143499851227, -0.25926148891448975, 0.002874821424484253, -0.2953714430332184, 0.21238689124584198, 0.019494613632559776, -0.11665065586566925, 0.05400668829679489, 0.07434102147817612, -0.02066168561577797, 0.17892509698867798, -0.11995626240968704, -0.12812471389770508, -0.17465201020240784, -0.04999127611517906, -0.1411253660917282, -0.04336419701576233, -0.09436551481485367, 0.1624729186296463, -0.13310419023036957, 0.04401446878910065, -0.2776094079017639, 0.11137479543685913, 0.37985512614250183, -0.3436906337738037, -0.1358390748500824, -0.22169455885887146, 0.036379773169755936, -0.011564444750547409, -0.19036732614040375, -0.07289522141218185, 0.2755577564239502, 0.24441522359848022, -0.1482750028371811, 0.11264664679765701, 0.30494779348373413, 0.1320556104183197, -0.15699569880962372, 0.019721517339348793, -0.0650799497961998, 0.22628390789031982, -0.34139156341552734, 0.14788392186164856, 0.2422407865524292, 0.10050670057535172, 0.18351273238658905, -0.06574973464012146, -0.13487975299358368, -0.1086919754743576, -0.1814320981502533, -0.19561105966567993, -0.078215591609478, 0.42115455865859985, -0.18233129382133484, -0.1509927213191986, 0.04303383827209473, -0.16551312804222107, -0.09090543538331985, -0.2607351243495941, -0.011798175983130932, -0.009947245940566063, 0.22460681200027466, -0.09181522578001022, -0.1122405081987381, 0.17990580201148987, -0.2657616138458252, -0.0522807314991951, -0.04664948210120201, 0.15531928837299347, -0.04570651799440384, -0.023098422214388847, 0.14977025985717773, 0.32190370559692383, -0.12509304285049438, 0.07107223570346832, 0.35365137457847595, 0.30197808146476746, 0.22833138704299927, -0.20684555172920227, 0.11220644414424896, -0.26865658164024353, -0.07936190813779831, -0.029816800728440285, -0.2316955178976059, 0.1575888991355896, 0.39279496669769287, 0.35660240054130554, 0.29368239641189575, 0.40932589769363403, -0.2068166583776474, -0.30636417865753174, -0.30090269446372986, 0.08732806891202927, 0.31245067715644836, -0.02714446187019348, -0.07759512215852737, 0.01092368271201849, 0.25333836674690247, 0.12047014385461807, -0.1346883773803711, 0.07533891499042511, -0.14778080582618713, 0.20536717772483826, 0.47436240315437317, -0.2855072021484375, 0.049614544957876205, 0.07850317656993866, 0.1839444637298584, -0.2368975728750229, 0.11539717018604279, 0.15019449591636658, -0.21570181846618652, 0.15490567684173584, -0.026010001078248024, -0.024686474353075027, -0.01416846364736557, 0.20026059448719025, 0.1636664867401123, 0.31750160455703735, 0.2580881416797638, -0.09606776386499405, 0.060718707740306854, -0.3184598982334137, -0.2254827469587326], [0.3475239872932434, -0.18870660662651062, 0.1393117904663086, 0.23268471658229828, -0.13464519381523132, -0.015972312539815903, -0.016985559836030006, 0.019956085830926895, -0.10027308762073517, 0.09721636772155762, 0.19415183365345, -0.10377908498048782, -0.015874138101935387, -0.20335815846920013, 0.21075519919395447, -0.16216601431369781, 0.19976720213890076, 0.007408985402435064, 0.05579005926847458, -0.030303319916129112, -0.06029018759727478, 0.05514690279960632, 0.007913516834378242, -0.425178200006485, -0.0003661666123662144, 0.037427868694067, -0.08803606033325195, 0.510694146156311, -0.25259509682655334, 0.08441533148288727, 0.11888433992862701, 0.12693814933300018, 0.15300191938877106, -0.16965354979038239, 0.161350816488266, -0.040368515998125076, -0.16783736646175385, -0.18247102200984955, 0.3029571771621704, 0.11764349043369293, -0.25636792182922363, -0.2915949523448944, 0.036705005913972855, 0.28287452459335327, -0.06331518292427063, -0.016744479537010193, -0.04903892055153847, -0.06084398925304413, 0.154457688331604, 0.13344785571098328, -0.06372041255235672, 0.08598353713750839, -0.014106650836765766, 0.059379693120718, 0.009037434123456478, 0.29514771699905396, 0.09541289508342743, -0.1761717051267624, 0.0542701855301857, 0.010832089930772781, -0.027258820831775665, 0.09830480068922043, -0.27862581610679626, -0.28138843178749084, -0.06869159638881683, 0.05219778046011925, -0.337336003780365, 0.13252533972263336, -0.040396273136138916, -0.23465415835380554, -0.05832233652472496, -0.43474528193473816, 0.11041664332151413, 0.05179039388895035, -0.02311425656080246, -0.04847254976630211, -0.13000459969043732, 0.19796520471572876, -0.22012458741664886, -0.15795384347438812, -0.4415172338485718, 0.12124805152416229, 0.27413126826286316, 0.10864929854869843, -0.20135170221328735, -0.006188451778143644, 0.130489319562912, 0.20240308344364166, -0.2536187767982483, -0.2261723428964615, -0.09859302639961243, 0.2896658182144165, -0.01356454100459814, -0.2775777578353882, -0.16817694902420044, 0.07976780831813812, -0.10327441990375519, 0.00847618468105793, 0.19880273938179016, -0.24933502078056335, 0.036530036479234695, 0.1061687245965004, -0.1772894561290741, 0.03455386683344841, 0.06671891361474991, 0.2473008781671524, -0.05728359520435333, 0.17937710881233215, -0.016818296164274216, -0.14001204073429108, -0.23459330201148987, -0.024802738800644875, -0.06615938246250153, -0.3517680764198303, 0.29416587948799133, 0.03330225870013237, -0.09980399161577225, -0.240962952375412, -0.07882355153560638, -0.017225604504346848, -0.0011003479594364762, 0.01870419643819332, -0.2965719699859619, 0.031412042677402496, 0.07693415880203247, 0.0895116776227951, 0.29854199290275574, 0.09685993939638138], [0.14727044105529785, -0.025589406490325928, 0.07683757692575455, -0.06847041845321655, -0.027770929038524628, -0.16649110615253448, -0.14614960551261902, -0.023146986961364746, -0.23285475373268127, 0.08022128790616989, 0.27924445271492004, 0.013276628218591213, 0.04542500525712967, 0.19110602140426636, -0.12361885607242584, 0.19284436106681824, -0.06375791132450104, 0.09232161939144135, -0.039168138056993484, 0.24610228836536407, -0.28235214948654175, 0.05033824220299721, 0.11413595825433731, -0.26190024614334106, -0.24350741505622864, -0.001857319730333984, -0.2918698191642761, 0.10816558450460434, 0.017489595338702202, 0.05660393089056015, -0.08334177732467651, 0.03470133990049362, -0.221592515707016, 0.009894676506519318, 0.10461078584194183, -0.17911970615386963, -0.13013793528079987, -0.39337700605392456, -0.10436762124300003, 0.24630987644195557, 0.048725444823503494, -0.23412573337554932, 0.09668022394180298, 0.08024593442678452, 0.12332698702812195, -0.2757861018180847, -0.2965693473815918, -0.03725887089967728, 0.22748374938964844, 0.14371556043624878, 0.1458909958600998, 0.24621190130710602, -0.07338731735944748, -0.2173311710357666, -0.1072005033493042, 0.2796403169631958, -0.21037691831588745, -0.03437744826078415, -0.11975343525409698, 0.04402698948979378, 0.06385365128517151, 0.2271130532026291, -0.001561957411468029, -0.48444995284080505, 0.020624324679374695, -0.17649707198143005, -0.18385560810565948, -0.1692345291376114, -0.006991890259087086, -0.2897105813026428, 0.2787744700908661, -0.16406439244747162, -0.0012944814516231418, -0.16610075533390045, -0.4155072271823883, 0.14289738237857819, -0.07812170684337616, -0.12709254026412964, -0.030567727982997894, 0.11752548813819885, 0.2701221704483032, -0.2357221394777298, 0.05066334456205368, -0.034235481172800064, 0.09440049529075623, -0.19702908396720886, -0.22192588448524475, 0.05203046277165413, -0.020647544413805008, -0.15879859030246735, -0.07869231700897217, 0.2144467681646347, 0.11729037761688232, 0.021353743970394135, 0.12266463041305542, 0.19008438289165497, -0.035454291850328445, 0.18468905985355377, -0.01269832905381918, 0.13693121075630188, -0.025834621861577034, 0.22496618330478668, 0.16544243693351746, 0.09575415402650833, 0.03143961355090141, 0.1296701580286026, 0.05557674914598465, 0.2459317296743393, 0.0009145713993348181, -0.2120400071144104, -0.054336413741111755, 0.05832720175385475, -0.2802430987358093, -0.21500417590141296, 0.0965612530708313, 0.13832463324069977, -0.06551908701658249, -0.022581730037927628, 0.08638850599527359, -0.13539251685142517, 0.050436437129974365, -0.10863838344812393, -0.06280042231082916, -0.0004968635621480644, -0.2714376151561737, 0.030815724283456802, 0.24238760769367218, -0.20850461721420288], [-0.5105676651000977, -0.28237977623939514, -0.03507458046078682, -0.21064481139183044, -0.09750606119632721, -0.13734766840934753, 0.3105863332748413, 0.02246963605284691, 0.015127635560929775, 0.18136543035507202, 0.09738289564847946, 0.11236648261547089, 0.04902949556708336, -0.0910385400056839, -0.13556942343711853, -0.15980595350265503, -0.28751590847969055, -0.1288614422082901, 0.10096830129623413, 0.15452827513217926, 0.09481526166200638, -0.141925647854805, 0.22675175964832306, 0.20316237211227417, 0.14062881469726562, -0.26362866163253784, 0.3735389709472656, -0.18744991719722748, 0.4697677791118622, -0.03251749277114868, 0.3745885193347931, -0.034029535949230194, 0.33266982436180115, -0.13953612744808197, -0.25963014364242554, 0.06342613697052002, -0.08474159985780716, 0.0027354287449270487, 0.0029201668221503496, 0.369191437959671, 0.12949922680854797, -0.12372715026140213, -0.3529960513114929, -0.05448608845472336, -0.07740931212902069, 0.0066967313177883625, -0.03230166807770729, -0.17760789394378662, 0.014446661807596684, 0.059258680790662766, -0.30439451336860657, 0.0035953205078840256, -0.37950775027275085, -0.08117493987083435, 0.14111055433750153, -0.16461233794689178, -0.16332580149173737, -0.2763586640357971, -0.19177289307117462, 0.03233949840068817, -0.0994853526353836, -0.16015012562274933, 0.393160879611969, 0.17941664159297943, 0.24751895666122437, -0.17590214312076569, 0.3201289176940918, -0.216142475605011, 0.036813776940107346, -0.14619885385036469, 0.13864544034004211, -0.12092611938714981, -0.05798254534602165, 0.29965701699256897, -0.061254698783159256, 0.25659894943237305, -0.06682141870260239, -0.05993629992008209, 0.1557251363992691, 0.016448119655251503, -0.17961987853050232, 0.16649246215820312, 0.223578080534935, -0.31504741311073303, 0.12110140174627304, -0.16606968641281128, -0.1576492190361023, -0.4005014896392822, -0.25710973143577576, 0.107378289103508, -0.1344660073518753, -0.21429237723350525, 0.007789102848619223, 0.18931345641613007, 0.09274706989526749, 0.10275068879127502, -0.22514118254184723, -0.35262006521224976, 0.2382887452840805, -0.36530187726020813, -0.11449266225099564, 0.18366177380084991, -0.37078216671943665, -0.12759560346603394, -0.22089841961860657, -0.1716352105140686, 0.16611476242542267, 0.1726989597082138, 0.16517624258995056, -0.23162677884101868, 0.2594282627105713, -0.17599815130233765, -0.07294526696205139, 0.027527526021003723, 0.1866697520017624, 0.06437649577856064, 0.09515056759119034, -0.020459899678826332, -0.11209411919116974, 0.23408864438533783, 0.04955143481492996, -0.04162372276186943, -0.1660609245300293, -0.04374291002750397, -0.15629953145980835, 0.18865764141082764, 0.16579559445381165, -0.40352609753608704], [0.1234663873910904, -0.09396952390670776, 0.3956758677959442, -0.12066721171140671, -0.04553889483213425, -0.26091596484184265, 0.1811184585094452, -0.14581382274627686, -0.052179958671331406, 0.21982595324516296, 0.07232097536325455, 0.11591415107250214, 0.06993672251701355, 0.16010886430740356, -0.1868143230676651, 0.03202139586210251, -0.13691040873527527, -0.1282472163438797, 0.20022444427013397, -0.09968510270118713, 0.09098926931619644, 0.10443265736103058, 0.13291692733764648, 0.13038940727710724, 0.13187652826309204, 0.14107686281204224, -0.12842024862766266, -0.058157626539468765, 0.3493039906024933, -0.29234570264816284, -0.007353463675826788, -0.15843673050403595, -0.3341294527053833, -0.08935093134641647, 0.09986080974340439, 0.3390992283821106, -0.27233561873435974, 0.29895609617233276, 0.008142870850861073, 0.20452240109443665, 0.2249157726764679, -0.20204511284828186, -0.23490634560585022, -0.23253124952316284, -0.18753421306610107, 0.040064018219709396, -0.07444296032190323, -0.16306105256080627, -0.09523596614599228, 0.0999428853392601, 0.060030609369277954, 0.005450749769806862, 0.06947997957468033, -0.18743588030338287, 0.07389330118894577, 0.2199653536081314, -0.13011491298675537, -0.05349595472216606, -0.05649295449256897, 0.07974065840244293, 0.26331523060798645, 0.05342843011021614, -0.1819346845149994, 0.05612026900053024, -0.08630234748125076, 0.23616382479667664, -0.14520058035850525, -0.05195850878953934, 0.044545017182826996, -0.21773014962673187, 0.18167275190353394, -0.26751503348350525, 0.15580713748931885, -0.2794654071331024, -0.0536021813750267, 0.09057657420635223, 0.022407574579119682, -0.3352970480918884, -0.2314174622297287, -0.30185264348983765, -0.04427608475089073, -0.025656480342149734, -0.07684455066919327, 0.0753234326839447, -0.16100381314754486, 0.18713940680027008, -0.32193905115127563, 0.0947348102927208, -0.3663685917854309, -0.12363594025373459, 0.010163050144910812, -0.06470391899347305, 0.1446840763092041, -0.18353834748268127, 0.09803173691034317, -0.02914932742714882, -0.18564993143081665, -0.033580053597688675, -0.14048197865486145, -0.12929780781269073, 0.5788758993148804, -0.13277757167816162, 0.268393874168396, -0.05790240690112114, 0.12414247542619705, 0.20092058181762695, -0.05062652751803398, 0.032087720930576324, 0.008167955093085766, -0.11689973622560501, 0.10385135561227798, -0.10651707649230957, -0.396848201751709, 0.16791529953479767, 0.014459929428994656, 0.3512050211429596, -0.21521998941898346, 0.1654217541217804, 0.1639069765806198, 0.18739688396453857, 0.18461494147777557, -0.1814548820257187, -0.12294356524944305, -0.09335336089134216, 0.1669803261756897, 0.28722473978996277, -0.06159380078315735, 0.24025778472423553], [-0.16736696660518646, 0.11747284978628159, 0.2272280603647232, 0.28536128997802734, -0.09464051574468613, -0.057311274111270905, -0.3116914927959442, -0.08615055680274963, -0.24637678265571594, -0.28541168570518494, -0.011017258279025555, -0.07794652134180069, -0.08528833091259003, -0.18483391404151917, -0.29283246397972107, -0.23879840970039368, -0.1714240461587906, -0.031093647703528404, -0.07321648299694061, -0.08539030700922012, -0.052554454654455185, -0.2361798733472824, -0.02437766268849373, 0.05223096162080765, -0.20416457951068878, 0.07387994974851608, -0.13459424674510956, -0.2856132686138153, 0.21963773667812347, 0.16824425756931305, -0.0744856670498848, 0.2361242175102234, 0.1555095911026001, 0.031304094940423965, -0.07580727338790894, 0.282973974943161, 0.024030348286032677, -0.06004084274172783, -0.18350853025913239, 0.04095221683382988, -0.4821058213710785, 0.14990948140621185, 0.024143006652593613, 0.15606607496738434, -0.1706666201353073, 0.1640697866678238, 0.07618094235658646, -0.045755911618471146, 0.11724294722080231, -0.1648872047662735, 0.06994351744651794, -0.08553750813007355, 0.01337601337581873, -0.14927156269550323, -0.13812783360481262, -0.2728536128997803, 0.22179122269153595, -0.09984824806451797, 0.06432852149009705, 0.09705732017755508, -0.186372309923172, 0.14138615131378174, 0.05666655674576759, 0.1172676682472229, 0.08632096648216248, -0.0030762723181396723, -0.23789818584918976, -0.1382848471403122, 0.06759408116340637, 0.0843314453959465, -0.055442918092012405, -0.21539531648159027, 0.03300071507692337, -0.2327781617641449, -0.05736403167247772, -0.1724380999803543, 0.03524180129170418, -0.12146018445491791, 0.027583248913288116, -0.2671299874782562, -0.11183150857686996, -0.1446513682603836, -0.053759485483169556, 0.12472525984048843, 0.20091909170150757, 0.25957584381103516, -0.19516782462596893, -0.09904763102531433, -0.17884738743305206, 0.110775426030159, -0.19187434017658234, 0.31325963139533997, -0.03036472387611866, 0.12080968916416168, 0.014753374271094799, -0.16386744379997253, 0.19307799637317657, 0.14814138412475586, 0.1921963393688202, 0.1024097204208374, 0.43718257546424866, 0.007817835547029972, -0.10230380296707153, -0.016177553683519363, 0.2797054350376129, 0.011391429230570793, -0.010378162376582623, -0.14493323862552643, -0.259814590215683, -0.06594830006361008, -0.2366505116224289, 0.2223406434059143, -0.28225499391555786, 0.18222074210643768, -0.09116652607917786, 0.19864527881145477, 0.3444133698940277, 0.12347632646560669, -0.1422099471092224, 0.11949983239173889, -0.22192567586898804, 0.26265949010849, -0.05617281422019005, 0.13010026514530182, 0.13274040818214417, 0.010360972955822945, 0.08308606594800949, 0.03268584609031677], [0.21584154665470123, 0.0690598264336586, -0.18999992311000824, -0.18590131402015686, 0.09632501751184464, -0.3598203957080841, -0.15270459651947021, 0.13643519580364227, 0.07487263530492783, -0.031657058745622635, -0.195964515209198, 0.14548957347869873, 0.28201404213905334, 0.13060973584651947, -0.15021908283233643, 0.2156236320734024, 0.017732538282871246, -0.030198268592357635, -0.11632443964481354, -0.09138793498277664, 0.20210132002830505, -0.3568003475666046, 0.07342483848333359, -0.15836217999458313, -0.2115614265203476, 0.019120043143630028, -0.09197841584682465, 0.1025872454047203, 0.11203739047050476, 0.13549304008483887, 0.28992772102355957, -0.32555004954338074, 0.0715150386095047, 0.3236132264137268, 0.2689914107322693, -0.25446754693984985, -0.5469419360160828, 0.30970239639282227, -0.32191887497901917, -0.15920984745025635, -0.3582296073436737, 0.005220361985266209, 0.09898592531681061, 0.27051210403442383, -0.38226157426834106, -0.15544722974300385, -0.13513566553592682, 0.0499652735888958, -0.12259367853403091, -0.031575873494148254, 0.03887862712144852, 0.13769517838954926, 0.30421826243400574, 0.01773785799741745, 0.02691681496798992, 0.04714810848236084, 0.21599510312080383, 0.010528743267059326, 0.012672283686697483, 0.17169898748397827, -0.31336647272109985, 0.24156412482261658, -0.17219041287899017, 0.33217018842697144, -0.004953854717314243, -0.40069299936294556, -0.02143750712275505, 0.33750906586647034, 0.1263556331396103, 0.04672892391681671, -0.007881030440330505, -0.035982776433229446, 0.3266253173351288, -0.18086779117584229, 0.20134645700454712, -0.21782054007053375, -0.05189301818609238, -0.11372493952512741, 0.08576589822769165, -0.20313584804534912, -0.02822418324649334, 0.14476419985294342, 0.020243072882294655, -0.07395648956298828, 0.32802993059158325, -0.1683521866798401, -0.07400830835103989, 0.020069880411028862, 0.3061811029911041, -0.16697382926940918, -0.27681609988212585, 0.01387268491089344, -0.28103190660476685, 0.2440321445465088, 0.12558777630329132, 0.16807791590690613, 0.13335086405277252, 0.24360878765583038, -0.20848393440246582, 0.34413886070251465, -0.3297693729400635, -0.3154534697532654, 0.33669713139533997, 0.18372564017772675, 0.554121196269989, 0.22116264700889587, 0.4710630476474762, 0.31904324889183044, -0.1610725373029709, 0.1402936577796936, -0.018909867852926254, -0.34339070320129395, 0.24744519591331482, -0.1727765053510666, 0.017176467925310135, -0.12014959007501602, -0.4000767767429352, 0.16274477541446686, -0.07601968199014664, 0.2654096484184265, -0.2354458123445511, -0.05786757916212082, -0.4554266035556793, 0.21820542216300964, -0.2237842082977295, 0.09801378101110458, 0.2128095030784607, 0.017109010368585587], [-0.14177802205085754, 0.2092096358537674, 0.1575174480676651, -0.2601795196533203, 0.3326810300350189, -0.2544642686843872, 0.03706863522529602, -0.29220181703567505, -0.19003818929195404, -0.32582470774650574, 0.03283783793449402, -0.05279700830578804, 0.10312513262033463, -0.1533602774143219, 0.10433166474103928, 0.14989937841892242, -0.248011514544487, 0.060576070100069046, -0.009491188451647758, -0.01361730508506298, 0.08053143322467804, 0.1792794167995453, 0.3701464831829071, 0.07551068067550659, 0.3959486484527588, -0.005093589890748262, -0.25886374711990356, 0.0753922089934349, -0.07559608668088913, 0.029936544597148895, 0.12117627263069153, -0.421276718378067, 0.18034464120864868, -0.24328449368476868, -0.2855374813079834, -0.07320088148117065, -0.19214656949043274, -0.14800478518009186, -0.2121810019016266, 0.08897653967142105, -0.39998653531074524, 0.2874774634838104, -0.23883013427257538, 0.11064207553863525, -0.2177783101797104, -0.12049949914216995, 0.19115103781223297, -0.2511984407901764, 0.044996459037065506, 0.0735308900475502, 0.16344481706619263, 0.24536696076393127, -0.06621790677309036, 0.1158507689833641, -0.08293483406305313, -0.10517627745866776, -0.18465068936347961, 0.23358993232250214, 0.277784526348114, -0.3775489032268524, -0.07190213352441788, -0.36955854296684265, 0.12909215688705444, -0.016498444601893425, 0.11669299006462097, -0.06319316476583481, -0.21279743313789368, 0.40075865387916565, -0.15774208307266235, 0.06852022558450699, 0.023013245314359665, 0.12514834105968475, 0.0686483159661293, 0.07544050365686417, -0.03982564061880112, -0.3377092480659485, 0.16837915778160095, 0.24822132289409637, -0.3521184027194977, -0.08807305246591568, -0.24588075280189514, -0.11626557260751724, -0.10871521383523941, 0.04171505570411682, 0.08923710137605667, -0.10610698908567429, -0.14266888797283173, 0.3295535147190094, -0.30840012431144714, -0.12422208487987518, -0.37925469875335693, 0.12894074618816376, 0.16502277553081512, -0.2034628987312317, 0.10163240134716034, -0.3479600250720978, 0.2260727733373642, -0.000571211043279618, 0.11445349454879761, -0.05446455255150795, 0.025640763342380524, -0.11640911549329758, 0.12344769388437271, 0.17661291360855103, 0.022961804643273354, -0.19944369792938232, -0.2650626599788666, -0.08468497544527054, -0.23208178579807281, 0.027571290731430054, 0.09810469299554825, -0.4772518277168274, -0.1599666029214859, 0.2248256355524063, 0.24780547618865967, 0.1416221410036087, 0.35959333181381226, -0.13402867317199707, 0.06830788403749466, 0.3606245815753937, 0.14335429668426514, 0.15537600219249725, -0.24573667347431183, -0.09755267202854156, 0.05065365135669708, 0.09354134649038315, -0.17295435070991516, -0.1742989420890808], [-0.07864692807197571, 0.13096193969249725, -0.12625229358673096, -0.1599312722682953, -0.34937432408332825, -0.11720813810825348, -0.021917959675192833, -0.07928244769573212, -0.08999772369861603, -0.4400993883609772, 0.2130889743566513, -0.06371907889842987, 0.23246632516384125, -0.025499936193227768, 0.06732547283172607, -0.13438071310520172, 0.24531494081020355, -0.07271026819944382, 0.05669885501265526, -0.04629331827163696, -0.06447400152683258, -0.12782622873783112, 0.05756933242082596, -0.10437026619911194, -0.2278156876564026, -0.3555298447608948, -0.2490418404340744, 0.1940404325723648, 0.18136484920978546, 0.3999384939670563, 0.14362747967243195, 0.2397823929786682, 0.059622835367918015, -0.36191409826278687, -0.018497517332434654, 0.13941647112369537, 0.2512895464897156, -0.11070553213357925, 0.1617710292339325, -0.16725634038448334, -0.2229270339012146, -0.010715832933783531, -0.12031189352273941, 0.15973162651062012, 0.24899645149707794, 0.07127685099840164, 0.11425203084945679, 0.05111325904726982, 0.11813981086015701, -0.2503257095813751, -0.028011050075292587, -0.2949428856372833, -0.007557128090411425, -0.1281692087650299, -0.2158711850643158, -0.08448036760091782, -0.2245052009820938, 0.16448454558849335, 0.153900608420372, -0.17520399391651154, -0.14653512835502625, -0.20625926554203033, -0.1643916666507721, -0.03817875310778618, -0.13667312264442444, 0.26438841223716736, -0.05238529294729233, -0.19410578906536102, -0.01882161758840084, 0.0746111050248146, 0.16785289347171783, -0.19971928000450134, -0.13303209841251373, -0.14172741770744324, -0.28396493196487427, 0.0441424697637558, 0.10178931057453156, -0.0049530924297869205, 0.2654954493045807, 0.09076674282550812, 0.13819630444049835, 0.06982189416885376, -0.13741613924503326, 0.13395194709300995, -0.03806484863162041, 0.05414910241961479, -0.2219356745481491, -0.19245091080665588, 0.12221718579530716, -0.03629552945494652, -0.05595758184790611, -0.03826658055186272, -0.019704390317201614, -0.1913975179195404, 0.14494703710079193, -0.12877796590328217, 0.2418564260005951, 0.23260369896888733, 0.11306930333375931, 0.02605036087334156, 0.18231821060180664, -0.07171770930290222, 0.1347099095582962, -0.16349688172340393, -0.07264804095029831, 0.092964768409729, -0.3046209216117859, -0.09956417977809906, -0.13911330699920654, 0.2516315281391144, -0.09103402495384216, 0.1499079316854477, -0.14165927469730377, 0.26445838809013367, 0.14573028683662415, 0.1955287754535675, 0.12715071439743042, -0.12116508185863495, -0.07292583584785461, 0.07062385231256485, -0.2752220034599304, 0.012824022211134434, 0.24734289944171906, -0.1045147255063057, 0.3474416434764862, -0.14473223686218262, 0.02349661849439144, -0.1930372714996338], [-0.08256135880947113, 0.22121968865394592, 0.04728638753294945, -0.11190477758646011, -0.15956977009773254, 0.10181710869073868, 0.09699273109436035, 0.053889334201812744, 0.10879239439964294, 0.006897549610584974, -0.23000265657901764, -0.016378678381443024, 0.03933366388082504, 0.11787471175193787, 0.07421877980232239, -0.2113422453403473, -0.21242208778858185, 0.001285321544855833, -0.16068868339061737, -0.034936435520648956, -0.09407038241624832, 0.08102983236312866, -0.10311923921108246, -0.0696503072977066, 0.05292303115129471, 0.03653798997402191, 0.10616859048604965, -0.06353916972875595, -0.16525305807590485, -0.19069251418113708, 0.15107795596122742, 0.13979506492614746, -0.15053564310073853, -0.05018744245171547, 0.04858536273241043, 0.0070637911558151245, -0.007817243225872517, 0.0062837013974785805, 0.12486477196216583, 0.08430963009595871, 0.18855294585227966, -0.045029766857624054, 0.13685616850852966, -0.0432247519493103, 0.044244587421417236, -0.004966277163475752, -0.019839772954583168, 0.09960153698921204, 0.054499562829732895, 0.02223780006170273, 0.09971622377634048, -0.1005067303776741, -0.12949812412261963, -0.027096739038825035, 0.010359322652220726, -0.15089309215545654, 0.031976278871297836, 0.2864670157432556, 0.030562372878193855, -0.1910526305437088, 0.07144239544868469, -0.026566358283162117, 0.026925403624773026, 0.03031408041715622, -0.16447307169437408, -0.051265228539705276, -0.026747887954115868, 0.02885548025369644, 0.09903565049171448, 0.06941068917512894, -0.308756947517395, -0.03699522465467453, -0.001612781430594623, 0.017746534198522568, -0.16646736860275269, 0.08121975511312485, -0.0019616337958723307, -0.1539531946182251, -0.008414721116423607, 0.21393044292926788, -0.03561781346797943, 0.1412370651960373, 0.10520675033330917, -0.17045272886753082, -0.01142802182585001, -0.09833216667175293, 0.16438807547092438, 0.1589629352092743, 0.21857039630413055, -0.07953708618879318, 0.27690020203590393, 0.09537943452596664, -0.10566327720880508, -0.054368067532777786, 0.03176106885075569, 0.01905924268066883, 0.05716974288225174, -0.18423643708229065, -0.030513079836964607, 0.021163780242204666, -0.09555192291736603, 0.15543639659881592, -0.02611064352095127, 0.03601159527897835, -0.07060378044843674, 0.023150520399212837, 0.2068432867527008, 0.11994349956512451, -0.14156509935855865, -0.0010956361657008529, 0.15486948192119598, 0.004355405457317829, 0.2608620226383209, -0.10269337147474289, -0.1254044771194458, 0.07323498278856277, 0.05653750151395798, -0.021046575158834457, 0.07046803832054138, 0.06869310140609741, -0.1655794084072113, -0.01816098392009735, 0.16054414212703705, -0.08854453265666962, 0.0687565952539444, -0.016506647691130638, 0.00092516397126019, -0.08961495012044907], [0.040908027440309525, 0.07171750068664551, 0.05040362849831581, 0.2550514340400696, 0.37643736600875854, -0.10663895308971405, -0.15900929272174835, -0.11227410286664963, -0.12631277740001678, 0.10373912751674652, -0.26660680770874023, -0.025969713926315308, -0.13379517197608948, -0.08901903033256531, -0.07277604192495346, -0.07954447716474533, -0.17024986445903778, 0.0030008405447006226, -0.15275564789772034, 0.05983520299196243, 0.011098016053438187, -0.1975451558828354, 0.2777891159057617, 0.11576484143733978, 0.09133536368608475, 0.18169307708740234, -0.011366727761924267, 0.0796322450041771, -0.08508045971393585, 0.13470028340816498, 0.13324865698814392, -0.043983086943626404, 0.16388307511806488, 0.1844058632850647, 0.05832081288099289, 0.09968992322683334, -0.08117055892944336, -0.016180386766791344, -0.18325987458229065, -0.08992666751146317, -0.08326185494661331, -0.2326769083738327, 0.1292208731174469, 0.1625838428735733, -0.03974932059645653, -0.11654014140367508, -0.029452335089445114, -0.20605558156967163, 0.03239363804459572, -0.10667138546705246, -0.041697874665260315, -0.09908945113420486, -0.037801921367645264, 0.05767003446817398, -0.005882751662284136, 0.17325171828269958, -0.057687852531671524, 0.03884914889931679, -0.18879100680351257, 0.09578220546245575, -0.0018784094136208296, -0.057894326746463776, -0.17942896485328674, 0.057653266936540604, -0.014707195572555065, -0.04211452230811119, -0.03360900282859802, 0.014206543564796448, 0.008914574049413204, 0.19510264694690704, -0.08491772413253784, 0.18987077474594116, 0.05387738347053528, -0.2628175914287567, 0.10308476537466049, -0.20409102737903595, -0.1732470840215683, 0.0536993145942688, -0.16246744990348816, 0.04652126505970955, 0.15945786237716675, -0.09997249394655228, 0.10470132529735565, -0.018991580232977867, 0.12549662590026855, -0.03836750239133835, -0.017285123467445374, -0.006616320926696062, -0.10842832922935486, 0.13118578493595123, -0.3133688271045685, 0.23339159786701202, 0.07060719281435013, 0.176262766122818, -0.0945301279425621, 0.02515658736228943, -0.013361004181206226, 0.05750494450330734, -0.09610368311405182, 0.02723640762269497, 0.17449668049812317, 0.012040830217301846, -0.059433531016111374, 0.31419867277145386, -0.01643069088459015, -0.0018873614026233554, 0.3316020667552948, 0.36845797300338745, -0.2873747646808624, -0.10447979718446732, 0.26584866642951965, 0.03003501519560814, 0.14470231533050537, 0.02386005036532879, -0.060545966029167175, -0.09375600516796112, -0.16319961845874786, -0.015568818897008896, 0.039625708013772964, 0.14708386361598969, -0.1816692352294922, 0.024426748976111412, -0.003707912052050233, 0.03162843734025955, -0.04887274652719498, -0.04785441979765892, -0.10412439703941345, 0.20875734090805054], [0.08596215397119522, -0.05144493281841278, -0.15942975878715515, -0.033210717141628265, 0.13162562251091003, 0.0942520946264267, 0.04442135617136955, -0.01975463517010212, -0.18297262489795685, 0.06723452359437943, 0.13900038599967957, 0.03169471025466919, -0.1196344867348671, -0.01641022227704525, -0.232793927192688, -0.004358967766165733, 0.014517965726554394, 0.12269570678472519, -0.13830290734767914, -0.2013244777917862, 0.17962737381458282, -0.06504679471254349, 0.12133535742759705, 0.11197152733802795, 0.11885222047567368, -0.04265260323882103, 0.14432287216186523, 0.15509231388568878, -0.016997965052723885, -0.1412825584411621, -0.020605389028787613, -0.08828157186508179, -0.1661890596151352, -0.06852849572896957, -0.014076891355216503, 0.03938310593366623, -0.12082312256097794, -0.08454015851020813, 0.023582011461257935, -0.07608819752931595, 0.20345428586006165, 0.08334065228700638, -0.14618314802646637, 0.06989535689353943, -0.01879289746284485, -0.14441505074501038, 0.06599943339824677, -0.18775461614131927, -0.00464499881491065, -0.09426745027303696, -0.019777171313762665, 0.06502646207809448, 0.025763267651200294, -0.043823178857564926, 0.007444711867719889, 0.06904943287372589, 0.0028774673119187355, 0.04527059569954872, -0.038821030408144, 0.1441989690065384, -0.12808077037334442, 0.003516274970024824, 0.07347852736711502, -0.0588669516146183, 0.02640659175813198, 0.04785805195569992, 0.06320850551128387, -0.012786934152245522, -0.009260784834623337, -0.03812060132622719, -0.06109163537621498, -0.1169423758983612, 0.21045884490013123, 0.05690569803118706, 0.0658172219991684, -0.018683621659874916, 0.0003149470721837133, -0.08201787620782852, 0.04104563593864441, 0.06466352939605713, 0.006784345488995314, 0.052699171006679535, -0.058625251054763794, 0.1760607808828354, 0.10434237122535706, 0.03414441645145416, -0.06136571243405342, -0.0029241449665278196, 0.025596966966986656, -0.09106423705816269, -0.017627783119678497, -0.006450624205172062, -0.07027111947536469, -0.021221868693828583, -0.1615275740623474, -0.13117662072181702, 0.00029567154706455767, 0.08177676051855087, -0.09731068462133408, -0.018111279234290123, -0.03515728563070297, -0.13865292072296143, 0.06940257549285889, 0.006333708297461271, 0.2105848491191864, -0.10786352306604385, 0.038744717836380005, -0.005830514710396528, -0.06758060306310654, 0.01269453577697277, 0.035366639494895935, -0.16949178278446198, -0.03554438799619675, 0.07144927978515625, 0.033710625022649765, 0.05579085648059845, -0.11092976480722427, -0.07236426323652267, -0.01980004273355007, -0.023983893916010857, -0.08224117010831833, 0.10219985991716385, -0.0441511832177639, 0.07430306077003479, -0.1660984754562378, 0.07303982973098755, 0.12418819963932037, -0.12106461077928543], [-0.87200528383255, -0.21035341918468475, 0.6685747504234314, 1.2718620300292969, -0.16735243797302246, 0.9837501049041748, -0.5770130157470703, -1.619956135749817, -1.6130565404891968, -0.6293447017669678, -4.146143436431885, 0.30018842220306396, 1.2155489921569824, -0.7683106064796448, -1.220693588256836, 0.48191359639167786, -0.6535789966583252, 0.06874822080135345, -1.8936020135879517, 0.11006370186805725, -1.0121703147888184, 1.2820383310317993, 2.4438962936401367, 2.0058786869049072, -1.512062907218933, 3.387770891189575, -0.3584323525428772, 0.6568859219551086, 1.4068896770477295, -0.6892664432525635, 1.990885853767395, 0.05724244937300682, 0.9774121642112732, 1.2856128215789795, -2.248375654220581, -0.8077012896537781, 0.7341690063476562, -3.5787339210510254, -2.0130701065063477, -2.019094228744507, 1.3115726709365845, -0.4468155801296234, 1.1292260885238647, 0.8037369251251221, -0.9762024879455566, 2.0469248294830322, 1.5991564989089966, 0.25651514530181885, 1.0413697957992554, -1.2566457986831665, 0.007269245106726885, -0.6673341989517212, 0.42939406633377075, 0.9203331470489502, 2.702002763748169, -0.0983661338686943, 1.0439283847808838, 0.04297736659646034, -3.256293535232544, -0.32899659872055054, 0.5522691011428833, -1.5635571479797363, -0.4232926666736603, 1.0017191171646118, -1.2649626731872559, -1.0588048696517944, 0.16183777153491974, 0.21822533011436462, -0.9927529692649841, 1.4590821266174316, 1.1716184616088867, -1.8089550733566284, -2.1588516235351562, -2.5247695446014404, -0.6737450957298279, -0.8210347294807434, 0.08322025090456009, -0.30268457531929016, -0.9217662811279297, 2.9455361366271973, 1.285076379776001, 0.31836825609207153, 0.9998193383216858, -2.001633644104004, -0.6790128946304321, 0.25592321157455444, -1.391230821609497, 1.2111608982086182, 3.142300844192505, 0.8383967876434326, -0.885332465171814, 2.264108896255493, 2.215872049331665, 1.943132758140564, -0.37542369961738586, -0.10717928409576416, -1.721383810043335, 1.1706804037094116, 2.8916525840759277, -1.3956208229064941, 2.2503652572631836, 1.9593079090118408, -2.4355032444000244, 1.9899498224258423, 0.139853373169899, -0.5886183977127075, 0.07367388904094696, 1.1590971946716309, -0.061472337692976, 0.9569677710533142, -0.6249702572822571, 0.4705900251865387, -0.7134747505187988, -0.6988489031791687, -0.07123453170061111, -2.1070761680603027, -0.2798597514629364, -0.6016505360603333, 0.2029213160276413, 0.142428919672966, 0.311213880777359, -1.5416247844696045, -0.9284274578094482, 3.98042368888855, 1.192615270614624, 0.0859808623790741, 0.8556973934173584, 1.272477149963379], [1.830198049545288, -0.1896032989025116, 3.6487576961517334, 2.2710611820220947, 3.9242513179779053, -1.0115814208984375, -0.3066662847995758, 2.4822282791137695, -4.10170316696167, 1.9334406852722168, 0.36494165658950806, -1.6596332788467407, -2.9666824340820312, -0.7254902720451355, -6.4275946617126465, 7.165875434875488, 5.455406188964844, -3.4690053462982178, -2.5435492992401123, 5.5731892585754395, 